tree
version=v3
num_class=1
num_tree_per_iteration=1
label_index=0
max_feature_idx=22
objective=regression
feature_names=CryoSleep Age VIP RoomService FoodCourt ShoppingMall Spa VRDeck HomePlanet_Earth HomePlanet_Europa HomePlanet_Mars Destination_55_Cancri_e Destination_PSO_J318.5-22 Destination_TRAPPIST-1e deck_A deck_B deck_C deck_D deck_E deck_F deck_G deck_T side_P
feature_infos=[0:1] [0:79] [0:1] [0:14327] [0:29813] [0:23492] [0:22408] [0:24133] [0:1] [0:1] [0:1] [0:1] [0:1] [0:1] [0:1] [0:1] [0:1] [0:1] [0:1] [0:1] [0:1] none [0:1]
tree_sizes=4772 3777 2815 5360 5231 5039 5278 3480 5219 4954 5293 4296 5336 3728 5428 5006 5470 4370 4153 4920 4052 3237 3802 5721 3895 5914 3879 4070 4712 3304 6075 6157 4353 4313 5812 6677 4294 5754 5852 6139 5630 6209 6266 4065 4157 6317 5723 4421 4236 6359 4043 6230 3773 6304 5969 6087 6391 5229 6815 3153 4320 4180 3396 6104 5793 4767 4576 6345 4136 4379 6531 6309 5614 5852 4591 3152 6223 6477 3654 6271 6001 5256 5864 3998 4387 4058 5425 5438 5897 4080 3880 5828 4134 3937 3944 3916 4399 6200 5757 6500

Tree=0
num_leaves=56
num_cat=0
split_feature=7 9 5 4 8 19 5 4 7 5 19 4 7 7 4 1 4 4 8 5 11 7 5 8 7 7 1 1 1 1 1 7 5 4 5 1 1 1 1 5 5 1 1 1 11 7 7 7 7 7 7 7 1 1 5
split_gain=155.638 83.3422 47.7997 32.8039 30.9397 25.7604 17.4749 18.4395 17.4546 11.03 6.40672 5.47411 5.24081 5.14221 4.54206 3.18531 3.02615 2.92631 2.75126 4.27594 2.32493 2.21302 1.67459 1.34778 1.11367 1.06254 0.926982 2.35085 2.13136 1.14345 0.723083 0.721179 0.573826 0.53041 0.519286 0.392155 1.34045 1.03815 0.363661 0.332121 0.180523 0.172253 0.167781 0.150752 0.133168 0.122061 0.379897 0.11349 0.411238 0.276257 0.244923 0.333403 0.0978729 0.07391 0.0255184
threshold=1.0000000180025095e-35 1.0000000180025095e-35 1.0000000180025095e-35 1421.5000000000002 1.0000000180025095e-35 1.0000000180025095e-35 672.50000000000011 52.500000000000007 1513.5000000000002 551.50000000000011 1.0000000180025095e-35 532.50000000000011 97.500000000000014 83.500000000000014 477.50000000000006 21.500000000000004 1.0000000180025095e-35 3632.0000000000005 1.0000000180025095e-35 1257.0000000000002 1.0000000180025095e-35 971.50000000000011 164.50000000000003 1.0000000180025095e-35 175.50000000000003 1178.5000000000002 1.5000000000000002 11.500000000000002 17.500000000000004 7.5000000000000009 36.500000000000007 7.5000000000000009 381.50000000000006 576.50000000000011 921.50000000000011 27.500000000000004 34.500000000000007 24.500000000000004 13.500000000000002 271.50000000000006 129.50000000000003 21.500000000000004 26.500000000000004 43.500000000000007 1.0000000180025095e-35 4.5000000000000009 2.5000000000000004 262.50000000000006 602.00000000000011 122.50000000000001 25.500000000000004 56.500000000000007 19.500000000000004 14.500000000000002 870.50000000000011
decision_type=2 2 2 2 2 2 2 2 2 2 2 2 2 2 2 2 2 2 2 2 2 2 2 2 2 2 2 2 2 2 2 2 2 2 2 2 2 2 2 2 2 2 2 2 2 2 2 2 2 2 2 2 2 2 2
left_child=1 2 4 9 5 42 7 23 17 11 16 21 34 31 15 -12 20 24 19 -8 26 39 33 -4 -5 -15 -6 29 53 -28 -19 -13 -25 -9 -11 37 -37 41 -22 40 45 52 -1 -38 -3 46 -2 49 -49 50 -47 -52 -30 -29 -20
right_child=3 44 6 8 10 -7 18 22 -10 12 14 13 -14 25 -16 -17 -18 30 54 -21 38 -23 -24 32 -26 -27 27 28 35 -31 -32 -33 -34 -35 -36 36 43 -39 -40 -41 -42 -43 -44 -45 -46 47 -48 48 -50 -51 51 -53 -54 -55 -56
leaf_value=0.49635482865493608 0.46968127726398778 0.54779941428064249 0.46292208691557674 0.51916341678674283 0.52531197208055136 0.5512879846317007 0.48681552528541994 0.49443175167519815 0.4702472630947242 0.50337306056461295 0.50345079371780654 0.5112313280899573 0.47572701358749936 0.48276147111151024 0.5187264930581692 0.47309854542531066 0.4972734030889257 0.53884509376460166 0.51907446557589521 0.52351829900991942 0.51988219985316197 0.45929516117916552 0.52287475073180933 0.47221741792868843 0.50308820069412608 0.4626557837474925 0.50740787914864227 0.52170011713813369 0.51351753228342922 0.48991751420410035 0.52170011713813369 0.49551428554699034 0.48673944375624639 0.50811720828530826 0.51515687659410736 0.52576466641632369 0.51269275226970668 0.49972701429712085 0.53133421530497671 0.47982178394307567 0.46337774916947833 0.51762596654897475 0.50444264935028027 0.50593053074794458 0.55335482399425917 0.46636578078610114 0.4833513580052316 0.47817859804587143 0.46909790556899816 0.46162048254524396 0.48425713667879783 0.47011745940037836 0.50690355243874496 0.53065269350016409 0.52685043366444584
leaf_weight=52 58 358 199 90 65 422 74 52 89 88 63 51 75 74 56 86 96 76 51 55 72 180 57 155 76 59 116 55 61 53 55 63 52 54 61 83 81 75 94 95 66 73 80 78 297 102 76 167 161 84 53 63 63 71 65
leaf_count=52 58 358 199 90 65 422 74 52 89 88 63 51 75 74 56 86 96 76 51 55 72 180 57 155 76 59 116 55 61 53 55 63 52 54 61 83 81 75 94 95 66 73 80 78 297 102 76 167 161 84 53 63 63 71 65
internal_value=0.505752 0.518363 0.510607 0.482925 0.519324 0.539218 0.490363 0.480733 0.508956 0.476523 0.511075 0.473107 0.497326 0.486923 0.494891 0.485655 0.514032 0.520695 0.51256 0.502784 0.515618 0.470056 0.508912 0.469318 0.511555 0.473532 0.513482 0.512481 0.515269 0.502167 0.531962 0.502907 0.475666 0.501793 0.507921 0.512295 0.515337 0.509437 0.526615 0.472195 0.471371 0.513343 0.500944 0.509635 0.550381 0.472116 0.477127 0.471116 0.473596 0.468559 0.471421 0.476222 0.51049 0.527072 0.523787
internal_weight=0 3364 2709 1962 1895 554 814 569 386 1576 1341 1352 224 247 205 149 1136 297 245 129 1040 1105 163 406 166 133 874 809 640 169 131 114 207 106 149 514 242 272 166 925 830 197 132 159 655 764 134 630 328 302 218 116 124 126 116
internal_count=5326 3364 2709 1962 1895 554 814 569 386 1576 1341 1352 224 247 205 149 1136 297 245 129 1040 1105 163 406 166 133 874 809 640 169 131 114 207 106 149 514 242 272 166 925 830 197 132 159 655 764 134 630 328 302 218 116 124 126 116
is_linear=0
shrinkage=1


Tree=1
num_leaves=42
num_cat=0
split_feature=0 20 6 3 4 4 6 4 10 4 6 3 13 9 10 3 4 4 11 3 6 6 4 6 6 6 3 4 4 3 6 3 3 11 16 4 4 3 3 3 3
split_gain=229.176 33.6347 33.0814 43.3148 19.1949 5.98015 8.87897 5.32055 4.78335 3.67601 3.75953 3.32562 2.68372 2.23132 2.11358 1.93847 1.85124 2.5263 1.47128 1.3482 1.23458 1.18869 1.12331 1.01215 0.973968 0.767576 1.08066 0.666366 0.655387 0.455042 0.378212 0.275879 0.264576 0.220249 0.218483 0.216544 0.138764 0.0940503 0.0398454 0.031377 0.131867
threshold=1.0000000180025095e-35 1.0000000180025095e-35 265.50000000000006 307.00000000000006 2086.5000000000005 1541.5000000000002 2515.0000000000005 751.50000000000011 1.0000000180025095e-35 751.50000000000011 36.500000000000007 3.5000000000000004 1.0000000180025095e-35 1.0000000180025095e-35 1.0000000180025095e-35 1442.5000000000002 1.0000000180025095e-35 165.50000000000003 1.0000000180025095e-35 1.5000000000000002 1027.5000000000002 1156.5000000000002 3750.5000000000005 1.0000000180025095e-35 5.5000000000000009 1.5000000000000002 725.50000000000011 356.00000000000006 193.50000000000003 349.00000000000006 451.50000000000006 506.50000000000006 948.50000000000011 1.0000000180025095e-35 1.0000000180025095e-35 532.50000000000011 7.5000000000000009 82.500000000000014 7.5000000000000009 2464.5000000000005 1832.0000000000002
decision_type=2 2 2 2 2 2 2 2 2 2 2 2 2 2 2 2 2 2 2 2 2 2 2 2 2 2 2 2 2 2 2 2 2 2 2 2 2 2 2 2 2
left_child=2 13 3 4 8 20 21 15 9 10 11 16 33 14 -2 25 18 36 23 -10 27 -7 -6 -1 -11 -5 31 29 -13 30 -4 -27 -28 -3 -22 -19 -18 -21 -12 40 -17
right_child=1 12 5 7 22 6 -8 -9 19 24 38 28 -14 -15 -16 39 17 35 -20 37 34 -23 -24 -25 -26 26 32 -29 -30 -31 -32 -33 -34 -35 -36 -37 -38 -39 -40 -41 -42
leaf_value=0.0014593153232807061 0.014837217438965766 0.016678879390774712 -0.023844782115864712 -0.031152573970808881 0.022494846025752059 0.0070428208928814007 -0.048234161102206463 0.0011539395228497612 0.02018312485357766 0.011971448041030262 -0.023423114282621102 -0.020642805362637701 0.0074292856866003069 0.043823128445106746 0.036444842815229521 -0.041848891189006109 -0.012178898257288861 -0.0017600771777046649 0.014072397921168853 0 -0.043908384703523928 -0.012481420092652205 0.041003205134661755 -0.01262718949181185 -0.0013316291440987602 -0.021123162759101494 -0.035910886376003086 -0.019722268214407632 -0.0076003650595707767 -0.042966770745344045 -0.034021433870024931 -0.0093520598815973171 -0.022712694660402547 0.023730833867929738 -0.033113267248413313 0.0062147675402292133 -0.020723417606804847 0.0057362636012080782 -0.01634834651339646 -0.045641700589015427 -0.029381973545724582
leaf_weight=274 58 218 80 341 80 77 57 53 83 115 130 148 489 568 442 61 68 78 79 56 216 52 82 62 96 53 60 53 68 71 272 63 57 117 62 55 88 57 64 72 51
leaf_count=274 58 218 80 341 80 77 57 53 83 115 130 148 489 568 442 61 68 78 79 56 216 52 82 62 96 53 60 53 68 71 272 63 57 117 62 55 88 57 64 72 51
internal_value=0 0.0275435 -0.0157997 -0.00975015 -0.000576878 -0.0318065 -0.0153553 -0.0287358 -0.00408627 -0.0062626 -0.00856986 -0.00584027 0.0122911 0.0392727 0.0340208 -0.0308801 -0.00244121 -0.00861086 0.00175587 0.0104158 -0.03581 -0.000507741 0.0321178 -0.00101725 0.00572342 -0.0277804 -0.0226682 -0.0323131 -0.0167278 -0.0337932 -0.0318257 -0.0150857 -0.0298335 0.0192649 -0.0416492 0.00122773 -0.0172632 0.00287662 -0.0213017 -0.0403258 -0.0365402
internal_weight=0 1892 3434 2494 1683 940 186 811 1521 1325 1114 920 824 1068 500 758 704 289 415 196 754 129 162 336 211 574 233 476 216 423 352 116 117 335 278 133 156 113 194 184 112
internal_count=5326 1892 3434 2494 1683 940 186 811 1521 1325 1114 920 824 1068 500 758 704 289 415 196 754 129 162 336 211 574 233 476 216 423 352 116 117 335 278 133 156 113 194 184 112
is_linear=0
shrinkage=0.1


Tree=2
num_leaves=31
num_cat=0
split_feature=5 4 8 4 5 4 18 20 5 8 4 4 11 8 11 8 4 5 4 4 20 4 5 5 5 4 20 4 5 5
split_gain=59.8587 66.3581 59.5021 20.9453 18.9687 17.2602 15.7118 9.95185 3.9601 5.80441 2.76461 2.16053 1.39508 1.3823 1.29272 1.05714 2.02965 1.04696 0.996049 0.70551 0.464049 0.427267 0.3988 0.359082 0.348932 0.275196 0.689236 0.211256 0.16979 0.278181
threshold=1.0000000180025095e-35 1.0000000180025095e-35 1.0000000180025095e-35 639.50000000000011 558.50000000000011 251.50000000000003 1.0000000180025095e-35 1.0000000180025095e-35 1709.5000000000002 1.0000000180025095e-35 3295.0000000000005 2507.5000000000005 1.0000000180025095e-35 1.0000000180025095e-35 1.0000000180025095e-35 1.0000000180025095e-35 1028.5000000000002 365.00000000000006 896.50000000000011 1541.5000000000002 1.0000000180025095e-35 4273.0000000000009 978.50000000000011 699.50000000000011 908.50000000000011 487.50000000000006 1.0000000180025095e-35 8.5000000000000018 36.500000000000007 7.5000000000000009
decision_type=2 2 2 2 2 2 2 2 2 2 2 2 2 2 2 2 2 2 2 2 2 2 2 2 2 2 2 2 2 2
left_child=1 2 6 25 5 13 -1 -4 9 22 15 14 -9 -2 18 16 -7 -15 -5 -20 23 -13 -6 -11 -25 26 27 -3 29 -17
right_child=4 3 7 11 8 10 -8 12 -10 20 -12 21 -14 17 -16 28 -18 -19 19 -21 -22 -23 -24 24 -26 -27 -28 -29 -30 -31
leaf_value=0.03641400171264144 -0.034582493665302298 -0.025910742130074382 -0.016262331278815871 0.0061580996642325745 -0.020521860920984937 -0.02801532396950154 -0.00038444109232818624 0.0040553923796650083 0.019734599206262943 0.0098401159114765574 0.015407111034687976 0.0029337014125293721 0.014021069674604142 -0.027622287825372543 -0.018265050172913622 0 -0.00212425939430518 -0.014734595682617691 -0.012976997846417657 0.00118764089753625 0.013102653249635821 0.013030749958180874 -0.0098596091990136425 -0.0042168361689523598 0.0065439600297746052 -0.019683625839872002 -0.020740773340561264 -0.034367258568609747 0.0012984303143399522 -0.0096192951252057051
leaf_weight=1047 321 89 255 91 113 59 128 903 91 59 64 96 173 512 62 56 70 89 84 52 79 98 80 71 52 52 86 268 70 56
leaf_count=1047 321 89 255 91 113 59 128 903 91 59 64 96 173 512 62 56 70 89 84 52 79 98 80 71 52 52 86 268 70 56
internal_value=0 0.00733901 0.0159685 -0.0147308 -0.0149489 -0.021528 0.0323702 0.00145813 0.000632434 -0.00310558 -0.00331495 0 0.00569601 -0.0288909 -0.00539487 -0.00730032 -0.0142856 -0.0257824 -0.00169801 -0.00725789 0.006505 0.00824684 -0.0163159 0.0034146 0 -0.0291868 -0.0302092 -0.0323746 -0.00212265 -0.00462902
internal_weight=0 3484 2506 978 1842 1297 1175 1331 545 454 375 483 1076 922 289 311 129 601 227 136 261 194 193 182 123 495 443 357 182 112
internal_count=5326 3484 2506 978 1842 1297 1175 1331 545 454 375 483 1076 922 289 311 129 601 227 136 261 194 193 182 123 495 443 357 182 112
is_linear=0
shrinkage=0.1


Tree=3
num_leaves=61
num_cat=0
split_feature=3 4 20 5 18 4 5 4 5 5 13 3 5 4 3 1 1 4 3 4 5 4 1 1 1 4 1 3 1 1 1 1 5 1 1 1 4 5 1 3 5 4 1 3 1 1 1 1 15 3 3 1 1 1 1 1 1 1 1 3
split_gain=95.2466 40.7673 17.8913 16.9367 12.6635 12.0299 10.0086 8.55885 11.804 6.43179 3.86583 2.99602 4.27421 2.99596 1.66738 1.48636 0.9986 0.987759 0.940748 0.914417 0.883097 0.835724 0.823598 0.931057 2.4314 0.675728 0.634692 0.500693 0.467894 0.448915 0.404077 0.3768 0.337191 0.626534 0.677497 0.315882 0.292094 0.287506 0.426958 0.86934 0.803048 0.252684 0.246047 0.227515 0.226044 0.22536 1.16318 0.244815 0.177887 0.141587 0.0858097 0.0806186 0.14578 0.0339785 0.176651 0.120074 0.0471123 0.0175322 0.206362 0.0140591
threshold=1.0000000180025095e-35 1.0000000180025095e-35 1.0000000180025095e-35 1.0000000180025095e-35 1.0000000180025095e-35 672.00000000000011 1257.0000000000002 532.50000000000011 101.50000000000001 622.50000000000011 1.0000000180025095e-35 340.00000000000006 285.50000000000006 3632.0000000000005 370.00000000000006 30.500000000000004 26.500000000000004 6.5000000000000009 1442.5000000000002 2025.5000000000002 558.50000000000011 391.00000000000006 1.5000000000000002 12.500000000000002 17.500000000000004 1108.5000000000002 21.500000000000004 84.500000000000014 34.500000000000007 34.500000000000007 18.500000000000004 43.500000000000007 32.500000000000007 33.500000000000007 41.500000000000007 7.5000000000000009 165.50000000000003 129.50000000000003 20.500000000000004 711.50000000000011 1.2500000000000002 857.00000000000011 31.500000000000004 758.50000000000011 26.500000000000004 27.500000000000004 37.500000000000007 22.500000000000004 1.0000000180025095e-35 1001.0000000000001 64.500000000000014 16.500000000000004 24.500000000000004 24.500000000000004 27.500000000000004 21.500000000000004 33.500000000000007 4.5000000000000009 14.500000000000002 35.500000000000007
decision_type=2 2 2 2 2 2 2 2 2 2 2 2 2 2 2 2 2 2 2 2 2 2 2 2 2 2 2 2 2 2 2 2 2 2 2 2 2 2 2 2 2 2 2 2 2 2 2 2 2 2 2 2 2 2 2 2 2 2 2 2
left_child=1 2 3 4 48 6 11 8 17 -5 45 12 21 16 15 25 41 -3 37 -17 -10 28 -12 35 -25 -7 -14 -28 30 -15 -2 53 33 -18 -35 -24 -19 38 -13 40 -40 -9 -6 -39 -20 47 -47 57 51 -41 -30 -1 -53 55 -55 -26 -56 -4 -59 -32
right_child=5 7 10 9 42 14 -8 13 20 -11 22 18 26 29 -16 19 32 36 44 -21 -22 -23 23 24 31 -27 27 -29 50 -31 59 -33 -34 34 -36 -37 -38 43 39 49 -42 -43 -44 -45 -46 46 -48 -49 -50 -51 -52 52 -54 54 56 -57 -58 58 -60 -61
leaf_value=0.033612397344688981 -0.019040688280499034 -0.018306693324635203 0.018170887236155946 -0.029884588180879593 -0.0025278930250890912 0.0015886050783244907 0.0084454746601634791 0 -0.0020200719516483934 0.012146559279759354 0.013367715483656038 -0.031263770753065995 -0.016250240396535949 0.021884768120855547 -0.014395889970746029 -0.012057951138399829 -0.011772792455576331 -0.036825279145814051 -0.028788060218098623 0.0039243660599895241 0.013542804871588205 -0.012304972288914154 -0.0016205853940434443 0.01948721024845082 0 0.017514923481672787 -0.0088322864450859004 0.0021496812438904361 -0.023518449935759592 0.0079580950426268275 -0.033974811221622075 -0.0064909609246819365 -0.014598526181160544 0.0071085424769196 -0.0075968631145204571 -0.011308873557067107 -0.026772682121395476 -0.034568766901034123 -0.022175541101453606 -0.030804325507659793 -0.0060602532833982127 0.0088401527330501575 0.0056972422179680706 -0.023977743615923353 -0.039417847339599632 0.029196738465713818 0.0072861460664984182 0.0058764999717673015 0.034620233399236047 -0.021873920224550352 -0.014135436632273294 0.024409490118802037 0.030133952597847891 -0.0043057262427803533 0.0049727926745586019 0.0064107704360686184 0.0002924713765948659 0.0065569890614059463 0.015466080111930489 -0.026999869341520311
leaf_weight=188 55 79 57 72 97 54 99 56 66 72 58 96 58 55 73 73 80 132 78 65 72 61 99 76 82 68 84 73 62 63 126 74 52 61 64 63 96 107 85 101 62 57 57 71 110 57 53 65 264 83 51 152 510 53 51 53 75 60 111 99
leaf_count=188 55 79 57 72 97 54 99 56 66 72 58 96 58 55 73 73 80 132 78 65 72 61 99 76 82 68 84 73 62 63 126 74 52 61 64 63 96 107 85 101 62 57 57 71 110 57 53 65 264 83 51 152 510 53 51 53 75 60 111 99
internal_value=0 0.00959917 0.0162642 0.0236994 0.027398 -0.0183363 -0.0220185 -0.00820859 -0.0182428 -0.00858264 0.00656799 -0.0241096 -0.018992 0.000856987 -0.000951264 0.00266497 -0.00347787 -0.0291851 -0.028375 -0.00423122 0.00580086 -0.0245306 0.00192066 0.000794191 0.00313047 0.0108036 -0.00710465 -0.00346336 -0.0263233 0.0147988 -0.0288697 0 -0.00698351 -0.00485074 -9.07203e-05 -0.00564281 -0.0327735 -0.0261776 -0.0242475 -0.022088 -0.0156591 0.0041302 0.000248695 -0.0305759 -0.035227 0.0143534 0.0190147 0.0124627 0.0311141 -0.0270001 -0.0196486 0.0299767 0.0288819 0.00143898 0.000264493 0.0026908 0.00251417 0.0141595 0.0125812 -0.0310891
internal_weight=0 3432 2499 1412 1268 1894 1561 933 445 144 1087 1462 669 488 333 260 370 307 793 138 138 454 684 626 464 122 215 157 393 118 280 388 257 205 125 162 228 605 427 331 147 113 154 178 188 403 110 293 1114 184 113 850 662 314 179 135 126 228 171 225
internal_count=5326 3432 2499 1412 1268 1894 1561 933 445 144 1087 1462 669 488 333 260 370 307 793 138 138 454 684 626 464 122 215 157 393 118 280 388 257 205 125 162 228 605 427 331 147 113 154 178 188 403 110 293 1114 184 113 850 662 314 179 135 126 228 171 225
is_linear=0
shrinkage=0.1


Tree=4
num_leaves=59
num_cat=0
split_feature=0 4 1 7 20 7 3 3 22 20 22 18 4 7 7 13 22 4 4 1 3 22 3 13 1 7 1 13 1 1 3 1 1 3 22 1 1 4 4 4 3 3 1 22 1 1 1 1 1 7 1 4 22 1 1 1 1 7
split_gain=144.856 18.7214 22.2852 15.102 14.4038 7.06745 9.60349 5.08995 4.82119 4.23462 3.8719 3.54653 3.14404 3.12455 2.1411 2.08152 1.95982 1.62852 1.10127 1.01044 1.1128 0.970475 0.936849 1.03302 0.822715 0.659352 0.634637 0.848139 0.61507 0.601376 0.488754 0.843137 0.605837 0.484721 0.448509 0.37258 0.613964 0.369584 0.362516 0.595081 0.442478 0.266149 0.209191 0.196284 0.177106 0.4135 0.176688 0.17203 0.131341 0.105776 0.139798 0.0956123 0.0883888 0.0849626 0.293286 0.193914 0.0813654 0.0714809
threshold=1.0000000180025095e-35 648.00000000000011 7.5000000000000009 1055.5000000000002 1.0000000180025095e-35 115.50000000000001 355.50000000000006 414.50000000000006 1.0000000180025095e-35 1.0000000180025095e-35 1.0000000180025095e-35 1.0000000180025095e-35 1969.5000000000002 7.5000000000000009 1214.0000000000002 1.0000000180025095e-35 1.0000000180025095e-35 3459.0000000000005 46.500000000000007 37.500000000000007 7.5000000000000009 1.0000000180025095e-35 711.50000000000011 1.0000000180025095e-35 17.500000000000004 2055.0000000000005 30.500000000000004 1.0000000180025095e-35 25.500000000000004 15.500000000000002 139.50000000000003 23.500000000000004 18.500000000000004 2464.5000000000005 1.0000000180025095e-35 24.500000000000004 20.500000000000004 3.5000000000000004 62.500000000000007 6.5000000000000009 2.5000000000000004 506.50000000000006 30.500000000000004 1.0000000180025095e-35 16.500000000000004 23.500000000000004 20.500000000000004 40.500000000000007 29.500000000000004 357.50000000000006 32.500000000000007 1.5000000000000002 1.0000000180025095e-35 27.500000000000004 37.500000000000007 18.500000000000004 5.5000000000000009 226.50000000000003
decision_type=2 2 2 2 2 2 2 2 2 2 2 2 2 2 2 2 2 2 2 2 2 2 2 2 2 2 2 2 2 2 2 2 2 2 2 2 2 2 2 2 2 2 2 2 2 2 2 2 2 2 2 2 2 2 2 2 2 2
left_child=1 2 9 7 11 6 10 12 29 -1 19 -2 13 21 16 46 18 25 49 38 -21 48 23 -8 -17 -5 -14 -28 -26 56 31 32 -12 53 -15 36 -31 -33 39 40 44 -25 -37 -11 -4 -46 -10 -44 -3 -7 -51 -34 -43 55 -55 -24 -6 -18
right_child=4 3 5 17 8 14 22 -9 15 43 30 -13 26 34 -16 24 57 -19 -20 20 -22 -23 33 41 28 -27 27 -29 -30 35 -32 37 51 -35 -36 42 -38 -39 -40 -41 -42 52 47 -45 45 -47 -48 -49 -50 50 -52 -53 -54 54 -56 -57 -58 -59
leaf_value=0.039098385812675662 0.032023234049230687 0.024240201605826215 0.0027670135748499355 -0.022663984766261802 0.017138268607169931 -0.01521858017829726 -0.0061175488785428214 -0.018371075151475579 0.017919652566283691 0.010345519945814443 -0.017584056323568027 0.01163372146969446 0.028430544494935164 -0.0012940214864912642 -0.036968717252587172 0.0060378817622296866 -0.035976559796086931 -0.0094679125003360089 -0.0062294531869789838 -0.0031684064853607524 0.015100785572326898 0.0042635173034139429 -0.029338669073409453 -0.029419071625488315 -0.013549137369300161 -0.04047726706198513 0.0053465125900594894 0.021903821165535964 -9.1969043644803429e-05 0.020290891029132396 -0.0065911192353011938 -0.024439840810992864 -0.0087430412359388882 -0.037158202498700547 -0.014321618074725507 0.012028972661449797 0.036057218908067783 -0.01489044297046007 0 -0.017327233160698178 -0.010275893020436397 -0.013737415175113364 0.027111603068292064 0.00075641264250161412 -0.0105563104799038 0.0011158798726180928 0.0095512338955490543 0.015733574471538673 0.013859916751579779 -0.026883636399310813 -0.017007047755592277 -0.0014389800115379872 -0.022935273827934061 -0.03338848193886735 -0.023028257929054628 -0.019406231354817317 0.0093301972104797414 -0.027777546805292298
leaf_weight=64 948 55 54 59 57 59 58 61 71 53 86 101 82 70 174 98 58 54 76 74 57 81 55 60 60 57 56 99 93 82 71 145 51 62 52 60 57 100 90 51 101 57 53 53 52 60 96 55 53 89 55 53 57 94 102 128 68 241
leaf_count=64 948 55 54 59 57 59 58 61 71 53 86 101 82 70 174 98 58 54 76 74 57 81 55 60 60 57 56 99 93 82 71 145 51 62 52 60 57 100 90 51 101 57 53 53 52 60 96 55 53 89 55 53 57 94 102 128 68 241
internal_value=0 -0.0122135 -0.0162344 0.00136007 0.0222317 -0.0186531 -0.0150591 0.00876659 0.0124736 0.0186657 -0.00899647 0.0300994 0.0118626 0.0050734 -0.026809 0.00468762 -0.0236792 -0.0249301 -0.017287 -0.00300316 0.00446599 0.0132043 -0.0244117 -0.0186811 -0.000915494 -0.0317726 0.0205977 0.0161879 -0.00563882 0.0199118 -0.0152992 -0.0166257 -0.0111414 -0.0273328 -0.00718478 0.0225018 0.0270529 -0.0207104 -0.00550242 -0.0070884 -0.00497822 -0.022632 0.0184909 0.00594001 -0.00150651 -0.00393515 0.013356 0.0216991 0.019528 -0.0212237 -0.0233977 -0.0054173 -0.0186981 -0.0256167 -0.0282073 -0.0226167 0.0132206 -0.0295059
internal_weight=0 3419 2640 779 1899 2470 1718 609 850 170 1045 1049 548 311 752 418 578 170 279 539 131 189 673 232 251 116 237 155 153 432 506 435 190 441 122 307 139 245 408 318 267 174 168 106 166 112 167 108 108 203 144 104 114 379 196 183 125 299
internal_count=5318 3419 2640 779 1899 2470 1718 609 850 170 1045 1049 548 311 752 418 578 170 279 539 131 189 673 232 251 116 237 155 153 432 506 435 190 441 122 307 139 245 408 318 267 174 168 106 166 112 167 108 108 203 144 104 114 379 196 183 125 299
is_linear=0
shrinkage=0.1


Tree=5
num_leaves=57
num_cat=0
split_feature=0 6 3 7 9 9 6 5 7 9 7 6 16 18 3 9 7 18 7 5 1 3 7 7 1 1 1 5 7 1 3 5 13 5 1 6 6 5 1 7 1 5 6 1 12 1 1 1 7 5 5 1 1 1 6 6
split_gain=117.653 20.1396 23.1621 29.039 9.39814 7.8462 5.30197 5.5931 3.49644 3.16704 9.54718 2.90719 3.55965 1.79067 1.3247 1.17119 2.29637 1.06769 0.926497 0.913746 0.987473 0.631526 1.00024 1.92467 0.541761 0.689575 0.64902 0.534902 0.531066 0.582948 0.500337 0.824213 0.783564 0.47453 0.468659 0.465274 1.31325 0.428239 0.779397 0.318291 0.380704 0.509422 0.521743 0.315676 0.31354 0.567049 0.521466 0.306783 0.301874 0.230388 0.465976 0.214426 0.156836 0.0483132 0.0450845 0.0145441
threshold=1.0000000180025095e-35 537.50000000000011 340.00000000000006 401.50000000000006 1.0000000180025095e-35 1.0000000180025095e-35 214.50000000000003 1540.5000000000002 2.5000000000000004 1.0000000180025095e-35 1558.0000000000002 2515.0000000000005 1.0000000180025095e-35 1.0000000180025095e-35 1192.5000000000002 1.0000000180025095e-35 587.50000000000011 1.0000000180025095e-35 1.0000000180025095e-35 715.50000000000011 1.0000000180025095e-35 2.5000000000000004 100.50000000000001 15.500000000000002 54.500000000000007 43.500000000000007 27.500000000000004 32.500000000000007 1.0000000180025095e-35 28.500000000000004 1001.0000000000001 617.50000000000011 1.0000000180025095e-35 424.50000000000006 37.500000000000007 1.0000000180025095e-35 31.500000000000004 1.0000000180025095e-35 7.5000000000000009 1214.0000000000002 37.500000000000007 10.500000000000002 8.5000000000000018 11.500000000000002 1.0000000180025095e-35 12.500000000000002 16.500000000000004 5.5000000000000009 3936.0000000000005 97.500000000000014 4.5000000000000009 19.500000000000004 23.500000000000004 21.500000000000004 40.500000000000007 668.50000000000011
decision_type=2 2 2 2 2 2 2 2 2 2 2 2 2 2 2 2 2 2 2 2 2 2 2 2 2 2 2 2 2 2 2 2 2 2 2 2 2 2 2 2 2 2 2 2 2 2 2 2 2 2 2 2 2 2 2 2
left_child=1 2 3 4 6 13 7 8 17 39 -11 12 15 24 30 28 -17 19 -6 20 -1 22 23 -10 25 26 44 -8 55 -30 31 32 -4 -23 49 37 -37 38 -22 40 41 42 -5 -40 45 47 -46 -2 -12 50 -34 -47 -16 -48 -20 -3
right_child=5 11 14 9 18 -7 27 -9 21 10 48 -13 -14 -15 52 16 -18 -19 54 -21 35 33 -24 -25 -26 -27 -28 -29 29 -31 -32 -33 34 -35 -36 36 -38 -39 43 -41 -42 -43 -44 -45 46 51 53 -49 -50 -51 -52 -53 -54 -55 -56 -57
leaf_value=0.020595730975451903 0.014277187992543057 -0.025604112421322125 -0.011636964721569602 -0.016297342346548612 0.017607781201886316 0.029886985095662295 -0.0081365913228308318 0.038075467942151026 -0.0068081543917422457 0.016326504836116269 -0.02163438841272268 -0.037859533571145298 0 0 -0.021001210924420116 -0.0044822951602504404 -0.032215566398952636 -0.0016447025951369801 0.039836031983191321 0.018600122423936938 0.0085450068164588666 -0.013828192843392529 -0.010680135743173686 0.018554848907314438 0.027762764808428493 0.0064570350873902746 0.021001562935286572 -0.023268538276322706 -0.028559345411181006 -0.015031355424775595 -0.008400555147813734 -0.0070619832549706262 -0.027213922863934786 -0.0012755340123287691 -0.015909240037400279 0.01957477223077787 -0.00035536302001175661 0.0098556117527429515 -0.0096306399991633127 -0.035649948152101409 -0.016214426285324542 -0.035050048362028068 -0.030497208141991052 3.0352623948441955e-05 0.018289829537894039 0.021413026035177436 0.0021488819086469464 0.0050201881851678716 -0.035173649393147051 -0.033351770931854173 -0.014255805987013296 0.015612890729294213 -0.029209974989181625 0.0081301574696582678 0.028996231647812939 -0.033880840378960234
leaf_weight=57 140 55 92 81 64 573 56 52 60 79 61 163 62 71 79 78 53 85 53 107 86 87 60 57 52 83 312 61 96 75 64 60 120 58 93 77 51 83 53 54 64 73 62 71 58 204 52 70 56 57 58 233 195 51 59 152
leaf_count=57 140 55 92 81 64 573 56 52 60 79 61 163 62 71 79 78 53 85 53 107 86 87 60 57 52 83 312 61 96 75 64 60 120 58 93 77 51 83 53 54 64 73 62 71 58 204 52 70 56 57 58 233 195 51 59 152
internal_value=0 -0.0110148 -0.00698089 -0.000810087 0.0070191 0.0200281 0.0037139 0.00600512 0.00428244 -0.0206381 -0.0102022 -0.025715 -0.0221759 0.0157367 -0.0210147 -0.024932 -0.0160174 0.0084188 0.0285878 0.00995151 0.00792926 -0.00419621 0 0.00519572 0.0166109 0.0160946 0.016772 -0.0163784 -0.0279124 -0.0228672 -0.0179274 -0.0191117 -0.0207349 -0.00909153 -0.0231611 0.00611636 0.0113117 0.00370599 0.00107906 -0.0266387 -0.0247536 -0.0270928 -0.0227423 -0.00376638 0.0150877 0.0161978 0.0103706 0.0113879 -0.0284672 -0.0258555 -0.0232233 0.0184149 -0.0269937 0.00551085 0.034494 -0.0318809
internal_weight=0 3419 2685 1867 1337 1899 1161 1044 992 530 196 734 571 1326 818 509 131 670 176 585 478 322 177 117 1255 1203 1120 117 378 171 544 480 420 145 328 421 128 293 210 334 280 216 143 124 808 647 161 210 117 235 178 437 274 103 112 207
internal_count=5318 3419 2685 1867 1337 1899 1161 1044 992 530 196 734 571 1326 818 509 131 670 176 585 478 322 177 117 1255 1203 1120 117 378 171 544 480 420 145 328 421 128 293 210 334 280 216 143 124 808 647 161 210 117 235 178 437 274 103 112 207
is_linear=0
shrinkage=0.1


Tree=6
num_leaves=60
num_cat=0
split_feature=0 1 20 5 22 7 9 22 20 5 7 9 22 7 7 5 7 12 1 1 5 1 1 1 1 5 1 1 1 1 1 5 5 9 1 1 7 1 1 1 7 5 7 7 7 5 5 1 5 1 1 22 1 1 1 1 1 1 7
split_gain=95.6053 11.7116 10.6049 10.2923 6.07578 4.29244 7.16026 3.89936 3.35213 2.77275 2.02676 2.53387 1.92295 1.54536 1.38048 1.03746 0.795891 0.720189 1.23678 1.27508 0.610872 0.700046 0.551929 0.483031 0.934018 0.481853 0.548243 0.569971 0.479 0.467598 0.497956 0.441681 0.386266 0.372496 0.334976 0.504371 0.324025 0.31081 1.05688 0.412836 0.499547 0.276174 0.256944 0.485725 0.220603 0.203262 0.336871 0.181801 0.180452 0.171119 0.1652 0.165048 0.139791 0.130763 0.123897 0.110496 0.076712 0.0641707 0.0623953
threshold=1.0000000180025095e-35 7.5000000000000009 1.0000000180025095e-35 575.50000000000011 1.0000000180025095e-35 1458.0000000000002 1.0000000180025095e-35 1.0000000180025095e-35 1.0000000180025095e-35 1870.0000000000002 971.50000000000011 1.0000000180025095e-35 1.0000000180025095e-35 33.500000000000007 419.50000000000006 9.5000000000000018 83.500000000000014 1.0000000180025095e-35 17.500000000000004 10.500000000000002 897.00000000000011 28.500000000000004 23.500000000000004 43.500000000000007 30.500000000000004 365.00000000000006 19.500000000000004 16.500000000000004 15.500000000000002 22.500000000000004 16.500000000000004 3.5000000000000004 22.500000000000004 1.0000000180025095e-35 24.500000000000004 20.500000000000004 35.500000000000007 41.500000000000007 49.500000000000007 26.500000000000004 2.5000000000000004 2.5000000000000004 27.500000000000004 2.5000000000000004 272.50000000000006 122.50000000000001 271.50000000000006 24.500000000000004 18.500000000000004 24.500000000000004 30.500000000000004 1.0000000180025095e-35 35.500000000000007 30.500000000000004 32.500000000000007 40.500000000000007 5.5000000000000009 31.500000000000004 226.50000000000003
decision_type=2 2 2 2 2 2 2 2 2 2 2 2 2 2 2 2 2 2 2 2 2 2 2 2 2 2 2 2 2 2 2 2 2 2 2 2 2 2 2 2 2 2 2 2 2 2 2 2 2 2 2 2 2 2 2 2 2 2 2
left_child=1 8 33 4 5 6 14 28 -1 12 11 16 20 22 15 29 25 18 19 -9 21 -5 -14 24 -8 26 27 -6 56 30 -3 -16 -17 -2 35 -30 -13 39 -39 48 41 -41 43 53 -26 57 -47 -20 -28 -19 -36 -10 -12 -31 -49 -52 -4 -34 -18
right_child=2 3 7 9 10 -7 23 17 51 -11 52 36 13 -15 31 32 58 49 47 -21 -22 -23 -24 -25 44 -27 37 -29 34 42 -32 -33 45 -35 50 -37 -38 38 -40 40 -42 -43 -44 -45 -46 46 -48 54 -50 -51 55 -53 -54 -55 -56 -57 -58 -59 -60
leaf_value=0.03371804878073504 0.022187989443409512 -0.0032042392496939177 0.013933365131043275 0.014677538205066254 -0.017948801126451214 -0.027328276858446462 0.011653731672094941 -0.0012221950376460815 0.0081397863009101245 0.017940586595455818 -0.03195472113020887 -0.009695142810526261 0.0032695091409066694 -0.023474555713791867 -0.014846424275399523 -0.022475784803377859 -0.028958882832991618 0.004700458538262212 -0.0098422447583370043 0.01864095762269366 -0.0014725477160062546 0 -0.0082936308426008777 0.014523148727805833 -0.0051365827586835238 -0.0075062703409141647 -0.013385366288726103 -0.0040732169847918871 0.016727663907020782 -0.005624192302583101 -0.014740110271292834 -0.027445835807733427 -0.0052919867101862972 0.026898286812963076 0.0091041039991560397 0.031073994804190392 -0.00022595999430522355 -0.0028094836503021023 -0.023337500924200116 -0.033128560557754004 -0.014571301785508743 -0.021535286897627532 0.0013606890666716552 -0.013614874867402225 0.0032140287214145803 -0.020787012666349129 -0.010266385846042487 0.00049122376190322177 -0.022209178612518209 0.013948762864301809 0.022300286341298499 0 -0.022723132668074818 0 -0.0054567717089277611 0.012577375288218033 0.0067345904142700821 -0.011731927022112534 -0.021947003770407664
leaf_weight=64 476 72 57 80 71 120 94 65 53 84 116 80 64 54 95 55 71 62 62 58 99 64 100 64 72 64 113 67 82 68 112 64 75 573 60 57 83 54 57 80 53 71 66 55 51 69 103 53 64 54 53 53 71 95 64 55 68 55 204
leaf_count=64 476 72 57 80 71 120 94 65 53 84 116 80 64 54 95 55 71 62 62 58 99 64 100 64 72 64 113 67 82 68 112 64 75 573 60 57 83 54 57 80 53 71 66 55 51 69 103 53 64 54 53 53 71 95 64 55 68 55 204
internal_value=0 -0.00993545 0.0180481 -0.0112816 -0.0138097 -0.00912539 -0.00736603 0.00966659 0.0155491 0.0011857 -0.0186971 -0.0170131 -0.0017778 -0.00865936 -0.011402 -0.00966073 -0.0189701 0.00266262 0 0.0078089 0.00422607 0.00843025 -0.00352973 0.00662011 0.00409923 -0.0169543 -0.0178486 -0.0115109 0.0163481 -0.0063971 -0.0104502 -0.0201772 -0.0138236 0.0248002 0.0186572 0.0229074 -0.00512641 -0.0195424 -0.0137224 -0.0211298 -0.0246767 -0.0279505 -0.00362595 -0.00532483 -0.00133886 -0.0121113 -0.0147266 -0.00521462 -0.0168089 0.0093612 0.0148952 0.00419017 -0.0286702 -0.00227458 -0.00240992 0.0177306 0.0103471 -0.00833379 -0.0239073
internal_weight=0 3419 1899 3249 2704 1385 1265 850 170 545 1319 1132 461 218 984 825 969 418 302 123 243 144 164 281 217 694 630 138 432 468 184 159 357 1049 307 139 163 492 111 381 204 151 284 218 123 302 172 179 177 116 168 106 187 163 117 108 125 130 275
internal_count=5318 3419 1899 3249 2704 1385 1265 850 170 545 1319 1132 461 218 984 825 969 418 302 123 243 144 164 281 217 694 630 138 432 468 184 159 357 1049 307 139 163 492 111 381 204 151 284 218 123 302 172 179 177 116 168 106 187 163 117 108 125 130 275
is_linear=0
shrinkage=0.1


Tree=7
num_leaves=38
num_cat=0
split_feature=0 6 4 20 4 4 18 6 6 6 11 4 4 4 4 18 11 11 12 6 6 16 6 4 6 4 4 6 6 6 4 6 4 6 4 6 4
split_gain=77.7124 16.0342 18.3515 8.53806 4.63144 2.58226 2.35112 2.04947 1.64482 1.45774 1.30261 0.847484 0.693509 1.47962 1.27885 1.16725 0.521445 0.515544 0.455514 0.305383 0.282692 0.234422 0.206169 0.19297 0.165076 0.130643 0.685902 0.119025 0.53137 0.670145 0.11774 0.276654 0.0704345 0.0570738 0.0398376 0.00767295 0.00255142
threshold=1.0000000180025095e-35 537.50000000000011 648.00000000000011 1.0000000180025095e-35 1969.5000000000002 4273.0000000000009 1.0000000180025095e-35 48.500000000000007 1127.5000000000002 103.50000000000001 1.0000000180025095e-35 4067.0000000000005 83.500000000000014 213.50000000000003 24.500000000000004 1.0000000180025095e-35 1.0000000180025095e-35 1.0000000180025095e-35 1.0000000180025095e-35 5.5000000000000009 45.500000000000007 1.0000000180025095e-35 903.00000000000011 49.500000000000007 1.5000000000000002 977.00000000000011 798.50000000000011 367.00000000000006 239.50000000000003 158.50000000000003 532.50000000000011 6.5000000000000009 2722.0000000000005 1771.5000000000002 3.5000000000000004 13.500000000000002 356.00000000000006
decision_type=2 2 2 2 2 2 2 2 2 2 2 2 2 2 2 2 2 2 2 2 2 2 2 2 2 2 2 2 2 2 2 2 2 2 2 2 2
left_child=1 2 9 6 7 8 -2 25 22 12 18 32 14 -14 15 16 19 27 -5 24 35 33 -3 -16 34 26 -4 28 29 -11 31 36 -6 -10 -1 -21 -15
right_child=3 5 4 10 11 -7 -8 -9 21 17 -12 -13 13 30 23 -17 -18 -19 -20 20 -22 -23 -24 -25 -26 -27 -28 -29 -30 -31 -32 -33 -34 -35 -36 -37 -38
leaf_value=-0.0078048634725514836 0.023889416053982399 -0.019934742827921362 0.011139949145606794 0.005233415614019723 0.020452318008584203 -0.0025031249259170139 0.0072239083567312958 -0.0091670143452317488 -0.026976553546168153 -0.022422968831736539 0.018651810340519676 0.030024512724273124 0.0057981480323770762 -0.016437135729897408 -0.024449308891724544 -0.016038309228607946 -0.0017589425482680686 -0.0062411464343763061 0.010968543445712575 -0.010642620648037442 -0.0041352462749279497 -0.022172081859822439 -0.010816375889395361 -0.013321881705378997 -0.0012426235932589845 0.011731545155379459 -0.0024029412148191499 -0.011682286072575205 -0.025978200659575047 -0.0074015528020310783 -0.0035520976233251646 -0.0032869766062688824 0.012139818121336438 -0.034044700281260297 -0.0040993625918760816 -0.016092288195922132 -0.009797784927561436
leaf_weight=644 948 285 94 505 51 66 101 91 111 64 119 95 102 51 62 181 172 62 226 75 53 77 51 53 63 94 55 64 83 77 56 52 68 144 83 89 51
leaf_count=644 948 285 94 505 51 66 101 91 111 64 119 95 102 51 62 181 172 62 226 75 53 77 51 53 63 94 55 64 83 77 56 52 68 144 83 89 51
internal_value=0 -0.00896656 -0.0053657 0.0162628 0.0109251 -0.0220824 0.0223241 0.00342013 -0.0239552 -0.00956251 0.00873389 0.0224457 -0.00835652 -0.00384258 -0.00928337 -0.00837396 -0.00716235 -0.0156021 0.00706293 -0.00804432 -0.0116685 -0.0291764 -0.0186734 -0.0196796 -0.00699663 0.00830353 0.00586413 -0.0174742 -0.0189449 -0.0145123 -0.0087216 -0.0103336 0.0160489 -0.0311297 -0.00743854 -0.0138515 -0.0135218
internal_weight=0 3419 2685 1899 548 734 1049 334 668 2137 850 214 1787 312 1475 1360 1179 350 731 1007 217 332 336 115 790 243 149 288 224 141 210 154 119 255 727 164 102
internal_count=5318 3419 2685 1899 548 734 1049 334 668 2137 850 214 1787 312 1475 1360 1179 350 731 1007 217 332 336 115 790 243 149 288 224 141 210 154 119 255 727 164 102
is_linear=0
shrinkage=0.1


Tree=8
num_leaves=59
num_cat=0
split_feature=6 7 5 8 5 18 7 8 6 22 13 8 7 22 15 8 5 6 22 1 1 11 1 1 22 8 7 7 7 6 22 5 6 7 5 1 6 6 6 1 22 5 5 1 6 5 1 1 1 13 1 1 1 1 1 1 5 1
split_gain=42.3096 24.9986 6.59217 12.3405 7.2905 5.43051 4.48598 3.24489 3.12442 2.68734 1.78371 1.78029 3.83667 1.64112 1.62379 1.45011 1.48157 1.43163 1.21931 1.07806 1.12501 1.06804 1.01838 0.950327 0.736373 0.733696 0.672058 1.95388 0.61285 0.589372 0.566703 0.546282 0.535499 0.498583 0.438687 0.427801 0.403265 0.535753 0.362237 0.33256 0.257767 0.244823 0.406848 0.277667 0.213325 0.341532 0.193848 0.299043 0.193091 0.137156 0.593015 0.441199 0.182161 0.505972 0.436336 0.0503616 0.0201836 0.0197602
threshold=207.50000000000003 2.5000000000000004 1.0000000180025095e-35 1.0000000180025095e-35 672.50000000000011 1.0000000180025095e-35 340.50000000000006 1.0000000180025095e-35 2515.0000000000005 1.0000000180025095e-35 1.0000000180025095e-35 1.0000000180025095e-35 2055.0000000000005 1.0000000180025095e-35 1.0000000180025095e-35 1.0000000180025095e-35 1257.0000000000002 54.500000000000007 1.0000000180025095e-35 30.500000000000004 18.500000000000004 1.0000000180025095e-35 19.500000000000004 11.500000000000002 1.0000000180025095e-35 1.0000000180025095e-35 248.50000000000003 1055.5000000000002 108.50000000000001 495.50000000000006 1.0000000180025095e-35 47.500000000000007 2.5000000000000004 37.500000000000007 5.5000000000000009 27.500000000000004 668.50000000000011 590.00000000000011 10.500000000000002 3.5000000000000004 1.0000000180025095e-35 133.50000000000003 416.50000000000006 23.500000000000004 6.5000000000000009 1.0000000180025095e-35 13.500000000000002 23.500000000000004 12.500000000000002 1.0000000180025095e-35 24.500000000000004 39.500000000000007 14.500000000000002 3.5000000000000004 24.500000000000004 23.500000000000004 51.500000000000007 34.500000000000007
decision_type=2 2 2 2 2 2 2 2 2 2 2 2 2 2 2 2 2 2 2 2 2 2 2 2 2 2 2 2 2 2 2 2 2 2 2 2 2 2 2 2 2 2 2 2 2 2 2 2 2 2 2 2 2 2 2 2 2 2
left_child=1 2 3 5 7 48 13 38 14 32 46 12 18 17 21 16 -6 19 -8 20 -3 26 23 39 -17 -15 36 -28 35 -23 34 -22 49 -21 -13 -27 37 -2 56 -12 -7 43 -43 -9 45 -32 -11 -48 -1 50 -5 52 53 -51 -54 -24 -4 -57
right_child=8 6 4 9 15 40 11 41 -10 10 22 30 -14 25 -16 24 -18 -19 -20 33 31 29 55 -25 -26 28 27 -29 -30 -31 44 -33 -34 -35 -36 -37 -38 -39 -40 -41 -42 42 -44 -45 -46 -47 47 -49 -50 51 -52 -53 54 -55 -56 57 -58 -59
leaf_value=0.026594174050386499 -0.019837877313184853 -0.007050453047454267 -0.015129140317481016 0.015876565365951955 -0.0038472870118761121 0.0035920336467267239 0.011254398191915427 0.0087655967776710982 -0.030906411988426197 0.0010169649328580848 0.00041173090651466294 -0.0094808330551110348 -0.024992908765337732 0 -0.00050803700163530997 0.030192759773310998 0.017903790139143717 0.01706702950174982 -0.0068874638118148444 -0.014290382402717331 0.017291426006413892 0 -0.004490743616259626 0.010274447820952718 0.012376149876895637 -0.011625288694096687 -0.00060849273070117445 -0.026097840343603646 -0.020072447995949493 -0.013545925127035742 -0.012623496228957035 0.002249526762560964 0 0 -0.021324695129440286 -1.2507453149664961e-06 -0.023995892304024179 -0.0070492498238415961 -0.0083866739582903194 -0.0098442689960459226 -0.0053885160961904648 -0.0098463385226623696 0.0016919260072403596 -4.2739158290678984e-05 -0.030344088797911235 -0.025222003792770304 0.014468432548673525 0.0047656357043513193 0.020606251468179286 0.010504556392455289 0.0043217182604402922 0.017353648869328078 0.013487468692972333 -0.0011568607783650976 0.0027039705627307357 -0.0122611559881082 -0.022471426169449249 -0.007192748194839867
leaf_weight=116 189 51 56 155 63 66 75 53 174 56 55 106 79 79 69 64 58 57 71 59 59 51 51 71 53 85 74 55 57 96 57 53 52 51 63 62 257 53 52 57 60 52 63 83 53 72 64 102 908 61 78 52 100 82 78 85 86 75
leaf_count=116 189 51 56 155 63 66 75 53 174 56 55 106 79 79 69 64 58 57 71 59 59 51 51 71 53 85 74 55 57 96 57 53 52 51 63 62 257 53 52 57 60 52 63 83 53 72 64 102 908 61 78 52 100 82 78 85 86 75
internal_value=0 0.00422127 0.00894654 0.011392 0.000207272 0.0189134 -0.00809175 -0.00728707 -0.0184523 0.00457021 -0.000110672 -0.0144405 -0.0071972 -0.00205889 -0.0158359 0.0143931 0.00623804 0.00264012 0.00214953 -0.000221038 0.00478433 -0.0171473 -0.00421551 0.00104376 0.0224745 -0.00768403 -0.0190052 -0.0117957 -0.010857 -0.00892963 -0.0189662 0.0105416 0.00901499 -0.00801298 -0.01414 -0.00700316 -0.0207864 -0.0172075 -0.0170018 -0.00443964 -0.000357132 5.72626e-05 -0.00316678 0.0030867 -0.0232211 -0.0199749 0.00698874 0.0087549 0.0213248 0.00985293 0.0121854 0.00828536 0.00668788 0.00352921 0.00899379 -0.00897232 -0.0198663 -0.0101431
internal_weight=0 4296 3107 2424 683 1150 1189 445 1018 1274 616 576 225 613 844 238 121 330 146 273 163 775 394 183 117 283 628 129 204 147 351 112 658 110 169 147 499 242 194 112 126 251 115 136 182 129 222 166 1024 606 233 373 321 143 178 211 142 160
internal_count=5314 4296 3107 2424 683 1150 1189 445 1018 1274 616 576 225 613 844 238 121 330 146 273 163 775 394 183 117 283 628 129 204 147 351 112 658 110 169 147 499 242 194 112 126 251 115 136 182 129 222 166 1024 606 233 373 321 143 178 211 142 160
is_linear=0
shrinkage=0.1


Tree=9
num_leaves=56
num_cat=0
split_feature=0 3 4 1 20 4 9 9 4 3 1 4 1 3 1 4 1 1 3 1 4 1 4 11 1 1 3 3 1 3 9 4 1 4 1 1 1 1 3 12 3 4 4 3 3 4 3 1 1 1 1 1 1 4 1
split_gain=49.3081 12.4032 8.10212 7.65264 6.40414 3.1832 3.07413 1.51728 1.25647 1.37208 1.0195 0.990116 0.713785 0.711524 0.689746 0.631887 0.619365 0.835014 0.617188 0.592292 0.94933 0.566725 0.526524 0.435341 0.432237 0.612922 0.420343 0.772214 0.41407 0.345198 0.323213 0.29585 0.272642 0.250626 0.329163 0.280843 0.263149 0.246496 0.213438 0.192084 0.164062 0.160389 0.157017 0.301421 0.1247 0.122426 0.113977 0.0971703 0.0694976 0.15118 0.0458212 0.10357 0.0374987 0.0363178 0.0229279
threshold=1.0000000180025095e-35 355.50000000000006 1969.5000000000002 12.500000000000002 1.0000000180025095e-35 666.50000000000011 1.0000000180025095e-35 1.0000000180025095e-35 165.50000000000003 238.50000000000003 31.500000000000004 1028.5000000000002 1.0000000180025095e-35 84.500000000000014 30.500000000000004 265.50000000000006 17.500000000000004 27.500000000000004 674.00000000000011 33.500000000000007 4174.5000000000009 16.500000000000004 5.5000000000000009 1.0000000180025095e-35 9.5000000000000018 23.500000000000004 170.50000000000003 120.50000000000001 26.500000000000004 1192.5000000000002 1.0000000180025095e-35 5238.5000000000009 25.500000000000004 7.5000000000000009 20.500000000000004 31.500000000000004 24.500000000000004 22.500000000000004 1.0000000180025095e-35 1.0000000180025095e-35 13.500000000000002 857.00000000000011 7.5000000000000009 776.50000000000011 1.0000000180025095e-35 25.500000000000004 495.00000000000006 39.500000000000007 18.500000000000004 14.500000000000002 7.5000000000000009 3.5000000000000004 43.500000000000007 77.500000000000014 43.500000000000007
decision_type=2 2 2 2 2 2 2 2 2 2 2 2 2 2 2 2 2 2 2 2 2 2 2 2 2 2 2 2 2 2 2 2 2 2 2 2 2 2 2 2 2 2 2 2 2 2 2 2 2 2 2 2 2 2 2
left_child=1 2 3 12 30 7 10 8 9 21 41 16 -1 15 -8 -10 -3 29 46 20 -4 -5 -9 24 -6 48 27 33 -27 42 -2 52 -17 34 44 36 37 -36 -38 54 -37 -7 43 -18 -23 -35 -19 -20 49 -26 51 -14 -21 -47 -30
right_child=4 11 19 5 23 6 14 22 13 -11 -12 -13 50 -15 -16 32 17 18 47 31 -22 26 -24 -25 25 28 -28 -29 39 -31 -32 -33 -34 45 35 40 38 -39 -40 -41 -42 -43 -44 -45 -46 53 -48 -49 -50 -51 -52 -53 -54 -55 -56
leaf_value=0.019662756859984629 0.015790441989753823 -0.028021910870431228 0.0080348016907654789 -0.019853451135669522 -0.00022348921918954783 0.0092895621724338861 -0.00098074325170549267 -0.008971224086341793 0.0097051129075944893 0.0038484765502865117 0 -0.0036207693798897961 0.0041842565031753494 -0.011951520539795889 -0.016068748043276258 -0.007288972456692324 -0.01621622457170814 -0.018028855353272508 -0.025537567996401722 0.012700448138113463 0.025136170231316431 -0.0065600892468115762 -0.021594088391350703 0.011886347763238669 0.0061047635378667182 -0.0046082202647613462 -0.019512414163730434 0.0014866428376013961 0.0033469650166679612 -0.018574934327253569 0.020056469009429322 0.00025848279680799386 0.0012316955881467306 -0.01785834258124791 -0.012841027871466838 -0.0053728468578334958 -0.019828719818915427 -0.003819246355246378 -0.010584409810800834 0.0088641169507068084 -0.012793349194673953 0.01842948594316959 -0.005595083923641761 -0.0057451460905100383 0 -0.0078524996827628521 -0.009733642421568019 -0.019431034668755426 0.0069807867247047087 0.014475820231943408 0.0039759679573276004 0.012025404740142964 0.0061323483684109373 -0.013901519963742349 0
leaf_weight=66 476 72 81 75 110 78 54 60 57 63 92 57 54 56 93 69 98 59 169 56 68 79 144 128 55 53 54 53 121 99 572 58 68 78 83 182 83 74 77 86 52 55 74 59 51 73 74 140 117 98 80 59 53 65 54
leaf_count=66 476 72 81 75 110 78 54 60 57 63 92 57 54 56 93 69 98 59 169 56 68 79 144 128 55 53 54 53 121 99 572 58 68 78 83 182 83 74 77 86 52 55 74 59 51 73 74 140 117 98 80 59 53 65 54
internal_value=0 -0.00721593 -0.0036233 -0.00576181 0.0129544 -0.00790029 0.000323316 -0.0098429 -0.00860559 -0.0100208 0.00777824 -0.0173101 0.0103281 -0.00197616 -0.0108067 0.000690761 -0.0181858 -0.017215 -0.0202351 0.0113173 0.0161162 -0.0108688 -0.0180836 0.00626976 0.00517443 0.00626177 -0.0101565 -0.0095813 0.00306375 -0.0130449 0.0181582 0.00678867 -0.00275873 -0.0102812 -0.0091465 -0.0102695 -0.0124067 -0.00885139 -0.0156376 0.00477966 -0.00719808 0.0133793 -0.0104964 -0.0125439 -0.00406935 -0.0136679 -0.0137235 -0.0229043 0.00982822 0.0117361 0.00692229 0.00864325 0.00988512 -0.0110005 0.0025368
internal_weight=0 3444 2543 2227 1870 1968 372 1596 1392 1142 225 901 259 250 147 194 844 772 442 316 149 1079 204 822 694 584 1004 950 314 330 1048 167 137 897 681 551 317 157 160 261 234 133 231 157 130 216 133 309 270 153 193 113 109 138 175
internal_count=5314 3444 2543 2227 1870 1968 372 1596 1392 1142 225 901 259 250 147 194 844 772 442 316 149 1079 204 822 694 584 1004 950 314 330 1048 167 137 897 681 551 317 157 160 261 234 133 231 157 130 216 133 309 270 153 193 113 109 138 175
is_linear=0
shrinkage=0.1


Tree=10
num_leaves=60
num_cat=0
split_feature=3 8 4 4 3 13 4 4 1 4 4 1 4 4 13 4 1 3 3 1 4 1 3 1 3 1 1 1 1 1 4 4 1 1 3 4 1 1 1 1 8 3 4 4 1 1 1 1 9 1 3 3 1 1 1 4 1 1 1
split_gain=27.0836 8.38932 9.84574 6.54322 5.37552 2.25932 2.19656 1.18692 1.15534 0.977385 1.25905 0.828698 0.80304 0.794321 0.783149 0.656065 1.13912 0.794113 0.692727 0.653678 0.516281 0.60034 0.673122 0.769277 0.510738 0.501346 0.828784 0.46745 0.778203 0.639573 0.437286 0.469585 0.431648 0.415258 0.395605 0.379969 0.378965 0.305083 0.299203 0.295935 0.266336 0.307439 0.526672 0.243741 0.229255 0.459334 0.222196 0.198489 0.218453 0.171683 0.15105 0.099616 0.087774 0.0378743 0.0334353 0.0213352 0.00337908 0.0387757 0.0121913
threshold=2.5000000000000004 1.0000000180025095e-35 1.0000000180025095e-35 2507.5000000000005 355.50000000000006 1.0000000180025095e-35 2025.5000000000002 763.50000000000011 19.500000000000004 1.5000000000000002 93.500000000000014 12.500000000000002 1.0000000180025095e-35 1028.5000000000002 1.0000000180025095e-35 335.50000000000006 32.500000000000007 26.500000000000004 255.00000000000003 14.500000000000002 9.5000000000000018 38.500000000000007 37.500000000000007 24.500000000000004 2464.5000000000005 17.500000000000004 27.500000000000004 37.500000000000007 30.500000000000004 24.500000000000004 419.50000000000006 1.0000000180025095e-35 23.500000000000004 3.5000000000000004 674.00000000000011 808.00000000000011 30.500000000000004 37.500000000000007 44.500000000000007 33.500000000000007 1.0000000180025095e-35 770.50000000000011 1.0000000180025095e-35 1.5000000000000002 4.5000000000000009 19.500000000000004 23.500000000000004 52.500000000000007 1.0000000180025095e-35 8.5000000000000018 157.50000000000003 1205.5000000000002 15.500000000000002 32.500000000000007 1.0000000180025095e-35 85.500000000000014 29.500000000000004 23.500000000000004 21.500000000000004
decision_type=2 2 2 2 2 2 2 2 2 2 2 2 2 2 2 2 2 2 2 2 2 2 2 2 2 2 2 2 2 2 2 2 2 2 2 2 2 2 2 2 2 2 2 2 2 2 2 2 2 2 2 2 2 2 2 2 2 2 2
left_child=1 2 11 35 6 9 15 8 12 27 -11 -1 19 24 -13 18 17 -17 20 33 21 22 23 -2 25 -6 40 28 29 44 31 37 -22 54 43 55 46 56 -39 -5 51 42 -42 -28 -3 52 -33 48 -16 -35 -24 -27 -46 -36 -7 -4 57 58 -10
right_child=4 5 3 39 13 7 -8 -9 30 10 -12 14 -14 -15 47 16 -18 -19 -20 -21 32 -23 50 -25 -26 26 34 -29 -30 -31 -32 36 -34 49 53 -37 -38 38 -40 -41 41 -43 -44 -45 45 -47 -48 -49 -50 -51 -52 -53 -54 -55 -56 -57 -58 -59 -60
leaf_value=0.023738632498947958 0.002225383548025791 0.014737657784663164 -0.01053242043918632 0.016925860768048844 -0.024815044198749001 0.0069936193200043229 0.010461161342067366 0.0094849986586190427 -0.0057738979163736714 -0.013754168294174746 0.0060766463003549889 0.018584243693627843 -0.0091980257978425493 -0.0032586923383254697 0.0092765290072610619 -0.0037655302061430267 -0.010017777076088414 0.012208798927332695 0.0021450001097527149 0.008884747293893375 -0.0061627697083899233 0.00046353650350652729 -0.010375021945339229 -0.011933508091787937 -0.024906025921665471 -0.010432276386274877 -0.0077313070616349018 0 0.020371356555146172 -0.0012306576700694914 0.0026326906767784688 -0.010333279203827369 -0.018514473800215828 -0.0063659156543218595 -0.025284484853044312 -0.0067220486915216121 -0.01609717878083591 0.0043216365147224775 -0.0044577163803942296 0.007819094565900811 -0.016210207186954907 0 -0.0021373258159861916 -0.018040752947520385 0.0055475082595141181 0.012860104871129447 -0.00067109384101348476 0.018650323365813459 0.013830796144199292 0 -0.019159925859882951 -0.018793093286257383 0 -0.018572937011146203 0.0020792717582587129 -0.016902475828403801 -0.0036126628248849858 -0.0079641446391837904 -0.0019006863325299269
leaf_weight=122 83 67 54 93 65 55 86 85 61 55 74 332 63 57 324 52 87 68 55 125 57 78 96 66 80 77 77 73 54 69 60 60 97 80 58 125 75 72 83 99 65 51 58 56 78 91 56 64 282 85 53 51 67 206 63 103 92 134 60
leaf_count=122 83 67 54 93 65 55 86 85 61 55 74 332 63 57 324 52 87 68 55 125 57 78 96 66 80 77 77 73 54 69 60 60 97 80 58 125 75 72 83 99 65 51 58 56 78 91 56 64 282 85 53 51 67 206 63 103 92 134 60
internal_value=0 0.00495278 0.0103176 -0.00169149 -0.010175 0.000505582 -0.00454005 -0.00183646 -0.00265636 0.00545299 -0.00205868 0.0154186 0.00115735 -0.0156203 0.0143645 -0.00622104 -0.00114568 0.00494294 -0.00794645 0.00285742 -0.00907148 -0.00685699 -0.00891148 -0.00376957 -0.0164063 -0.0154623 -0.0145336 0.00747752 0.00874458 0.00694597 -0.0050966 -0.00582531 -0.0142105 4.94508e-05 -0.0176872 -0.0114625 -0.0101955 -0.00408039 -0.000113513 0.012445 -0.0102513 -0.00719353 -0.00990948 -0.0123822 0.00894407 0.00712454 -0.00602428 0.0122119 0.0114639 -0.00304029 -0.0137766 -0.0140857 0.00324058 -0.0202036 0.00471933 -0.0149742 -0.0057335 -0.00633694 -0.00419411
internal_weight=0 3535 1598 474 1779 1937 878 1309 1224 628 129 1124 471 901 1002 792 207 120 585 408 530 376 298 149 844 764 699 499 426 372 753 693 154 283 397 282 191 502 155 192 302 174 123 133 303 236 116 670 606 165 149 128 145 264 118 157 347 255 121
internal_count=5314 3535 1598 474 1779 1937 878 1309 1224 628 129 1124 471 901 1002 792 207 120 585 408 530 376 298 149 844 764 699 499 426 372 753 693 154 283 397 282 191 502 155 192 302 174 123 133 303 236 116 670 606 165 149 128 145 264 118 157 347 255 121
is_linear=0
shrinkage=0.1


Tree=11
num_leaves=47
num_cat=0
split_feature=7 9 7 9 5 5 10 19 10 22 22 22 19 10 5 7 5 13 5 22 7 22 7 11 5 7 19 7 7 7 19 5 5 13 7 7 5 7 13 22 5 7 7 5 7 5
split_gain=21.537 10.0784 4.30427 4.29157 3.28316 6.4279 3.50383 6.91475 2.22837 2.10711 1.68321 1.50905 1.47548 1.35455 1.65777 1.19892 1.1786 0.983675 0.779064 0.756392 0.667793 0.645878 0.634996 0.626337 0.586467 0.506097 0.500683 0.434275 0.335041 0.322171 0.294881 0.280869 0.253376 0.241359 0.217366 0.214228 0.196336 0.175271 0.130689 0.221423 0.115648 0.113106 0.101894 0.0994514 0.0789308 0.068474
threshold=2.5000000000000004 1.0000000180025095e-35 2130.0000000000005 1.0000000180025095e-35 1.0000000180025095e-35 672.50000000000011 1.0000000180025095e-35 1.0000000180025095e-35 1.0000000180025095e-35 1.0000000180025095e-35 1.0000000180025095e-35 1.0000000180025095e-35 1.0000000180025095e-35 1.0000000180025095e-35 1257.0000000000002 108.50000000000001 491.00000000000006 1.0000000180025095e-35 1.2500000000000002 1.0000000180025095e-35 696.00000000000011 1.0000000180025095e-35 1015.5000000000001 1.0000000180025095e-35 1.0000000180025095e-35 23.500000000000004 1.0000000180025095e-35 54.500000000000007 281.50000000000006 29.500000000000004 1.0000000180025095e-35 97.500000000000014 80.500000000000014 1.0000000180025095e-35 62.500000000000007 229.50000000000003 26.500000000000004 488.50000000000006 1.0000000180025095e-35 1.0000000180025095e-35 1.0000000180025095e-35 4171.0000000000009 323.50000000000006 4.5000000000000009 240.50000000000003 416.50000000000006
decision_type=2 2 2 2 2 2 2 2 2 2 2 2 2 2 2 2 2 2 2 2 2 2 2 2 2 2 2 2 2 2 2 2 2 2 2 2 2 2 2 2 2 2 2 2 2 2
left_child=1 4 3 10 6 8 9 21 23 26 16 22 17 19 -15 25 18 -11 20 -7 29 -8 28 31 35 40 33 -27 34 -2 37 36 42 -1 -5 -13 43 -17 -3 -40 -12 -4 -20 -6 -31 -33
right_child=2 38 41 11 5 13 7 -9 -10 12 15 24 -14 14 -16 30 -18 -19 32 -21 -22 -23 -24 -25 -26 27 -28 -29 -30 44 -32 45 -34 -35 -36 -37 -38 -39 39 -41 -42 -43 -44 -45 -46 -47
leaf_value=0.0093477604331079732 -0.0064502187038058476 0.017292368173292497 -0.019725761657136669 0.0086126834224477099 -0.0011883046059079846 0.024653427153588269 -0.0012641078317478876 0.017727689123376772 -0.016085543321365376 0.0048980610229564306 -0.017902396399141814 -0.0040278864219429073 -0.013590536021422525 -0.0068213722400019636 0.015309702546904821 -0.018836407237245893 0.0029884474799035925 -0.0036704014538771809 -0.012417763021873028 0.0079359894565377009 -0.014593738548257063 -0.016308594715874137 -0.0036821215008542118 0.005969856913071901 0.0011398115568827377 0.0020991314230127552 -0.00011393171336423023 -0.009806669628003967 0.012966679088886206 -0.00054510965601593494 -0.021739951081725675 -0.011278107181316393 -0.0078259093032061779 0.0047152505261741778 0 -0.013803330461540279 0.0020854230212380954 -0.0099519516949115941 0.015945449058876373 0.010058434292513402 -0.0097044005696346521 -0.028205568024924667 -0.020604998364688001 -0.0075384828770340018 0.0042182561788130044 -0.0047550232931732961
leaf_weight=218 83 311 89 59 67 69 65 393 251 211 53 54 102 77 59 69 99 363 92 60 53 62 52 53 67 57 127 57 92 55 181 84 93 371 64 72 52 80 216 172 88 84 55 69 59 55
leaf_count=218 83 311 89 59 67 69 65 393 251 211 53 54 102 77 59 69 99 363 92 60 53 62 52 53 67 57 127 57 92 55 181 84 93 371 64 72 52 80 216 172 88 84 55 69 59 55
internal_value=0 0.00446178 -0.00897663 -0.00735216 0.0017705 -0.00319868 0.00412071 0.0111369 -0.00872229 0.00147009 -0.0105626 0.000751692 -0.00249275 0.00979815 0.00247639 -0.0144238 -0.00665758 -0.000448827 -0.00869064 0.0171975 -0.00452471 -0.00893337 0.00570035 -0.00375014 -0.00588072 -0.00895444 0.00526913 -0.00349203 0.00816141 -0.00160646 -0.0185251 -0.00545166 -0.0128583 0.00649984 0.00423196 -0.00994114 -0.00261346 -0.014343 0.0152141 0.013442 -0.0130784 -0.0240815 -0.0157615 -0.00471331 0.0015584 -0.00899371
internal_weight=0 3507 1807 1634 2808 896 1912 520 631 1392 1174 460 676 265 136 585 589 574 490 129 250 127 267 380 193 255 716 114 215 197 330 327 240 589 123 126 188 149 699 388 141 173 147 136 114 139
internal_count=5314 3507 1807 1634 2808 896 1912 520 631 1392 1174 460 676 265 136 585 589 574 490 129 250 127 267 380 193 255 716 114 215 197 330 327 240 589 123 126 188 149 699 388 141 173 147 136 114 139
is_linear=0
shrinkage=0.1


Tree=12
num_leaves=60
num_cat=0
split_feature=6 3 7 4 4 7 11 6 4 7 4 6 5 4 9 10 1 5 3 6 5 1 7 3 1 1 1 1 5 7 4 6 1 3 3 1 1 6 4 1 1 1 3 6 1 1 7 4 1 3 1 1 1 1 1 6 9 7 3
split_gain=28.4143 22.0202 18.4488 5.10177 3.70299 3.24265 2.22769 2.12942 3.3568 3.10177 1.77122 1.49744 1.61041 0.976863 1.03105 1.15569 1.14288 0.959667 0.809952 1.45726 0.763335 0.723636 0.758907 0.641422 0.558854 0.561819 0.735809 0.760937 0.496902 0.491341 0.524987 0.442936 0.441317 0.398843 0.627692 0.44677 0.393717 0.381545 0.37278 0.232276 0.216491 0.196347 0.196226 0.149731 0.109369 0.103345 0.0910102 0.082816 0.0788624 0.0725545 0.0534373 0.155976 0.0892349 0.0300388 0.0573253 0.026072 0.0176352 0.0168787 0.0144946
threshold=269.50000000000006 247.50000000000003 343.00000000000006 1387.5000000000002 2806.5000000000005 12.500000000000002 1.0000000180025095e-35 1367.5000000000002 1059.5000000000002 444.50000000000006 774.50000000000011 69.000000000000014 828.50000000000011 165.50000000000003 1.0000000180025095e-35 1.0000000180025095e-35 12.500000000000002 496.50000000000006 702.50000000000011 1.5000000000000002 1.0000000180025095e-35 40.500000000000007 1.5000000000000002 35.500000000000007 46.500000000000007 26.500000000000004 3.5000000000000004 8.5000000000000018 51.500000000000007 870.00000000000011 165.50000000000003 3182.5000000000005 20.500000000000004 2246.5000000000005 776.50000000000011 26.500000000000004 35.500000000000007 1998.5000000000002 1.0000000180025095e-35 38.500000000000007 43.500000000000007 48.500000000000007 3.5000000000000004 1.0000000180025095e-35 29.500000000000004 23.500000000000004 630.50000000000011 2.5000000000000004 33.500000000000007 1042.5000000000002 12.500000000000002 16.500000000000004 18.500000000000004 22.500000000000004 29.500000000000004 621.50000000000011 1.0000000180025095e-35 753.50000000000011 1411.5000000000002
decision_type=2 2 2 2 2 2 2 2 2 2 2 2 2 2 2 2 2 2 2 2 2 2 2 2 2 2 2 2 2 2 2 2 2 2 2 2 2 2 2 2 2 2 2 2 2 2 2 2 2 2 2 2 2 2 2 2 2 2 2
left_child=1 2 3 5 29 6 11 8 21 -10 18 12 13 14 15 24 -17 44 19 36 -8 22 28 55 25 26 -1 -28 -2 30 46 37 50 34 -20 58 47 -9 -21 53 49 -23 -14 -15 -7 -34 -4 -3 -27 -37 -29 -52 -53 -18 -55 -24 -31 -48 -36
right_child=7 10 4 -5 -6 17 20 31 9 -11 -12 -13 42 43 -16 16 39 -19 33 38 -22 41 23 -25 -26 48 27 32 -30 56 -32 -33 45 -35 35 40 -38 -39 -40 -41 -42 -43 -44 -45 -46 -47 57 -49 -50 -51 51 52 -54 54 -56 -57 -58 -59 -60
leaf_value=0.010018980730094421 -0.026683208640459713 -0.013316445137660221 -0.016877846902486886 0.028745734746848928 0.01368156182131643 -0.0054539848363367545 0.013950762080959508 -0.02306935845649398 0.01913907442441834 -0.014381537782514033 0.0061587314485198538 -0.0066520992323922685 0.026395722194027901 0.012567695718248579 0.012267563004186946 0.0204601931978706 0.0079220203000355451 0.0043880212155964458 -0.023710020450787218 -0.0051282056954529472 0.027220906159139788 -0.0021320891542502352 -0.012404797138500279 -0.0026331634833337827 -0.0039587267011711785 0.011240924967539997 -0.0065177726858292057 0.0017155716910705514 -0.014082364078070312 -0.021351491031542227 -0.0018513817746363547 -0.027954619436641182 0.0010373309975278146 -0.022666555721646692 -0.0080318779002033387 -0.011815369048559647 -0.0056587809409185084 -0.012363595925445375 0.0059621586211115636 0.012205909258314732 -0.0084443195039352863 -0.012171193116917651 0.014802348932817358 0.021614905202064601 -0.01349967239594909 -0.0039038107114693753 -0.007242858871936886 -0.021863253676030814 0.0062082131220968766 -0.019906531440443579 0.0095953021273295774 0.00043579772708974684 0.0062165637193242577 0.0019674039232643937 0.0065974622834911456 -0.019040074596603646 -0.015229819138850615 -0.013251789637840534 -0.0033677762729429402
leaf_weight=133 127 74 87 136 52 65 515 115 59 51 51 63 52 103 349 93 92 86 61 62 56 51 64 53 74 128 93 57 65 91 59 128 111 78 77 51 55 79 59 96 62 51 57 51 51 63 59 52 114 91 103 69 73 93 80 85 90 54 51
leaf_count=133 127 74 87 136 52 65 515 115 59 51 51 63 52 103 349 93 92 86 61 62 56 51 64 53 74 128 93 57 65 91 59 128 111 78 77 51 55 79 59 96 62 51 57 51 51 63 59 52 114 91 103 69 73 93 80 85 90 54 51
internal_value=0 0.0033514 0.00677881 0.00967937 -0.0111539 0.00877723 0.00968961 -0.0159146 -0.0122725 0.00322281 -0.0113564 0.00817181 0.00863973 0.00795261 0.00726365 0.00604924 0.0103064 -0.00329516 -0.0125653 -0.00821919 0.0153244 -0.0157921 -0.0178197 -0.0130413 0.00411016 0.00478636 0.00326107 0.00160898 -0.0226321 -0.0141827 -0.0109816 -0.0226409 0.00328341 -0.0152645 -0.0136904 -0.0117253 -0.0139006 -0.0189224 0 0.00757638 -0.0148044 -0.00755594 0.0207115 0.0158316 -0.00934681 -0.000514702 -0.0134689 -0.017171 0.00904055 -0.017291 0.00560827 0.0063456 0.00369801 0.00574365 0.00434684 -0.0164668 -0.0185354 -0.0104793 -0.0064957
internal_weight=0 4372 3548 3056 492 2920 2718 928 606 110 824 2147 2084 1975 1821 1472 454 202 773 302 571 496 394 202 1018 944 702 569 192 440 259 322 476 471 393 332 181 194 121 361 204 102 109 154 116 174 200 126 242 142 302 245 142 265 173 149 181 113 128
internal_count=5300 4372 3548 3056 492 2920 2718 928 606 110 824 2147 2084 1975 1821 1472 454 202 773 302 571 496 394 202 1018 944 702 569 192 440 259 322 476 471 393 332 181 194 121 361 204 102 109 154 116 174 200 126 242 142 302 245 142 265 173 149 181 113 128
is_linear=0
shrinkage=0.1


Tree=13
num_leaves=41
num_cat=0
split_feature=3 22 4 8 5 4 13 3 16 4 3 5 3 5 4 4 8 5 4 3 3 3 5 5 13 4 13 3 5 4 5 4 4 8 5 13 4 3 4 15
split_gain=15.6332 6.16171 4.66374 3.97259 2.30246 2.92804 2.01899 1.65184 1.5936 2.06073 3.12667 2.46549 1.74077 1.36885 2.1565 0.781612 0.61689 0.781497 0.521582 0.608497 0.822262 0.505319 0.458743 0.395721 0.339994 0.270999 0.24691 0.229 0.208046 0.192307 0.600458 0.17763 0.171849 0.847362 0.284873 0.167433 0.096474 0.091332 0.0518169 0.0224622
threshold=340.00000000000006 1.0000000180025095e-35 1.0000000180025095e-35 1.0000000180025095e-35 551.50000000000011 2086.5000000000005 1.0000000180025095e-35 1.0000000180025095e-35 1.0000000180025095e-35 1.0000000180025095e-35 1.5000000000000002 575.50000000000011 33.500000000000007 590.00000000000011 508.50000000000006 672.00000000000011 1.0000000180025095e-35 622.50000000000011 83.500000000000014 1113.5000000000002 611.00000000000011 184.00000000000003 3.5000000000000004 2.5000000000000004 1.0000000180025095e-35 3816.5000000000005 1.0000000180025095e-35 648.50000000000011 510.50000000000006 8.5000000000000018 1.0000000180025095e-35 1641.0000000000002 648.00000000000011 1.0000000180025095e-35 106.50000000000001 1.0000000180025095e-35 741.50000000000011 2219.0000000000005 18.500000000000004 1.0000000180025095e-35
decision_type=2 2 2 2 2 2 2 2 2 2 2 2 2 2 2 2 2 2 2 2 2 2 2 2 2 2 2 2 2 2 2 2 2 2 2 2 2 2 2 2
left_child=1 8 3 7 5 32 -5 35 9 10 16 -12 13 14 29 -10 39 22 24 20 -20 -14 -18 -8 27 31 -7 -2 -25 -11 -31 36 34 -34 -4 -3 -16 38 -26 -1
right_child=18 2 4 6 -6 26 23 -9 15 12 11 -13 21 -15 25 -17 17 -19 19 -21 -22 -23 -24 28 37 -27 -28 -29 -30 30 -32 -33 33 -35 -36 -37 -38 -39 -40 -41
leaf_value=0.010774571324759967 -0.0020391054266980704 0.013270492266737169 -0.016433820036271609 0.004434311784223227 0.0070188239436490066 -0.0016944111303926355 -0.004682592600672851 -0.0059963620510103894 0.0089341197111173689 -0.0046154740332993473 -0.015377305898049594 0.010016992496002334 0.014791268050757403 0.012026757776693894 -6.908658904074837e-05 0.021967707992305883 0.0068235139376257043 0.01935018114458302 -0.010032968927681352 -0.01481013470807368 0.0066112701145597851 0.001456743693909556 -0.0025046374386055092 -0.0165395451529213 -0.01319591725830082 0.00900618151338335 0.0065554158818506864 -0.011491034669793941 -0.0059594711234331067 -0.018465499524641674 -0.0056617558604588883 -0.0036797240214471189 -0.018414505596606189 -0.0029773889391160875 -0.007828836215063922 0.0085555640343501858 0.0045125865712303285 -0.020392243860538308 -0.018972006683800197 0.014077167490878686
leaf_weight=346 52 165 288 262 88 55 419 69 137 59 100 60 95 62 55 86 596 51 64 64 53 51 51 57 452 51 80 92 52 90 82 61 68 91 68 356 98 56 56 162
leaf_count=346 52 165 288 262 88 55 419 69 137 59 100 60 95 62 55 86 596 51 64 64 53 51 51 57 452 51 80 92 52 90 82 61 68 91 68 356 98 56 56 162
internal_value=0 0.00241218 -0.00146102 0.00194661 -0.0078889 -0.00997062 -0.00265076 0.00817231 0.00600777 0.00511118 0.00737936 -0.00559671 0.000651561 -0.00182933 -0.00364448 0.0141455 0.00913509 0.00705722 -0.0121236 -0.00684841 -0.00214081 0.0104158 0.00602448 -0.00624456 -0.013414 0.00238509 0.00288891 -0.00836421 -0.0118705 -0.01074 -0.0126011 0.00061446 -0.0134216 -0.00983879 -0.014906 0.0101279 0.00259605 -0.0146302 -0.0139138 0.0119089
internal_weight=0 4411 2118 1380 738 650 790 590 2293 2070 1366 160 704 558 496 223 1206 698 889 181 117 146 647 528 708 265 135 144 109 231 172 214 515 159 356 521 153 564 508 508
internal_count=5300 4411 2118 1380 738 650 790 590 2293 2070 1366 160 704 558 496 223 1206 698 889 181 117 146 647 528 708 265 135 144 109 231 172 214 515 159 356 521 153 564 508 508
is_linear=0
shrinkage=0.1


Tree=14
num_leaves=62
num_cat=0
split_feature=6 3 7 4 4 5 6 6 4 4 18 7 7 18 5 6 3 5 4 3 9 3 3 5 6 7 3 7 1 1 5 6 4 1 1 1 1 1 1 1 1 6 13 5 5 1 4 1 1 1 1 1 1 1 1 1 1 4 3 1 1
split_gain=21.4979 14.813 13.3306 5.88127 3.27171 2.8878 2.00889 1.77846 2.38128 1.30429 1.27585 0.821495 0.753204 0.73649 0.717904 0.632705 1.02132 0.963984 0.886628 0.764343 0.413082 0.388401 1.0071 0.463862 0.382029 0.373905 0.426255 0.352412 0.299698 0.728724 0.315261 0.292624 0.286053 0.229384 0.424337 0.226058 0.211905 0.720728 0.211026 0.253939 0.195153 0.17366 0.172601 0.281332 0.484938 0.213296 0.153219 0.136271 0.208325 0.102045 0.0854874 0.312925 0.0821421 0.0775481 0.0775117 0.0680438 0.110374 0.0634437 0.0433718 0.00839525 0.00523662
threshold=269.50000000000006 340.00000000000006 168.50000000000003 2872.0000000000005 1969.5000000000002 1540.5000000000002 36.500000000000007 1346.0000000000002 1852.0000000000002 83.500000000000014 1.0000000180025095e-35 1.5000000000000002 223.50000000000003 1.0000000180025095e-35 1.0000000180025095e-35 10.500000000000002 2.5000000000000004 644.50000000000011 3.5000000000000004 35.500000000000007 1.0000000180025095e-35 82.500000000000014 349.00000000000006 116.50000000000001 3562.5000000000005 987.00000000000011 1.0000000180025095e-35 37.500000000000007 3.5000000000000004 9.5000000000000018 77.500000000000014 118.50000000000001 184.50000000000003 2.5000000000000004 1.0000000180025095e-35 29.500000000000004 42.500000000000007 54.500000000000007 26.500000000000004 24.500000000000004 26.500000000000004 1998.5000000000002 1.0000000180025095e-35 1.2500000000000002 9.5000000000000018 24.500000000000004 564.50000000000011 17.500000000000004 18.500000000000004 23.500000000000004 20.500000000000004 21.500000000000004 26.500000000000004 14.500000000000002 25.500000000000004 27.500000000000004 30.500000000000004 763.50000000000011 1113.5000000000002 6.5000000000000009 47.500000000000007
decision_type=2 2 2 2 2 2 2 2 2 2 2 2 2 2 2 2 2 2 2 2 2 2 2 2 2 2 2 2 2 2 2 2 2 2 2 2 2 2 2 2 2 2 2 2 2 2 2 2 2 2 2 2 2 2 2 2 2 2 2 2 2
left_child=1 2 4 13 5 6 10 8 12 31 15 -8 21 25 49 16 18 19 20 -18 28 23 -23 52 41 26 32 -11 33 59 36 42 40 34 -1 -28 38 60 39 47 -4 -9 54 58 -45 -46 -20 53 -49 -12 -50 -52 -2 -31 -3 -40 -57 -26 -44 -30 -38
right_child=7 9 3 -5 -6 -7 11 24 -10 27 14 -13 -14 -15 -16 -17 17 -19 46 -21 -22 22 -24 -25 57 -27 35 -29 29 30 -32 -33 -34 -35 -36 -37 37 -39 55 -41 -42 -43 43 44 45 -47 -48 48 50 -51 51 -53 -54 -55 -56 56 -58 -59 -60 -61 -62
leaf_value=0.013153177366343203 -0.022534750821742531 -0.011417534368522362 -0.012025769677609445 0.018696398427775842 0.028307561411641008 0.031093161792488361 0.001757233979724968 -0.01997247208391438 0.0049039545964469329 0.0027454994760849442 0 -0.013902027405160869 -0.0045514942769830317 -0.00053139393041763152 0.010643111731916857 0.019638804743188479 -0.012992877748917562 0.011629299104283267 0.021952656280600044 0.0020762630041908942 0.01068105522120469 0 -0.017636224343774935 -0.0086002803950301718 -0.020514719594646305 -0.017914019400895428 -0.0095716943184615128 -0.0075079290423138616 -0.00064186406330155358 0.0073511570481899829 0.0005676655425734732 -0.0036243301450523315 -0.0070183711103766564 0.01779404563559189 0.0022253977415050289 -0.00074077704579572363 0.00019830808982155841 0.013686851749226512 0.01552895557329915 0 -0.022951326628591187 -0.012310640596881244 -0.020835690355723344 -0.0016082085774605669 -0.0081472266682853355 -0.015547631219590078 0.01277997905203148 7.5412128851139762e-05 0.010695116042611263 -0.0048777001062250292 0 0.008568394080463039 -0.0159420890981989 0.012662280550974276 -0.0044772141468761911 0.0057180619861426692 0.011224849376248814 -0.030348798819508319 -0.01306440251688735 0.00082690081317971442 -0.00096231462693141155
leaf_weight=98 114 56 58 71 81 53 74 122 83 89 56 56 99 59 51 55 52 62 57 86 589 58 70 66 61 142 100 52 71 121 74 55 51 51 72 56 60 54 55 53 56 94 78 51 88 177 87 60 81 102 54 111 109 106 63 89 212 52 53 80 54
leaf_count=98 114 56 58 71 81 53 74 122 83 89 56 56 99 59 51 55 52 62 57 86 589 58 70 66 61 142 100 52 71 121 74 55 51 51 72 56 60 54 55 53 56 94 78 51 88 177 87 60 81 102 54 111 109 106 63 89 212 52 53 80 54
internal_value=0 0.00290693 0.00558846 -0.00808305 0.00828931 0.00772299 0.00727906 -0.013851 -0.0104598 -0.0097428 0.00785833 -0.00467108 -0.013011 -0.0118045 0.000144401 0.00847586 0.00821262 0.00111973 0.00881434 -0.00330314 0.00826591 -0.0149204 -0.00956129 -0.0171514 -0.0199 -0.0131519 -0.0109169 -0.000743438 0.0073252 0.00667982 0.00751434 -0.0117197 -0.014686 0.0110372 0.00876752 -0.00666597 0.0079403 0.00416085 0.00857056 0.00717933 -0.0177544 -0.0168291 -0.0124335 -0.0134977 -0.011498 -0.0132458 0.0166972 0.00783788 0.00608961 -0.00298342 0.00738886 0.00551586 -0.0194973 0.0100129 -0.00808979 0.0107448 0.0097336 -0.0254051 -0.0180064 0 0
internal_weight=0 4372 3610 593 3017 2936 2883 928 599 762 2753 130 516 522 209 2544 2489 200 2289 138 2145 417 128 289 329 463 321 141 1556 1335 1184 621 165 221 170 156 1110 168 942 586 114 216 566 447 316 265 144 533 306 158 246 165 223 227 119 356 301 113 131 151 114
internal_count=5300 4372 3610 593 3017 2936 2883 928 599 762 2753 130 516 522 209 2544 2489 200 2289 138 2145 417 128 289 329 463 321 141 1556 1335 1184 621 165 221 170 156 1110 168 942 586 114 216 566 447 316 265 144 533 306 158 246 165 223 227 119 356 301 113 131 151 114
is_linear=0
shrinkage=0.1


Tree=15
num_leaves=57
num_cat=0
split_feature=0 6 4 7 7 5 1 4 4 8 18 6 6 4 6 1 6 5 5 7 6 4 1 7 1 1 1 1 1 7 6 7 1 7 4 7 1 1 7 1 1 1 4 1 1 1 1 1 1 1 1 5 1 1 1 7
split_gain=17.8101 8.43434 7.31293 4.45708 3.81541 3.37999 4.80006 2.67295 1.99754 1.81915 2.07046 1.57742 1.47681 1.59879 1.38448 1.1391 1.12911 0.995855 0.996324 1.32367 0.860151 1.84981 0.568314 0.538179 0.510447 0.401946 0.398571 0.363715 0.759713 0.339417 0.313116 0.566956 0.577139 0.301725 0.28484 0.28256 0.338773 0.240172 0.240124 0.238807 0.155041 0.304241 0.117851 0.115881 0.259004 0.255361 0.0972081 0.0939176 0.849259 0.297516 0.152977 0.0873687 0.0704718 0.0599065 0.0466014 0.0371655
threshold=1.0000000180025095e-35 269.50000000000006 763.50000000000011 97.500000000000014 1558.0000000000002 635.50000000000011 12.500000000000002 59.500000000000007 1969.5000000000002 1.0000000180025095e-35 1.0000000180025095e-35 1.0000000180025095e-35 2959.0000000000005 4174.5000000000009 132.00000000000003 24.500000000000004 19.500000000000004 1665.0000000000002 1086.0000000000002 2.5000000000000004 1097.5000000000002 1059.5000000000002 42.500000000000007 262.50000000000006 37.500000000000007 40.500000000000007 27.500000000000004 34.500000000000007 24.500000000000004 753.50000000000011 10.500000000000002 483.50000000000006 25.500000000000004 195.50000000000003 977.00000000000011 1.5000000000000002 20.500000000000004 3.5000000000000004 46.500000000000007 37.500000000000007 28.500000000000004 20.500000000000004 954.50000000000011 26.500000000000004 33.500000000000007 23.500000000000004 33.500000000000007 9.5000000000000018 3.5000000000000004 16.500000000000004 21.500000000000004 1.2500000000000002 27.500000000000004 14.500000000000002 18.500000000000004 272.50000000000006
decision_type=2 2 2 2 2 2 2 2 2 2 2 2 2 2 2 2 2 2 2 2 2 2 2 2 2 2 2 2 2 2 2 2 2 2 2 2 2 2 2 2 2 2 2 2 2 2 2 2 2 2 2 2 2 2 2 2
left_child=1 2 3 5 8 6 37 11 15 10 -2 51 13 20 29 -4 27 18 19 26 21 23 43 25 40 35 -7 28 -9 30 31 55 -33 -10 -14 36 -3 -1 -37 -22 41 -13 -17 45 -45 47 -31 48 -11 53 54 -8 -53 -49 -51 -5
right_child=9 12 4 14 -6 17 7 16 33 22 -12 24 34 -15 -16 42 -18 -19 -20 -21 39 -23 -24 -25 -26 -27 -28 -29 -30 46 -32 32 -34 -35 -36 38 -38 -39 -40 -41 -42 -43 -44 44 -46 -47 -48 49 -50 50 -52 52 -54 -55 -56 -57
leaf_value=0.012341689334554583 0.012170782597385266 -0.0096467531730071374 0.020280575475059355 -0.0087493143534049089 -0.014444770509402738 0.0083090876322376907 -0.017702288756430686 0.0087719691255331005 0.027448186574008118 0.0082433083901739101 -0.0032364731952882067 -0.0097841391768553818 -0.017505280803439702 0.005538117219672632 0.0041540427778053654 0 -0.0093825216584758828 0.0195628757954882 -0.0060404346481453342 -0.0030812079858401138 -0.020515122918729152 0.0057688749595820876 -0.0022410702187933224 -0.0029978488884841101 0.0030939192518774292 -0.0059389872657426351 0.019765611065047442 0.012812019146088198 -0.0062449422019859521 -0.01829044215838321 -0.01628141167774844 -0.0096473043051056393 0.0049434796067926922 0.016327677990440354 -0.029459000078881609 -0.0062233715543909256 -0.021006092573955647 0.0052615582539550336 -0.016453244012304646 -0.011546079625492986 -0.011503230262184133 0 0.0051409727120593539 0.010416454521122075 0.0026043241167749732 -0.0014063373564546294 -0.011373712509989616 0.006495552580347095 -0.0069072350939120876 0 0.0080351935828251557 -0.01551071012654219 -0.0094903521517102248 0.012881547392906895 0.0030738730928895415 -0.014652308200008604
leaf_weight=114 903 53 53 75 51 95 157 81 91 101 92 57 88 53 51 62 69 62 59 67 137 65 105 70 61 77 65 52 55 135 79 53 52 70 52 78 130 136 52 73 64 67 89 135 86 57 74 70 56 67 62 98 95 68 100 81
leaf_count=114 903 53 53 75 51 95 157 81 91 101 92 57 88 53 51 62 69 62 59 67 137 65 105 70 61 77 65 52 55 135 79 53 52 70 52 78 130 136 52 73 64 67 89 135 86 57 74 70 56 67 62 98 95 68 100 81
internal_value=0 -0.00436261 -0.00129018 -0.00375383 0.0107749 -0.000731012 -0.00346142 -0.00704828 0.0144118 0.00772254 0.0107047 -0.0107166 -0.0124959 -0.0107124 -0.0110104 0.0075348 0.00134105 0.00782816 0.00514008 0.0082277 -0.0119403 -0.00960036 0.00440552 -0.0118617 -0.00439603 -0.013347 0.013221 0.00549618 0.00239573 -0.0124942 -0.0101941 -0.00819356 -0.00202865 0.0228693 -0.0222398 -0.0150376 -0.0179416 0.00865505 -0.0106325 -0.0175937 -0.00704564 -0.00441238 0.00278801 0.00532713 0.00756304 0.00440566 -0.0160388 0.00511658 0.00257663 0.00609078 0.00359043 -0.0150953 -0.012761 0.0099411 0.00169334 -0.0120787
internal_weight=0 3398 2470 2054 416 1454 1106 856 365 1902 995 599 928 788 600 204 257 348 286 227 735 525 907 460 249 390 160 188 136 549 340 261 105 161 140 313 183 250 130 210 188 124 151 802 221 581 209 524 157 367 229 350 193 138 167 156
internal_count=5300 3398 2470 2054 416 1454 1106 856 365 1902 995 599 928 788 600 204 257 348 286 227 735 525 907 460 249 390 160 188 136 549 340 261 105 161 140 313 183 250 130 210 188 124 151 802 221 581 209 524 157 367 229 350 193 138 167 156
is_linear=0
shrinkage=0.1


Tree=16
num_leaves=61
num_cat=0
split_feature=0 6 3 4 22 6 16 19 12 1 22 1 3 1 6 4 1 1 1 1 4 3 6 1 1 1 6 1 3 6 4 3 1 4 4 1 1 1 1 6 4 4 4 1 1 3 22 3 1 3 4 1 1 3 1 1 1 3 1 1
split_gain=13.2131 6.12982 5.79497 3.19584 2.4662 1.56656 2.11582 1.0397 1.03243 0.887666 0.876059 0.853434 0.968682 1.02806 0.759801 0.7536 0.628665 0.719458 0.609808 0.466192 0.436774 0.780897 0.794405 0.426425 0.425228 0.448267 0.411144 0.910314 0.387705 0.459639 0.551617 0.404499 0.385933 0.378473 0.350187 0.321311 0.293422 0.218787 0.24789 0.189478 0.882715 0.685073 0.349607 0.241039 0.340738 0.158992 0.131066 0.562123 0.319926 0.393364 0.101526 0.0573286 0.0525937 0.0492467 0.044296 0.0435543 0.0250493 0.0115757 0.00785409 0.00352792
threshold=1.0000000180025095e-35 265.50000000000006 247.50000000000003 2872.0000000000005 1.0000000180025095e-35 2959.0000000000005 1.0000000180025095e-35 1.0000000180025095e-35 1.0000000180025095e-35 54.500000000000007 1.0000000180025095e-35 6.5000000000000009 7.5000000000000009 24.500000000000004 1.0000000180025095e-35 20.500000000000004 43.500000000000007 9.5000000000000018 17.500000000000004 32.500000000000007 3.5000000000000004 13.500000000000002 796.00000000000011 2.5000000000000004 33.500000000000007 19.500000000000004 19.500000000000004 31.500000000000004 1495.5000000000002 3.5000000000000004 9.5000000000000018 642.50000000000011 22.500000000000004 42.500000000000007 1852.0000000000002 24.500000000000004 15.500000000000002 29.500000000000004 37.500000000000007 9.5000000000000018 69.500000000000014 1.5000000000000002 213.50000000000003 14.500000000000002 27.500000000000004 13.500000000000002 1.0000000180025095e-35 1192.5000000000002 40.500000000000007 1171.0000000000002 1.0000000180025095e-35 29.500000000000004 40.500000000000007 2.5000000000000004 20.500000000000004 5.5000000000000009 23.500000000000004 715.50000000000011 29.500000000000004 11.500000000000002
decision_type=2 2 2 2 2 2 2 2 2 2 2 2 2 2 2 2 2 2 2 2 2 2 2 2 2 2 2 2 2 2 2 2 2 2 2 2 2 2 2 2 2 2 2 2 2 2 2 2 2 2 2 2 2 2 2 2 2 2 2 2
left_child=1 2 3 4 8 6 19 9 15 10 36 -6 39 -14 46 23 17 -12 -19 32 45 22 -22 -1 25 59 27 -17 29 -16 31 -31 33 53 -7 54 55 -37 -39 41 -41 43 -43 -13 -45 -21 47 57 49 50 -48 -34 -38 -3 -20 -2 -27 -4 -9 -25
right_child=7 5 14 -5 11 34 -8 58 -10 -11 16 12 13 -15 28 26 -18 18 35 20 21 -23 -24 24 -26 56 -28 -29 -30 30 -32 -33 51 -35 -36 37 52 38 -40 40 -42 42 -44 44 -46 -47 48 -49 -50 -51 -52 -53 -54 -55 -56 -57 -58 -59 -60 -61
leaf_value=0.011430386193665813 0.0046226356364940978 -0.015506882774953882 -0.0018103608918706186 0.017259170903877883 0.0059202175787421655 -0.016105317036979563 0.0045039239002249874 0.0094994789831890306 -0.0056722138391206781 0.015614444088932098 -0.0064442720377314473 -0.0033009896483286922 0.010282203818536026 -0.0051858162441884561 0.0046550657952816477 0.018234217467059926 -0.0079058556719610335 0.011254507383847397 0.00034387483895403849 -0.016844705151161692 0.010118810094914232 -0.013322413998067601 -0.0071699320509632002 0.0021503932358942885 0.007289853235713112 -0.0064172750889365561 0.0035563148367909803 0.0035323678662234868 -0.010914714181797116 -0.014510781700387526 0.0012990548898327687 -0.003577894907132723 -0.017550502008649427 -0.0011462788847421154 -0.028402723504769495 0.0082004406941445004 0.0083923541580516736 -0.0010668763224521763 0.0064349335642824249 -0.00021886118129532694 -0.01832308887100138 0.0042289391889803445 -0.0049625400389334681 -0.017686756874223265 -0.005542654848177838 -0.0069625403600006618 -0.014690381855425398 -0.01557556135014194 -0.0059027181986799982 -0.0073145334420799211 -0.024282993069611056 -0.010938163716046964 0.0045344872016019836 -0.0090473162768391329 -0.0026525866736801956 0.00056509527618514045 -0.0022977496131931009 -0.0056689583120920562 0.012657666310191378 0.0054203671474574236
leaf_weight=53 66 61 61 125 79 104 96 259 86 77 73 51 75 98 56 115 61 97 62 56 52 56 53 77 97 59 91 79 93 69 79 93 182 52 51 100 477 98 71 51 71 68 99 70 53 51 61 80 57 51 53 57 94 84 93 92 85 55 154 53
leaf_count=53 66 61 61 125 79 104 96 259 86 77 73 51 75 98 56 115 61 97 62 56 52 56 53 77 97 59 91 79 93 69 79 93 182 52 51 100 477 98 71 51 71 68 99 70 53 51 61 80 57 51 53 57 94 84 93 92 85 55 154 53
internal_value=0 -0.00419719 -0.00152204 0.00188116 0.000580841 -0.0109973 -0.00912062 0.00626033 0.00443695 0.00495533 0.00433251 -0.00364905 -0.00490253 0.0012816 -0.00845952 0.00572134 0.00159505 0.00264016 0.00399218 -0.0110371 -0.00739087 -0.00372598 0.000999368 0.00290825 0.00157964 -0.000291351 0.00976173 0.0124599 -0.00509166 -0.00312943 -0.00510939 -0.00848905 -0.0131838 -0.00938059 -0.0204176 0.00223349 0.00673552 0.00435825 0.00184076 -0.00730229 -0.0110929 -0.00582517 -0.000972967 -0.0102452 -0.0127892 -0.0125199 -0.0115031 -0.00893238 -0.013587 -0.0159917 -0.0195118 -0.016146 0.00782948 -0.0120492 -0.00118795 0.00252102 -0.00427199 -0.00399537 0.010777 0.00380075
internal_weight=0 3398 2443 1635 1510 955 800 1874 795 1461 1384 715 636 173 808 709 655 594 521 704 268 161 105 424 371 274 285 194 390 297 241 162 436 197 155 424 729 269 169 463 122 341 167 174 123 107 418 196 222 165 114 239 571 145 155 158 144 116 413 130
internal_count=5272 3398 2443 1635 1510 955 800 1874 795 1461 1384 715 636 173 808 709 655 594 521 704 268 161 105 424 371 274 285 194 390 297 241 162 436 197 155 424 729 269 169 463 122 341 167 174 123 107 418 196 222 165 114 239 571 145 155 158 144 116 413 130
is_linear=0
shrinkage=0.1


Tree=17
num_leaves=48
num_cat=0
split_feature=6 3 7 5 22 6 7 7 7 7 19 18 11 19 10 10 18 19 22 7 7 6 5 7 3 22 13 6 22 6 5 5 7 3 5 3 3 3 5 7 5 6 13 7 3 5 5
split_gain=10.514 8.64821 8.3635 2.15368 1.57663 1.27769 1.27002 1.09487 1.50618 0.896498 1.58004 0.827999 0.784159 0.900195 1.80124 1.41527 0.795169 0.678872 1.15681 0.783576 0.687461 0.622758 0.59087 0.567719 0.409038 0.573123 0.390727 0.335693 0.383239 0.302939 0.357807 0.291492 0.595946 0.397028 0.251039 0.427426 0.134087 0.295579 0.197265 0.105565 0.0925242 0.0546177 0.0305152 0.0287194 0.0153231 0.000967802 0.150448
threshold=265.50000000000006 247.50000000000003 387.50000000000006 1540.5000000000002 1.0000000180025095e-35 2515.0000000000005 2176.0000000000005 340.50000000000006 840.00000000000011 1542.0000000000002 1.0000000180025095e-35 1.0000000180025095e-35 1.0000000180025095e-35 1.0000000180025095e-35 1.0000000180025095e-35 1.0000000180025095e-35 1.0000000180025095e-35 1.0000000180025095e-35 1.0000000180025095e-35 11.500000000000002 3.5000000000000004 1.0000000180025095e-35 685.00000000000011 1.0000000180025095e-35 1.5000000000000002 1.0000000180025095e-35 1.0000000180025095e-35 4.5000000000000009 1.0000000180025095e-35 6.5000000000000009 14.500000000000002 16.500000000000004 39.500000000000007 1.0000000180025095e-35 219.00000000000003 82.500000000000014 434.50000000000006 657.50000000000011 5.5000000000000009 696.00000000000011 77.500000000000014 668.50000000000011 1.0000000180025095e-35 1.0000000180025095e-35 829.50000000000011 318.00000000000006 64.500000000000014
decision_type=2 2 2 2 2 2 2 2 2 2 2 2 2 2 2 2 2 2 2 2 2 2 2 2 2 2 2 2 2 2 2 2 2 2 2 2 2 2 2 2 2 2 2 2 2 2 2
left_child=1 2 3 4 11 6 7 17 -9 10 24 22 13 14 16 40 23 18 20 -20 -2 36 31 42 25 -4 -23 28 -12 -28 44 32 43 -33 35 41 -3 -38 -39 -7 -15 -19 -6 -1 -31 46 -40
right_child=5 21 9 -5 12 39 -8 8 -10 -11 27 -13 -14 15 -16 -17 -18 34 19 -21 -22 26 -24 -25 -26 -27 29 -29 -30 30 -32 33 -34 -35 -36 -37 37 38 45 -41 -42 -43 -44 -45 -46 -47 -48
leaf_value=0.0077233521039799776 -0.0055992396515420553 -0.015857718352238943 0.010557442197505193 0.025594096077514991 0.00026832917950896454 -0.019877745090581378 -0.023508657632611379 0.013025405263562939 -0.0090177341059501162 -0.015639757898605923 -0.0015669942264521933 0 0.0075681181193808442 0.00031328264161535288 -0.018445587367472507 0.011632466643120195 0.012548320570643243 -0.0092158069454239197 -0.0053730935463375297 -0.021187973704453824 0.0073966905148538618 0.00064667820570099501 0.016420373831251875 0.0092115400333742086 -0.0063862624737174717 -0.0023758373518199564 -0.0012057030964220451 -0.018570359501950542 -0.01424370672053531 -0.0088819486382877653 -0.0034455714501294985 0.0088404776207327337 0.019101220531377847 -0.0029091241083390187 -0.019502772957363839 -0.0039221713925273001 -0.0029881611932316698 -0.0070108194699411821 -0.015651594794713019 -0.011582222343322407 -0.0045468454069431483 -0.016004605012188294 -0.0012948391266135997 0.0034066780916630992 -0.015511482852831019 -0.01656074615699208 -0.0059278597378923997
leaf_weight=1174 84 61 67 55 115 128 52 60 63 129 56 126 284 72 51 188 55 58 94 56 78 94 91 61 52 62 95 65 56 52 93 51 52 59 53 82 75 118 51 51 61 96 476 51 56 62 51
leaf_count=1174 84 61 67 55 115 128 52 60 63 129 56 126 284 72 51 188 55 58 94 56 78 94 91 61 52 62 95 65 56 52 93 51 52 59 53 82 75 118 51 51 61 96 476 51 56 62 51
internal_value=0 0.00166109 0.0038167 0.00578459 0.00540347 -0.00993216 -0.00807692 -0.0069116 0.00139975 -0.00831005 -0.0055537 0.00754432 0.00285383 0.00157478 -0.000252866 0.00601901 0.00100115 -0.00868121 -0.00521227 -0.0115522 0.000403504 -0.00764929 0.00820799 0 0.000803784 0.00402177 -0.00458249 -0.0122878 -0.00827355 -0.00638243 -0.00862397 0.00763945 0.00807885 0.00216353 -0.0122835 -0.0104875 -0.010412 -0.00936599 -0.010916 -0.0177446 -0.00160574 -0.0137156 -0.000920892 0.0075773 -0.0127013 -0.0134744 -0.011194
internal_weight=0 4317 3509 3022 2967 955 776 724 123 487 358 1604 1363 1079 758 321 707 601 312 150 162 808 1478 652 181 129 390 177 112 296 201 1387 1277 110 289 236 418 357 282 179 133 154 591 1225 108 164 102
internal_count=5272 4317 3509 3022 2967 955 776 724 123 487 358 1604 1363 1079 758 321 707 601 312 150 162 808 1478 652 181 129 390 177 112 296 201 1387 1277 110 289 236 418 357 282 179 133 154 591 1225 108 164 102
is_linear=0
shrinkage=0.1


Tree=18
num_leaves=46
num_cat=0
split_feature=7 4 4 7 8 18 5 22 5 18 5 10 5 20 4 7 4 22 7 4 5 5 4 4 4 18 5 5 7 7 4 5 4 5 10 4 7 4 7 13 4 5 22 5 5
split_gain=6.27801 2.68895 2.55782 2.16347 1.72444 4.33836 3.78944 1.84397 1.44801 1.32501 1.07627 0.959221 1.35709 0.920386 0.81979 0.754445 0.732911 0.625428 0.520784 0.518304 0.474047 0.801682 0.472296 0.56994 0.43496 0.310599 0.232249 0.485826 0.265429 0.388621 0.198538 0.191762 0.191402 0.17651 0.170229 0.150946 0.543572 0.495563 0.276209 0.133583 0.082268 0.0377594 0.0277333 0.0187233 0.00979918
threshold=9.5000000000000018 4067.0000000000005 1775.0000000000002 1542.0000000000002 1.0000000180025095e-35 1.0000000180025095e-35 1.0000000180025095e-35 1.0000000180025095e-35 693.50000000000011 1.0000000180025095e-35 1558.5000000000002 1.0000000180025095e-35 482.50000000000006 1.0000000180025095e-35 18.500000000000004 100.50000000000001 1541.5000000000002 1.0000000180025095e-35 910.50000000000011 1059.5000000000002 611.50000000000011 72.500000000000014 1.0000000180025095e-35 59.500000000000007 66.000000000000014 1.0000000180025095e-35 3.5000000000000004 56.500000000000007 671.50000000000011 289.50000000000006 705.00000000000011 56.500000000000007 32.500000000000007 870.50000000000011 1.0000000180025095e-35 1.5000000000000002 289.50000000000006 9.5000000000000018 57.500000000000007 1.0000000180025095e-35 639.50000000000011 335.50000000000006 1.0000000180025095e-35 365.00000000000006 32.500000000000007
decision_type=2 2 2 2 2 2 2 2 2 2 2 2 2 2 2 2 2 2 2 2 2 2 2 2 2 2 2 2 2 2 2 2 2 2 2 2 2 2 2 2 2 2 2 2 2
left_child=2 3 4 11 5 6 34 8 13 20 31 12 17 14 44 -14 -5 19 -3 26 21 22 39 -24 -15 35 28 -28 29 32 -16 -8 -2 41 -1 36 -19 -37 -39 -9 -25 -33 -36 -13 -6
right_child=1 18 -4 16 7 -7 10 9 -10 -11 -12 43 15 24 30 -17 -18 25 -20 -21 -22 -23 23 40 -26 -27 27 -29 -30 -31 -32 33 -34 -35 42 37 -38 38 -40 -41 -42 -43 -44 -45 -46
leaf_value=0.0074555742002596062 0 0.01178917121127256 0.019888970481213405 -0.012721980886096785 -0.0078068790348590133 -0.0098439656069325369 -0.0012625783585374693 -0.0007675437862453481 0.015955573528428912 0.0092099432221491723 0.0094698878076568561 -0.010756548546032177 0.013635386283675586 0.0026518860604279174 0 -0.0022661834769961676 -0.027682685181592299 -0.020425611631650954 0 0.0035131484648908157 0.0026266338613097958 -0.015909898253652306 -0.017698194587732214 -0.0073636260110969869 0.012253051677495885 -0.00022451573488950678 -0.013705438601373871 -0.0014725238260933982 -0.0075369187452643902 0.0054423130577024876 0.0078159730308181991 -0.0058111711178856261 -0.0080540411504470746 -0.0012825349413322328 0.01199072644861931 0.00050673376981789486 -0.0062276817124430079 -0.0021721589172189757 -0.011718766118015637 -0.0042109004663073877 -0.00061945694255433287 -0.011217410597595838 0.0088149283745298668 -0.017190211787166128 -0.0038091652313684029
leaf_weight=620 51 90 77 162 149 201 98 209 73 71 56 79 60 591 92 52 51 56 53 92 71 71 57 52 55 52 74 73 75 69 51 70 58 53 227 52 75 51 165 370 51 83 225 52 57
leaf_count=620 51 90 77 162 149 201 98 209 73 71 56 79 60 591 92 52 51 56 53 92 71 71 57 52 55 52 74 73 75 69 51 70 58 53 227 52 75 51 165 370 51 83 225 52 57
internal_value=0 -0.00577301 0.00181079 -0.00712294 0.00141844 0.00383795 0.00578719 -0.000517121 0.00231165 -0.00373389 -0.00300471 -0.0054045 -0.00434465 0.0012692 -0.00280324 0.00588432 -0.0164977 -0.00560327 0.00714523 -0.00300472 -0.00482385 -0.00552783 -0.00447456 -0.00941109 0.00353316 -0.00834662 -0.00460693 -0.00791112 -0.0025241 -0.000180285 0.00281129 -0.00543832 -0.00411788 -0.00722465 0.00877816 -0.00930179 -0.0126118 -0.00752995 -0.00965562 -0.00303918 -0.00442465 -0.0090135 0.0105011 -0.0136252 -0.0069009
internal_weight=0 1542 3730 1399 3653 1633 1432 2020 1068 952 360 1186 1055 995 349 112 213 943 143 492 881 810 739 160 646 451 400 147 253 178 143 304 109 206 1072 399 131 268 216 579 103 153 452 131 206
internal_count=5272 1542 3730 1399 3653 1633 1432 2020 1068 952 360 1186 1055 995 349 112 213 943 143 492 881 810 739 160 646 451 400 147 253 178 143 304 109 206 1072 399 131 268 216 579 103 153 452 131 206
is_linear=0
shrinkage=0.1


Tree=19
num_leaves=55
num_cat=0
split_feature=0 7 4 5 1 8 5 3 4 7 3 7 3 1 4 1 3 7 5 7 4 5 1 1 5 5 3 4 1 5 7 4 1 7 16 5 4 1 1 4 7 7 1 1 1 4 7 4 1 1 4 1 1 1
split_gain=7.6571 2.76701 4.35213 2.61817 2.39268 1.60057 0.913254 2.3824 1.17245 0.966161 0.694295 0.642093 0.949691 0.605258 0.656182 0.80673 0.638916 0.946386 0.604754 0.588135 0.561888 0.481951 0.436807 0.699352 0.423158 0.400047 0.359677 0.357131 0.341976 0.41145 0.387995 0.389727 0.329797 0.308249 0.302671 0.301259 0.248869 0.247747 0.848664 0.226663 0.220821 0.218201 0.211087 0.152695 0.0838259 0.0807046 0.0784741 0.061938 0.0565509 0.217859 0.0503255 0.0193119 0.0639994 0.0832621
threshold=1.0000000180025095e-35 1574.5000000000002 1315.0000000000002 1540.5000000000002 10.500000000000002 1.0000000180025095e-35 431.50000000000006 247.50000000000003 666.50000000000011 5.5000000000000009 44.500000000000007 19.500000000000004 1.0000000180025095e-35 17.500000000000004 1.5000000000000002 19.500000000000004 82.500000000000014 163.50000000000003 266.00000000000006 97.500000000000014 22.500000000000004 129.50000000000003 35.500000000000007 24.500000000000004 4.5000000000000009 1.2500000000000002 740.50000000000011 2806.5000000000005 21.500000000000004 18.500000000000004 289.50000000000006 7.5000000000000009 31.500000000000004 5337.0000000000009 1.0000000180025095e-35 40.500000000000007 443.00000000000006 10.500000000000002 3.5000000000000004 2219.0000000000005 678.00000000000011 722.50000000000011 37.500000000000007 43.500000000000007 1.0000000180025095e-35 69.500000000000014 1.5000000000000002 66.000000000000014 17.500000000000004 19.500000000000004 4.5000000000000009 22.500000000000004 26.500000000000004 30.500000000000004
decision_type=2 2 2 2 2 2 2 2 2 2 2 2 2 2 2 2 2 2 2 2 2 2 2 2 2 2 2 2 2 2 2 2 2 2 2 2 2 2 2 2 2 2 2 2 2 2 2 2 2 2 2 2 2 2
left_child=1 2 3 4 44 -2 8 19 13 25 -5 39 27 50 16 -16 17 46 28 20 22 24 23 -8 26 -10 -18 -13 -17 30 31 -30 -9 34 -3 -26 42 38 -7 -4 -32 -19 47 48 -1 -31 -15 -33 -39 -50 -6 -51 -53 -54
right_child=5 33 11 10 6 37 7 32 9 -11 -12 12 -14 14 15 18 21 41 -20 -21 -22 -23 -24 -25 35 -27 -28 -29 29 45 40 36 -34 -35 -36 -37 -38 43 -40 -41 -42 -43 -44 -45 -46 -47 -48 -49 49 51 -52 52 53 -55
leaf_value=0.0086130309398021552 0.0075045045271749256 -0.013901866998368255 0.0072533496977624018 0.019754151803567196 -0.010591173470834108 0.0035048130322637492 0.0048936041912596116 -0.018164643002469602 0.0095248687605897081 -0.0073262740938922453 0.0029027939687847342 0.0016408991977547721 -0.0032632080912869859 -0.014176601938533737 0.0059819558219181149 -0.013174825446953354 -0.0014653992102950653 -0.00033717654935029834 0.0037779518051858814 -0.0064761901043434841 0.013606292469509932 -0.012435691617165566 0.0092394399207453883 -0.0082049277180116804 0.0045647685493303818 -0.00087502582312696262 -0.010745090089915874 0.013027283230183904 0.0011015913802734228 -0.01324351819055916 0.0038926593565778937 -0.0079435125218688483 -0.0065263392691531572 -0.020507027699188381 -0.0037951097713374016 -0.004651763286282311 -0.00070521818500563979 0.0048339533011417229 -0.011291980993720342 0.017377756747428686 -0.0039614122876716366 -0.0088244847094873704 -0.0043429273574132508 -0.0013237297964652688 0.0034787469497631306 -0.0059690948661216452 -0.02130620933371764 -0.015613735737331194 -0.0024842979636696496 0.0012121053603196569 -0.017022406878951329 0.006681937169158117 0 0.0041234337801041611
leaf_weight=65 998 122 57 52 101 101 101 68 91 100 59 51 93 150 65 73 85 65 60 53 59 94 66 68 75 51 112 97 55 75 82 52 61 62 56 67 53 159 61 77 62 82 74 82 174 54 58 59 73 97 62 73 92 138
leaf_count=65 998 122 57 52 101 101 101 68 91 100 59 51 93 150 65 73 85 65 60 53 59 94 66 68 75 51 112 97 55 75 82 52 61 62 56 67 53 159 61 77 62 82 74 82 174 54 58 59 73 97 62 73 92 138
internal_value=0 -0.00320522 -0.00240267 -0.00377533 -0.00441156 0.00475521 -0.00535771 -0.00131859 -0.00631908 2.90625e-05 0.0111686 0.00767429 0.00433134 -0.0072389 -0.00657676 -0.00437751 -0.0086567 -0.0119197 -0.00539983 0.00289814 0.00472834 -0.00588626 0.00232392 -0.000132799 -0.00394855 0.00549929 -0.00695049 0.00938223 -0.00632613 -0.00536996 -0.00375589 -0.00585295 -0.0129809 -0.0135936 -0.0109539 0 -0.00763336 0.00157594 -0.00181226 0.0133789 0.000224669 -0.00535212 -0.00939528 0.00240245 0.00504764 -0.0105181 -0.0163629 -0.012392 0.00295116 0.00223106 -0.0132904 0.00319471 0.00369331 0.00256545
internal_weight=0 3398 3158 2783 2672 1874 2433 476 1957 242 111 375 241 1715 1552 764 788 355 699 347 294 433 235 169 339 142 197 148 639 566 437 293 129 240 178 142 238 876 162 134 144 147 185 714 239 129 208 111 632 473 163 400 303 230
internal_count=5272 3398 3158 2783 2672 1874 2433 476 1957 242 111 375 241 1715 1552 764 788 355 699 347 294 433 235 169 339 142 197 148 639 566 437 293 129 240 178 142 238 876 162 134 144 147 185 714 239 129 208 111 632 473 163 400 303 230
is_linear=0
shrinkage=0.1


Tree=20
num_leaves=45
num_cat=0
split_feature=6 3 7 8 6 7 20 8 7 6 3 3 7 7 7 6 7 6 3 7 6 18 6 6 7 7 7 6 6 3 6 3 7 3 3 3 7 6 3 7 7 3 6 6
split_gain=6.89574 4.25907 4.58722 1.82839 0.918705 0.980865 0.835146 0.816391 1.29203 0.681182 0.660151 0.555922 0.523337 0.497601 0.410321 0.405811 0.394765 0.368341 0.338696 0.545933 0.298576 0.30966 0.30103 0.749243 0.240049 0.600869 1.03759 0.395819 0.503134 0.254987 0.236131 0.186655 0.159218 0.151093 0.126398 0.0961193 0.0626441 0.0600684 0.0518491 0.033146 0.0281854 0.0270714 0.0238701 0.0203024
threshold=265.50000000000006 370.00000000000006 357.50000000000006 1.0000000180025095e-35 3223.0000000000005 2296.5000000000005 1.0000000180025095e-35 1.0000000180025095e-35 987.00000000000011 7.5000000000000009 2464.5000000000005 14.500000000000002 1.5000000000000002 15.500000000000002 722.50000000000011 537.50000000000011 77.500000000000014 35.500000000000007 1.5000000000000002 140.50000000000003 71.500000000000014 1.0000000180025095e-35 5.5000000000000009 1.0000000180025095e-35 2.5000000000000004 39.500000000000007 97.500000000000014 1.0000000180025095e-35 18.500000000000004 1.0000000180025095e-35 20.500000000000004 8.5000000000000018 4.5000000000000009 657.50000000000011 802.50000000000011 1192.5000000000002 1.5000000000000002 45.500000000000007 210.50000000000003 581.50000000000011 97.500000000000014 22.500000000000004 712.50000000000011 1307.0000000000002
decision_type=2 2 2 2 2 2 2 2 2 2 2 2 2 2 2 2 2 2 2 2 2 2 2 2 2 2 2 2 2 2 2 2 2 2 2 2 2 2 2 2 2 2 2 2
left_child=1 2 3 13 5 6 11 8 -4 14 20 15 38 31 39 -2 -14 -10 19 42 21 22 23 33 27 32 -27 41 -29 -30 -24 -1 -26 -3 -35 -36 -8 -11 -13 -9 -6 -5 -17 -44
right_child=4 10 7 24 40 -7 36 9 17 37 -12 12 16 -15 -16 18 -18 -19 -20 -21 -22 -23 30 -25 25 26 -28 28 29 -31 -32 -33 -34 34 35 -37 -38 -39 -40 -41 -42 -43 43 -45
leaf_value=0.00675262114931173 0.0048839999616601092 -0.0001414324501712828 0.013186542530426651 0.0027325680904826538 -0.019827915213739764 -0.018711976399718621 -0.015405523894939875 0.00094842680926038249 -0.0098074429385745683 -0.018925342947147782 -0.013675261316584621 -0.0075598294705417528 0.0040889286113132989 0.01551632298021409 -0.0089841520985070502 -0.0045723138398119211 -0.0077168929657577025 2.2733025375824903e-05 0.0035889923784161275 0.0012812738181015631 0.001133126143827488 -0.010189108063557498 -0.012051974084293746 0.008250921302498708 -0.0086667830730628378 0.015094117421264215 -0.0014061955349299194 0.013365879082923159 0.0072249333950079667 -0.0018536182079865937 -0.0020606448394590005 0.012230318483909972 -0.001225695099975175 -0.010201344751799062 -0.00019826408266073915 -0.0060278507056350863 -0.0082083783856430337 -0.010500970203607875 -0.014442822469546352 -0.0023178752326310924 -0.012317461438767085 0 -0.01226357329738253 -0.0060968164079406957
leaf_weight=1174 85 92 54 1225 51 60 72 62 75 51 79 55 51 86 118 54 58 61 59 90 95 91 66 59 56 59 97 88 61 52 55 88 93 53 69 78 57 52 72 52 63 58 52 51
leaf_count=1174 85 92 54 1225 51 60 72 62 75 51 79 55 51 86 118 54 58 61 59 90 95 91 66 59 56 59 97 88 61 52 55 88 93 53 69 78 57 52 72 52 63 58 52 51
internal_value=0 0.00207461 0.00347708 0.00493169 -0.00740055 -0.00614315 -0.00509107 -0.00513607 0 -0.0081062 -0.00483799 -0.00349171 -0.00735575 0.00773051 -0.00483559 -0.00105398 -0.00181474 -0.0050951 -0.00283818 -0.00454037 -0.0037143 -0.0046055 -0.00344163 -0.00180401 0.00279976 0.000101994 0.00456996 0.00332643 0.00756483 0.00268225 -0.00785127 0.00716726 -0.00429911 -0.00397688 -0.005535 -0.00357205 -0.0125451 -0.0150726 -0.0117867 -0.000179728 -0.0160391 0.00263028 -0.00814028 -0.0096105
internal_weight=0 4399 3662 3137 930 816 756 525 190 335 737 627 236 1348 232 391 109 136 306 247 658 563 472 351 1789 305 156 1484 201 113 121 1262 149 292 200 147 129 103 127 114 114 1283 157 103
internal_count=5329 4399 3662 3137 930 816 756 525 190 335 737 627 236 1348 232 391 109 136 306 247 658 563 472 351 1789 305 156 1484 201 113 121 1262 149 292 200 147 129 103 127 114 114 1283 157 103
is_linear=0
shrinkage=0.1


Tree=21
num_leaves=35
num_cat=0
split_feature=6 7 9 22 16 16 6 13 6 8 7 7 6 7 7 19 7 6 7 6 6 7 6 7 6 7 6 7 6 6 7 7 7 13
split_gain=5.6141 3.14146 2.06389 1.64727 1.10886 0.999863 1.62771 0.781978 0.748756 0.720951 0.55132 0.799918 0.798169 0.499812 0.483528 0.427746 0.783603 0.425188 0.342857 0.750646 0.338502 0.311063 0.26998 0.256001 0.206508 0.106691 0.155058 0.0992513 0.0836315 0.427192 0.0521443 0.267276 0.0488011 0.0331096
