tree
version=v3
num_class=1
num_tree_per_iteration=1
label_index=0
max_feature_idx=22
objective=regression
feature_names=CryoSleep Age VIP RoomService FoodCourt ShoppingMall Spa VRDeck HomePlanet_Earth HomePlanet_Europa HomePlanet_Mars Destination_55_Cancri_e Destination_PSO_J318.5-22 Destination_TRAPPIST-1e deck_A deck_B deck_C deck_D deck_E deck_F deck_G deck_T side_P
feature_infos=[0:1] [0:79] [0:1] [0:14327] [0:29813] [0:10705] [0:22408] [0:24133] [0:1] [0:1] [0:1] [0:1] [0:1] [0:1] [0:1] [0:1] [0:1] [0:1] [0:1] [0:1] [0:1] none [0:1]
tree_sizes=2906 2447 2346 3097 3103 3077 3195 2206 3255 3190 2868 2213 2145 2546 3192 3096 3280 2472 2453 3114 2247 2505 2561 3136 2268 3055 2850 2191 2405 2438 3206 2386 2604 2590 3088 3161 2580 2882 2153 3015 2740 3081 2682 2603 2564 2602 2477 2591 2648 3109 2390 3080 2688 3162 3249 3180 2988 3106 3065 2164 2461 2478 2046 2478 3407 2376 2837 3166 2260 2288 3268 3342 3012 3198 2462 2110 3168 3103 2316 2851 3188 2500 3355 2328 2514 2630 3003 2385 3070 2785 2777 3089 2488 2362 2073 2747 2638 2890 3061 2840

Tree=0
num_leaves=33
num_cat=0
split_feature=7 9 4 5 8 19 5 4 5 4 4 7 20 8 7 7 11 7 8 7 7 1 11 4 1 1 15 4 5 1 1 1
split_gain=92.0249 45.7911 29.0141 27.0439 18.644 13.2248 10.5107 10.4711 9.81948 6.24742 5.21347 4.74075 3.27979 2.57719 2.01284 1.87357 1.33033 1.05876 0.922954 0.569887 0.807913 0.56576 0.423161 0.408668 0.396688 0.342079 0.212914 0.17105 0.2448 0.0627203 0.0592256 0.011284
threshold=1.0000000180025095e-35 1.0000000180025095e-35 2199.0000000000005 1.0000000180025095e-35 1.0000000180025095e-35 1.0000000180025095e-35 611.00000000000011 164.50000000000003 485.00000000000006 1.0000000180025095e-35 671.00000000000011 278.50000000000006 1.0000000180025095e-35 1.0000000180025095e-35 1458.0000000000002 371.50000000000006 1.0000000180025095e-35 41.500000000000007 1.0000000180025095e-35 13.500000000000002 628.50000000000011 29.500000000000004 1.0000000180025095e-35 180.50000000000003 12.500000000000002 19.500000000000004 1.0000000180025095e-35 9.5000000000000018 1.2500000000000002 31.500000000000004 20.500000000000004 32.500000000000007
decision_type=2 2 2 2 2 2 2 2 2 2 2 2 2 2 2 2 2 2 2 2 2 2 2 2 2 2 2 2 2 2 2 2
left_child=1 3 8 4 5 -1 7 18 10 12 14 -12 -6 -8 19 -4 21 -10 -5 -2 23 24 26 27 -14 -7 -3 28 -21 -27 -26 -24
right_child=2 22 15 6 9 25 13 -9 17 -11 11 -13 16 -15 -16 -17 -18 -19 -20 20 -22 -23 31 -25 30 29 -28 -29 -30 -31 -32 -33
leaf_value=0.50216237939776642 0.47442231636542903 0.54073494824204937 0.52527187375625328 0.46224341029379246 0.49375634315065181 0.55158765853818559 0.49747002063508899 0.50825433228892269 0.50313405834458402 0.4896158374302591 0.50277814282029143 0.4688716241692315 0.51052806310831644 0.52231937000548223 0.45266294456633738 0.50492099947520408 0.52446901938055335 0.48748510575583065 0.47442231636542903 0.45958767602946438 0.47311544828186569 0.50714322166904424 0.55059755956074696 0.47033767332190701 0.51851679833632791 0.54239225674705838 0.54709327628779292 0.45816662359910015 0.46721267294945462 0.5463244993524542 0.51549743940784398 0.54899025419037217
leaf_weight=87 127 129 114 122 83 103 85 90 97 142 84 81 151 82 93 75 118 78 127 75 144 135 101 80 127 87 89 76 96 76 133 77
leaf_count=87 127 129 114 122 83 103 85 90 97 142 84 81 151 82 93 75 118 78 127 75 144 135 101 80 127 87 89 76 96 76 133 77
internal_value=0.501764 0.51558 0.481178 0.508624 0.516564 0.536007 0.489137 0.479021 0.474575 0.508843 0.470162 0.486133 0.512498 0.509671 0.466349 0.517196 0.514841 0.496159 0.468455 0.468477 0.466874 0.51276 0.546285 0.464126 0.514605 0.547076 0.543331 0.462114 0.463868 0.544226 0.516972 0.549902
internal_weight=0 2144 1220 1748 1242 353 506 339 1031 889 856 165 747 167 691 189 664 175 249 598 471 546 396 327 411 266 218 247 171 163 260 178
internal_count=3364 2144 1220 1748 1242 353 506 339 1031 889 856 165 747 167 691 189 664 175 249 598 471 546 396 327 411 266 218 247 171 163 260 178
is_linear=0
shrinkage=1


Tree=1
num_leaves=26
num_cat=0
split_feature=0 6 4 20 4 4 6 13 10 19 6 19 4 11 6 4 19 4 16 19 11 6 4 4 12
split_gain=143.267 24.9281 26.787 18.0996 6.16445 5.90208 3.44415 1.51429 1.38926 1.96121 1.23383 0.877205 0.930999 0.752271 0.667323 0.568334 0.509679 0.468658 0.436552 0.546111 0.734234 0.417295 0.373321 0.353408 0.0100909
threshold=1.0000000180025095e-35 258.50000000000006 665.00000000000011 1.0000000180025095e-35 3121.5000000000005 2236.0000000000005 1.0000000180025095e-35 1.0000000180025095e-35 1.0000000180025095e-35 1.0000000180025095e-35 1448.0000000000002 1.0000000180025095e-35 1.0000000180025095e-35 1.0000000180025095e-35 452.50000000000006 1427.5000000000002 1.0000000180025095e-35 1.5000000000000002 1.0000000180025095e-35 1.0000000180025095e-35 1.0000000180025095e-35 29.500000000000004 8.5000000000000018 7.5000000000000009 1.0000000180025095e-35
decision_type=2 2 2 2 2 2 2 2 2 2 2 2 2 2 2 2 2 2 2 2 2 2 2 2 2
left_child=1 2 6 18 15 10 8 -8 11 -10 14 12 -1 24 -3 -4 23 -13 19 20 -2 -18 -16 -9 -5
right_child=3 5 4 13 -6 -7 7 16 9 -11 -12 17 -14 -15 22 -17 21 -19 -20 -21 -22 -23 -24 -25 -26
leaf_value=-0.00031737179708785253 0.031632893396013155 -0.025577932392038233 0.0061483379579077577 0.013901063447450816 0.042039107469952347 -0.007289463253524516 -0.011341264800241139 -0.030845128801019063 -0.028571027962490843 -0.0089456385138118322 -0.044215326795756085 -0.016299836429954653 -0.012685062939634426 0.023689458036769893 -0.038922282197934532 0.01617723838735385 -0.024294970646181944 -0.0073682580963424244 0.045523788829371949 0.041998824468953644 0.041946134821404524 -0.01465991689113782 -0.031455853437767377 -0.022188274386746649 0.012879691694732093
leaf_weight=221 175 90 144 313 81 83 131 117 85 127 136 118 84 88 147 93 101 117 113 263 114 81 123 79 140
leaf_count=221 175 90 144 313 81 83 131 117 85 127 136 118 84 88 147 93 101 117 113 263 114 81 123 79 140
internal_value=0 -0.0142217 -0.00771341 0.0288112 0.0182233 -0.0319706 -0.0142542 -0.0206065 -0.0099545 -0.0168143 -0.0361007 -0.00726139 -0.00372356 0.015229 -0.0330352 0.0100837 -0.0238175 -0.0118531 0.0398609 0.0387016 0.0357011 -0.0200068 -0.0355209 -0.0273559 0.0135854
internal_weight=0 2158 1579 1206 318 579 1261 509 752 212 496 540 305 541 360 237 378 235 665 552 289 182 270 196 453
internal_count=3364 2158 1579 1206 318 579 1261 509 752 212 496 540 305 541 360 237 378 235 665 552 289 182 270 196 453
is_linear=0
shrinkage=0.1


Tree=2
num_leaves=25
num_cat=0
split_feature=5 4 8 4 5 4 20 18 4 9 4 8 5 11 8 9 5 5 4 9 5 5 16 11
split_gain=33.8047 40.4106 32.862 14.4871 14.1365 15.0465 8.62945 7.64137 4.00849 5.64028 2.76418 1.77346 1.8554 1.06651 0.855478 0.706142 0.571371 0.395206 0.348991 0.342247 0.128944 0.0918295 0.039702 0.0197517
threshold=1.0000000180025095e-35 1.0000000180025095e-35 1.0000000180025095e-35 592.50000000000011 536.50000000000011 246.50000000000003 1.0000000180025095e-35 1.0000000180025095e-35 2515.0000000000005 1.0000000180025095e-35 1208.5000000000002 1.0000000180025095e-35 1216.0000000000002 1.0000000180025095e-35 1.0000000180025095e-35 1.0000000180025095e-35 827.50000000000011 23.500000000000004 19.500000000000004 1.0000000180025095e-35 35.500000000000007 126.50000000000001 1.0000000180025095e-35 1.0000000180025095e-35
decision_type=2 2 2 2 2 2 2 2 2 2 2 2 2 2 2 2 2 2 2 2 2 2 2 2
left_child=1 2 7 15 5 14 -4 19 9 -5 -7 12 -6 -8 20 18 -13 -16 -3 -1 -2 -19 23 -21
right_child=4 3 6 8 11 10 13 -9 -10 -11 -12 16 -14 -15 17 -17 -18 21 -20 22 -22 -23 -24 -25
leaf_value=0.033551545801527714 -0.031794587511653226 -0.021108093932154279 -0.017551258257858703 0.0085480201265568777 -0.012472040542561104 -0.0086780208157057788 0.0064168068908314353 0.004647123193805911 0.016011010616064806 -0.026004970101377846 0.012777193016185809 0.0055328084825010436 0.0077845092445216818 0.016540675710516508 -0.030647384611309537 -0.037403066915495706 0.016680365337036755 -0.021441519339836686 -0.029487620900309892 0.036549242273764986 -0.037133488745369085 -0.02569595740197185 0.03964995486952836 0.038408433216679062
leaf_weight=295 75 78 159 102 104 146 576 88 118 88 102 112 80 127 147 81 78 89 137 124 114 118 120 106
leaf_count=295 75 78 159 102 104 146 576 88 118 88 102 112 80 127 147 81 78 89 137 124 114 118 120 106
internal_value=0 0.00838155 0.0167236 -0.0136476 -0.0126873 -0.0202618 0.00348735 0.0322893 0.00153493 -0.00745547 0.000146301 0.00333265 -0.00366485 0.00824573 -0.0295827 -0.0294456 0.0101092 -0.0266824 -0.0264476 0.0360606 -0.0350149 -0.0238668 0.0381754 0.0374061
internal_weight=0 2199 1595 604 1165 791 862 733 308 190 248 374 184 703 543 296 190 354 215 645 189 207 350 230
internal_count=3364 2199 1595 604 1165 791 862 733 308 190 248 374 184 703 543 296 190 354 215 645 189 207 350 230
is_linear=0
shrinkage=0.1


Tree=3
num_leaves=34
num_cat=0
split_feature=3 4 4 20 5 3 5 4 18 5 4 13 1 5 13 4 3 1 1 1 1 15 1 5 1 1 1 4 1 1 1 1 1
split_gain=68.4864 19.6367 12.0672 9.7713 9.71285 8.50521 6.74211 6.86358 6.32571 5.17113 4.59093 1.37267 1.06767 0.992633 0.871269 0.702224 0.607761 0.57196 0.55926 0.553836 0.477384 0.395765 0.469334 0.365237 0.303867 0.281284 0.24333 0.141395 0.110994 0.0573718 0.0421631 0.039703 7.32158e-05
threshold=1.0000000180025095e-35 1.0000000180025095e-35 2515.0000000000005 1.0000000180025095e-35 1.0000000180025095e-35 371.50000000000006 683.50000000000011 362.50000000000006 1.0000000180025095e-35 377.50000000000006 456.50000000000006 1.0000000180025095e-35 28.500000000000004 287.50000000000006 1.0000000180025095e-35 90.500000000000014 1192.5000000000002 30.500000000000004 31.500000000000004 33.500000000000007 24.500000000000004 1.0000000180025095e-35 16.500000000000004 26.500000000000004 4.5000000000000009 26.500000000000004 17.500000000000004 1.0000000180025095e-35 30.500000000000004 13.500000000000002 39.500000000000007 31.500000000000004 22.500000000000004
decision_type=2 2 2 2 2 2 2 2 2 2 2 2 2 2 2 2 2 2 2 2 2 2 2 2 2 2 2 2 2 2 2 2 2
left_child=1 3 9 4 8 6 7 13 21 10 28 20 -12 19 -7 16 23 24 -9 27 29 22 -1 -16 -13 -24 -26 -2 -3 -5 -27 -23 -28
right_child=5 2 -4 11 -6 14 -8 18 -10 -11 12 17 -14 -15 15 -17 -18 -19 -20 -21 -22 31 25 -25 26 30 32 -29 -30 -31 -32 -33 -34
leaf_value=0.035336844989553341 -0.032402135936375816 -0.025594809128533336 0.023020386459191772 0.014935387933366087 -0.0059499172017563407 -0.020342736026934833 0.01071706818391277 0.0043099473503387517 0.0052943884112194089 0.011415652826155524 0.0026167841970194498 0.012326289325128883 -0.012524696186021778 -0.014243233444272141 -0.033300698977338894 -0.021779050879668672 -0.038261027117946135 -0.0010964017486261534 -0.0061638801010108603 -0.01974077959614574 0.0082175482820409495 0.037128443992044395 0.024729789055784556 -0.024919497820484374 0.0012887217042484517 0.029328870078908106 0.0077510410790650229 -0.027013086133040716 -0.030482165077963665 0.018542535813751114 0.031999088870514523 0.03401306140391936 0.0078895029379136197
leaf_weight=128 101 104 127 75 95 113 118 100 107 79 85 85 103 79 105 78 113 112 104 76 92 90 138 103 91 154 78 94 84 107 96 75 75
leaf_count=128 101 104 127 75 95 113 118 100 107 79 85 85 103 79 105 78 113 112 104 76 92 90 138 103 91 154 78 94 84 107 96 75 75
internal_value=0 0.0114919 -0.00423463 0.0172196 0.0242562 -0.0183844 -0.0109863 -0.015609 0.0278978 -0.0118421 -0.0167287 0.00852969 -0.00567881 -0.0241067 -0.0280943 -0.0302896 -0.0323576 0.00507598 -0.00102965 -0.0269821 0.0140884 0.0314492 0.030086 -0.0291504 0.00717721 0.0283538 0.00538347 -0.0298043 -0.0277785 0.0170561 0.0303542 0.0357124 0.00781892
internal_weight=0 2180 582 1598 883 1184 672 554 788 455 376 715 188 350 512 399 321 441 204 271 274 681 516 208 329 388 244 195 188 182 250 165 153
internal_count=3364 2180 582 1598 883 1184 672 554 788 455 376 715 188 350 512 399 321 441 204 271 274 681 516 208 329 388 244 195 188 182 250 165 153
is_linear=0
shrinkage=0.1


Tree=4
num_leaves=34
num_cat=0
split_feature=0 4 1 7 20 7 3 22 4 18 7 7 4 3 22 22 1 7 13 22 1 7 1 22 1 1 1 1 1 1 22 1 1
split_gain=83.5197 14.1503 15.7313 12.2327 9.69617 4.88867 8.71033 3.54694 3.51757 3.42943 2.30181 1.46982 1.21399 1.03934 0.943689 0.933778 0.749373 0.73923 0.536745 0.33779 0.36456 0.31677 0.37453 0.286324 0.265995 0.527236 0.0490822 0.0964685 0.0966294 0.133444 0.0439846 0.0378461 0.00368248
threshold=1.0000000180025095e-35 665.00000000000011 12.500000000000002 716.50000000000011 1.0000000180025095e-35 101.50000000000001 351.50000000000006 1.0000000180025095e-35 2515.0000000000005 1.0000000180025095e-35 10.500000000000002 927.50000000000011 79.500000000000014 868.00000000000011 1.0000000180025095e-35 1.0000000180025095e-35 3.5000000000000004 628.50000000000011 1.0000000180025095e-35 1.0000000180025095e-35 26.500000000000004 1.5000000000000002 27.500000000000004 1.0000000180025095e-35 19.500000000000004 27.500000000000004 36.500000000000007 20.500000000000004 25.500000000000004 29.500000000000004 1.0000000180025095e-35 14.500000000000002 47.500000000000007
decision_type=2 2 2 2 2 2 2 2 2 2 2 2 2 2 2 2 2 2 2 2 2 2 2 2 2 2 2 2 2 2 2 2 2
left_child=1 2 16 8 9 6 12 24 10 26 -3 17 19 14 -8 -14 -1 23 -9 20 -4 22 -21 -7 -6 -26 27 31 -29 -30 -15 -2 -28
right_child=4 3 5 -5 7 11 13 18 -10 -11 -12 -13 15 30 -16 -17 -18 -19 -20 21 -22 -23 -24 -25 25 -27 32 28 29 -31 -32 -33 -34
leaf_value=0.022208308209985279 0.032337494094128866 0.014359475201258329 -0.011115556111244009 -0.023287474115352074 0.016478545089908904 -0.022461891468230844 -0.013264500962197903 0.0089281859448488033 0.026456484665577332 0.010485429217601906 -0.0060525291162505102 -0.035274475770762558 0.0082031812057240042 -0.032682426204094367 -0.02683491273329934 -0.0071721079897098389 0.0083363370863177751 -0.016464073702357831 -0.00011709681991779177 -0.010070573174200547 -0.0033897545826739386 -0.0071079216033101732 -0.020064305658226231 -0.029446475747957231 0.028763739776079929 0.017057458474648388 0.034589198850465332 0.027895463253628402 0.034685493565353664 0.029192365879041195 -0.029677646263537524 0.035349865722067705 0.033638723224415551
leaf_weight=75 77 134 116 121 120 107 90 116 132 79 94 139 79 95 119 79 81 113 151 75 129 75 75 130 75 79 88 76 96 82 100 91 76
leaf_count=75 77 134 116 121 120 107 90 116 132 79 94 139 79 95 119 79 81 113 151 75 129 75 75 130 75 79 88 76 96 82 100 91 76
internal_value=0 -0.0109002 -0.015237 0.00421976 0.0219564 -0.0183388 -0.0144362 0.0120152 0.0134652 0.0300439 0.005944 -0.0265748 -0.00706758 -0.0258905 -0.0209912 0.000515537 0.0150056 -0.0231197 0.00381269 -0.00961679 -0.00704769 -0.0124143 -0.0150674 -0.0262931 0.0200082 0.0227586 0.0326806 0.0321101 0.0308805 0.032155 -0.0311415 0.0339692 0.0341487
internal_weight=0 2158 1677 481 1206 1521 1032 541 360 665 228 489 628 404 209 158 156 350 267 470 245 225 150 237 274 154 586 422 254 178 195 168 164
internal_count=3364 2158 1677 481 1206 1521 1032 541 360 665 228 489 628 404 209 158 156 350 267 470 245 225 150 237 274 154 586 422 254 178 195 168 164
is_linear=0
shrinkage=0.1


Tree=5
num_leaves=34
num_cat=0
split_feature=0 6 3 5 9 1 9 6 9 5 6 6 6 3 12 3 5 5 5 1 1 6 3 1 1 1 1 1 1 1 1 1 1
split_gain=67.651 17.8818 17.9412 6.45842 5.27014 4.63024 2.95271 2.78612 2.78183 1.61358 1.08008 1.02738 0.994831 1.3905 0.791502 0.611533 0.431399 0.420462 0.331245 0.327857 0.356756 0.24075 0.189972 0.169643 0.116835 0.109741 0.101402 0.0833942 0.0551085 0.030027 0.0398161 0.0279926 0.0105245
threshold=1.0000000180025095e-35 258.50000000000006 351.50000000000006 689.50000000000011 1.0000000180025095e-35 7.5000000000000009 1.0000000180025095e-35 2524.0000000000005 1.0000000180025095e-35 1109.0000000000002 19.500000000000004 452.50000000000006 13.500000000000002 3.5000000000000004 1.0000000180025095e-35 1192.5000000000002 35.500000000000007 1.2500000000000002 22.500000000000004 21.500000000000004 8.5000000000000018 49.500000000000007 104.50000000000001 15.500000000000002 26.500000000000004 31.500000000000004 36.500000000000007 19.500000000000004 42.500000000000007 32.500000000000007 23.500000000000004 25.500000000000004 21.500000000000004
decision_type=2 2 2 2 2 2 2 2 2 2 2 2 2 2 2 2 2 2 2 2 2 2 2 2 2 2 2 2 2 2 2 2 2
left_child=1 2 3 5 14 -1 12 8 11 -5 15 -3 13 16 19 17 27 -4 24 20 -2 -14 -15 -22 -13 31 -8 -7 -27 30 -6 -21 -16
right_child=4 7 10 9 29 6 26 -9 -10 -11 -12 18 21 22 32 -17 -18 -19 -20 25 23 -23 -24 -25 -26 28 -28 -29 -30 -31 -32 -33 -34
leaf_value=0.018370406243481307 0.014979646829808988 -0.016503392618603417 -0.02626059776783847 0.01144807155404803 0.031269606479339344 4.9032286815459201e-05 0.0053774352424018059 -0.039933579511793847 -0.010150205633920353 0.029822059476971974 -0.011798970163408804 -0.034701879665379298 -0.017577514553988687 -0.0084492410570116243 0.0098666257478542338 -0.029537652704832079 0.0062351274876322211 -0.017444022578243769 -0.024359678074852016 0.014770105685033808 0.025687572412349837 -0.010129432417901955 -0.015112254890330494 0.019715254937818769 -0.029563344067125616 0.018257434663740187 0.010083035216013708 -0.0040929750720511693 0.014913923084874972 0.031510077048555712 0.028420856878315012 0.012366596702952712 0.0081913493059988848
leaf_weight=108 117 76 87 121 83 78 113 101 146 79 95 89 75 92 75 122 77 143 79 86 75 103 80 130 88 109 77 129 90 135 120 111 75
leaf_count=108 117 76 87 121 83 78 113 101 146 79 95 89 75 92 75 122 77 143 79 86 75 103 80 130 88 109 77 129 90 135 120 111 75
internal_value=0 -0.0098102 -0.00429796 0.00240034 0.0197608 -0.00109868 -0.00365046 -0.0248427 -0.0216541 0.0187058 -0.021261 -0.026713 -0.00692748 -0.00445258 0.0156357 -0.0238147 -0.000155156 -0.020779 -0.029744 0.0170159 0.0193856 -0.0132677 -0.0115483 0.0219003 -0.0321471 0.015089 0.00728444 -0.00253222 0.0167453 0.0303543 0.0295856 0.0134158 0.00902899
internal_weight=0 2158 1579 1132 1206 932 824 579 478 200 447 332 634 456 868 352 284 230 256 718 322 178 172 205 177 396 190 207 199 338 203 197 150
internal_count=3364 2158 1579 1132 1206 932 824 579 478 200 447 332 634 456 868 352 284 230 256 718 322 178 172 205 177 396 190 207 199 338 203 197 150
is_linear=0
shrinkage=0.1


Tree=6
num_leaves=35
num_cat=0
split_feature=7 9 7 5 5 10 19 9 10 1 5 1 1 5 5 1 7 12 1 5 7 20 1 1 1 1 5 1 7 15 1 1 7 1
split_gain=30.6463 19.7691 8.30708 5.18733 10.4192 9.94393 5.64717 4.19183 2.8654 1.90511 1.75797 1.09384 1.84823 1.05112 0.921376 0.862378 0.824289 0.773335 0.771091 0.606664 0.710965 0.523217 0.909042 0.438861 0.334331 0.266614 0.222913 0.213222 0.207804 0.168369 0.0910256 0.0606043 0.0301969 0.0274681
threshold=9.5000000000000018 1.0000000180025095e-35 990.50000000000011 1.0000000180025095e-35 670.50000000000011 1.0000000180025095e-35 1.0000000180025095e-35 1.0000000180025095e-35 1.0000000180025095e-35 17.500000000000004 1151.0000000000002 11.500000000000002 4.5000000000000009 361.00000000000006 46.500000000000007 45.500000000000007 291.50000000000006 1.0000000180025095e-35 22.500000000000004 4.5000000000000009 261.50000000000006 1.0000000180025095e-35 32.500000000000007 26.500000000000004 24.500000000000004 19.500000000000004 101.50000000000001 19.500000000000004 3170.0000000000005 1.0000000180025095e-35 37.500000000000007 35.500000000000007 1651.5000000000002 28.500000000000004
decision_type=2 2 2 2 2 2 2 2 2 2 2 2 2 2 2 2 2 2 2 2 2 2 2 2 2 2 2 2 2 2 2 2 2 2
left_child=1 3 7 5 8 9 -7 13 18 11 -6 12 -1 19 -10 17 -9 21 -5 23 -21 -11 24 -2 -23 -8 -20 -3 32 30 -29 -31 -4 -27
right_child=2 27 28 4 10 6 25 16 14 15 -12 -13 -14 -15 -16 -17 -18 -19 26 20 -22 22 -24 -25 -26 33 -28 29 -30 31 -32 -33 -34 -35
leaf_value=0.0085992084852955456 -0.0095890353422589999 0.028734434344747112 -0.028078881793840049 -0.014872719778563748 0.0047961850214463878 -0.0034171891249658798 0.030378959734275207 -0.0029079992791509156 -0.015706564206293301 -0.010171371663732963 0.023528836373427713 0.012563938024986851 -0.01041643198310771 -0.0052527239572243423 -0.030162019238908142 -0.013886033268283852 0.010538160237389562 0.0047865496035997164 -0.00057521731085655311 -0.014949551027215766 -0.027664364631070783 -0.0023894088844602151 0.0069683360873109834 -0.017682571207824915 -0.01067276791767449 0.025177196612997561 -0.0077928161933907367 0.022800478538275073 -0.035694996608072044 0.027416575365219589 0.018744245547876962 0.023511191499396272 -0.030768368880362967 0.022699749056185881
leaf_weight=126 135 77 84 103 120 86 91 106 75 120 86 129 86 100 107 78 80 111 92 90 86 118 77 133 83 78 80 149 77 81 88 78 83 105
leaf_count=126 135 77 84 103 120 86 91 106 75 120 86 129 86 100 107 78 80 111 92 90 86 118 77 133 83 78 80 149 77 81 88 78 83 105
internal_value=0 0.00557844 -0.0154233 0.00113183 -0.00605512 0.00483132 0.0189386 -0.0100841 -0.0144717 -0.000641338 0.0126166 0.00530333 0.000885316 -0.014515 -0.0242051 -0.00409471 0.0028753 -0.00259427 -0.00802995 -0.0166011 -0.0211625 -0.00465275 -0.0022706 -0.0136056 -0.0058099 0.0259554 -0.00393224 0.0239195 -0.0313972 0.0229833 0.0212944 0.0255007 -0.0294156 0.0237557
internal_weight=0 2424 974 1951 663 1288 360 730 457 928 206 341 212 544 182 587 186 509 275 444 176 398 278 268 201 274 172 473 244 396 237 159 167 183
internal_count=3398 2424 974 1951 663 1288 360 730 457 928 206 341 212 544 182 587 186 509 275 444 176 398 278 268 201 274 172 473 244 396 237 159 167 183
is_linear=0
shrinkage=0.1


Tree=7
num_leaves=23
num_cat=0
split_feature=4 9 4 11 9 4 18 4 16 12 4 4 20 12 20 4 4 4 4 15 16 11
split_gain=12.6533 20.0998 4.65959 2.96394 2.19503 2.55993 1.64825 1.15855 0.899383 0.650961 0.818774 0.647882 0.201468 0.849403 0.0806484 0.0682464 0.0633319 0.0392009 0.0135789 0.00803089 0.0120021 0.000167744
threshold=1.0000000180025095e-35 1.0000000180025095e-35 1312.5000000000002 1.0000000180025095e-35 1.0000000180025095e-35 509.50000000000006 1.0000000180025095e-35 4273.0000000000009 1.0000000180025095e-35 1.0000000180025095e-35 59.500000000000007 15.500000000000002 1.0000000180025095e-35 1.0000000180025095e-35 1.0000000180025095e-35 172.50000000000003 2344.5000000000005 762.00000000000011 3.5000000000000004 1.0000000180025095e-35 1.0000000180025095e-35 1.0000000180025095e-35
decision_type=2 2 2 2 2 2 2 2 2 2 2 2 2 2 2 2 2 2 2 2 2 2
left_child=1 3 4 6 5 9 12 16 -6 10 11 18 -1 -14 -5 -12 -4 -7 -2 20 -3 -21
right_child=2 19 7 14 8 17 -8 -9 -10 -11 15 -13 13 -15 -16 -17 -18 -19 -20 21 -22 -23
leaf_value=0.00024297217066766147 -0.013110804506976062 0.022987465467542087 2.7297484346638337e-05 0.0077312661533051694 -0.026743346473490939 0.0027462634817234585 -0.011570115351062456 0.011914960607866003 -0.01276134581850303 -0.004098817220397637 -0.011358029931781873 -0.024402420202891434 -0.0042188406449880601 0.0041903111914970764 0.011296819850894703 -0.0078468460850297551 -0.003697833253794457 -0.00025588431274663437 -0.014849475279147352 0.024818386408766577 0.024475630944149545 0.024623577846768434
leaf_weight=689 75 94 96 123 119 86 164 94 75 78 100 92 501 158 131 124 87 88 112 109 128 75
leaf_count=689 75 94 96 123 119 86 164 94 75 78 100 92 501 158 131 124 87 88 112 109 128 75
internal_value=0 0.00418731 -0.00851956 -0.00042516 -0.0118503 -0.00941236 -0.00210427 0.00289139 -0.0213379 -0.012599 -0.0139171 -0.0175322 -0.000952643 -0.00220269 0.00957019 -0.00941434 -0.00174367 0.00122794 -0.0141521 0.0242504 0.0238455 0.024739
internal_weight=0 2172 1226 1766 949 755 1512 277 194 581 503 279 1348 659 254 224 183 174 187 406 222 184
internal_count=3398 2172 1226 1766 949 755 1512 277 194 581 503 279 1348 659 254 224 183 174 187 406 222 184
is_linear=0
shrinkage=0.1


Tree=8
num_leaves=36
num_cat=0
split_feature=6 7 8 5 5 18 6 5 7 5 13 7 7 1 8 5 1 6 1 1 1 1 1 6 7 1 1 6 13 1 1 1 1 1 1
split_gain=31.4332 21.334 7.38199 11.9161 6.60321 2.97006 2.66727 2.24035 1.9282 1.62378 1.58481 1.36143 2.54228 1.31488 1.17926 0.814697 0.59268 0.452479 0.35526 0.465836 0.337763 0.333856 0.331737 0.271927 0.26938 0.177472 0.26645 0.0559506 0.0459324 0.0693312 0.315321 0.0682597 0.0417901 0.0376101 0.0130645
threshold=266.50000000000006 234.50000000000003 1.0000000180025095e-35 1.0000000180025095e-35 756.50000000000011 1.0000000180025095e-35 2875.0000000000005 643.50000000000011 1289.0000000000002 46.500000000000007 1.0000000180025095e-35 1.5000000000000002 728.50000000000011 44.500000000000007 1.0000000180025095e-35 4.5000000000000009 13.500000000000002 14.500000000000002 32.500000000000007 4.5000000000000009 12.500000000000002 18.500000000000004 23.500000000000004 769.50000000000011 705.50000000000011 19.500000000000004 34.500000000000007 562.00000000000011 1.0000000180025095e-35 34.500000000000007 42.500000000000007 27.500000000000004 13.500000000000002 23.500000000000004 31.500000000000004
decision_type=2 2 2 2 2 2 2 2 2 2 2 2 2 2 2 2 2 2 2 2 2 2 2 2 2 2 2 2 2 2 2 2 2 2 2
left_child=1 2 3 5 9 20 11 10 15 -5 16 23 14 17 -13 24 -4 18 19 -12 -1 32 -23 27 -3 -18 -27 -2 34 31 -31 33 -21 -30 -22
right_child=6 8 7 4 -6 -7 -8 -9 -10 -11 13 12 -14 -15 -16 -17 25 -19 -20 21 28 22 -24 -25 -26 26 -28 -29 29 30 -32 -33 -34 -35 -36
leaf_value=0.028575721613120404 -0.022983320815593639 -0.0046004352008140893 0.013822476720507912 -0.0032582944427053308 0.01758632598445567 0.0027740845342342293 -0.035836366940521218 0.014817893497652 -0.027388598271898948 -0.021980505325598323 0.0066119619824358301 0.0011383041009573045 -0.028100332094249076 -0.013569097390632605 -0.014040010488237033 -0.018466439876868839 0.00026624920965507691 -0.0073030370932063368 0.0066515061269154067 -0.0066348654216787069 0.02218864777905355 0.0044645494697607979 -0.0029101920497826383 -0.028292657360870967 -0.012495194221683784 0.0081939662034041221 0.0011373432044521807 -0.019145801433545162 0.022304446031127405 0.014684142601074182 0.023420098019894489 0.024516066976899172 -0.0034223722846378466 0.019351085294605736 0.023801807280542625
leaf_weight=80 77 102 84 79 99 86 98 137 118 112 85 91 83 80 117 126 79 75 92 82 112 123 121 80 75 154 82 75 98 75 92 81 80 77 91
leaf_count=80 77 102 84 79 99 86 98 137 118 112 85 91 83 80 117 126 79 75 92 82 112 123 121 80 75 154 82 75 98 75 92 81 80 77 91
internal_value=0 0.00419061 0.00789573 0.0139697 -0.00337302 0.0203199 -0.0206964 0.00273718 -0.016544 -0.0142368 0.00128154 -0.0178594 -0.0133039 -0.00146361 -0.0073995 -0.0123206 0.00635903 8.18406e-06 0.000948736 -0.000119808 0.0224572 -0.00152917 0.000807403 -0.0235736 -0.00794567 0.00436878 0.00574209 -0.0210898 0.0216753 0.0210819 0.0194968 0.0221159 -0.00504845 0.021005 0.0229118
internal_weight=0 2777 2356 1082 290 792 621 1274 421 191 1137 523 291 738 208 303 399 658 583 491 706 406 244 232 177 315 236 152 626 423 167 256 162 175 203
internal_count=3398 2777 2356 1082 290 792 621 1274 421 191 1137 523 291 738 208 303 399 658 583 491 706 406 244 232 177 315 236 152 626 423 167 256 162 175 203
is_linear=0
shrinkage=0.1


Tree=9
num_leaves=35
num_cat=0
split_feature=3 4 9 3 4 19 11 9 4 12 3 1 1 3 1 4 1 1 1 4 4 1 1 1 3 1 1 1 1 1 1 1 1 1
split_gain=22.4544 8.09278 8.59316 2.74548 2.707 2.49576 2.29757 1.92427 2.22743 0.90258 0.833232 0.807339 0.791919 0.601752 0.589798 0.425147 0.346235 0.284491 0.262597 0.25862 0.289502 0.250511 0.20148 0.174491 0.457379 0.168871 0.616319 0.143911 0.124434 0.0393386 0.0286719 0.01396 0.0191511 0.00272154
threshold=340.00000000000006 1.0000000180025095e-35 1.0000000180025095e-35 22.500000000000004 2515.0000000000005 1.0000000180025095e-35 1.0000000180025095e-35 1.0000000180025095e-35 509.50000000000006 1.0000000180025095e-35 725.50000000000011 13.500000000000002 17.500000000000004 97.500000000000014 31.500000000000004 175.50000000000003 40.500000000000007 28.500000000000004 34.500000000000007 6.5000000000000009 49.500000000000007 9.5000000000000018 21.500000000000004 25.500000000000004 1382.5000000000002 27.500000000000004 36.500000000000007 33.500000000000007 22.500000000000004 28.500000000000004 22.500000000000004 23.500000000000004 29.500000000000004 46.500000000000007
decision_type=2 2 2 2 2 2 2 2 2 2 2 2 2 2 2 2 2 2 2 2 2 2 2 2 2 2 2 2 2 2 2 2 2 2
left_child=1 2 3 5 7 6 9 8 13 12 18 -7 21 15 -9 19 22 -10 -2 -3 -21 -1 -13 -12 -25 28 -27 -6 -14 -24 -11 -4 -33 -34
right_child=10 4 31 -5 27 11 -8 14 17 30 23 16 25 -15 -16 -17 -18 -19 -20 20 -22 -23 29 24 -26 26 -28 -29 -30 -31 -32 32 33 -35
leaf_value=-9.8525961773544103e-05 -0.016654418408457574 -0.0070332173995931932 0.021021660690658223 -0.0093318426183073618 0.011052696652983106 0.020564964493605977 0.013664922056088208 -0.0077537554734560827 0.0091635997749315336 0.0049710797767223303 -0.019108520935089607 0.011542430832774781 -0.0044444801871819165 0.00074905282695626545 -0.017970277602224704 -0.0031573634166129159 0.014905069850058733 0.001146502106690032 -0.0091234628977214707 -0.017865231458939496 -0.0093571800389870789 0.0070295229901872272 0.0070953914419209958 -0.019612383980503384 -0.028972715821944234 0.0038802738824456279 -0.0077846506475933962 0.004978146046185474 -0.0098056493373449502 0.0042711225560245029 0.007636893837709921 0.018631318042470726 0.020592390657072406 0.019821405160134115
leaf_weight=126 121 93 102 149 78 75 139 93 108 86 134 87 81 75 144 88 82 75 75 81 79 81 105 119 93 77 110 78 93 93 76 112 113 77
leaf_count=126 121 93 102 149 78 75 139 93 108 86 134 87 81 75 144 88 82 75 75 81 79 81 105 119 93 77 110 78 93 93 76 112 113 77
internal_value=0 0.00321944 0.00710275 0.00353111 -0.00407744 0.00499304 0.00188131 -0.006334 -0.0033162 -0.000362418 -0.0189821 0.0111109 -0.00224028 -0.00736072 -0.0139613 -0.00914439 0.00917885 0.0058779 -0.0137727 -0.0112268 -0.0136644 0.00269071 0.00753131 -0.0219332 -0.0237186 -0.00506775 -0.00298145 0.00801542 -0.00730993 0.00576884 0.00622171 0.0200102 0.0196685 0.0202799
internal_weight=0 2856 1864 1460 992 1311 869 836 599 730 542 442 568 416 237 341 367 183 196 253 160 207 285 346 212 361 187 156 174 198 162 404 302 190
internal_count=3398 2856 1864 1460 992 1311 869 836 599 730 542 442 568 416 237 341 367 183 196 253 160 207 285 346 212 361 187 156 174 198 162 404 302 190
is_linear=0
shrinkage=0.1


Tree=10
num_leaves=31
num_cat=0
split_feature=3 8 19 19 3 1 1 1 1 3 1 1 1 1 1 1 1 1 1 1 1 1 1 8 19 1 1 3 1 1
split_gain=18.1881 8.71993 4.17541 2.01339 1.82417 1.61004 0.896624 1.32071 0.837289 0.674918 0.552729 0.550917 0.298173 1.02866 0.901178 0.579861 0.222049 0.711398 0.212704 0.197083 0.528194 0.3008 0.173302 0.161461 0.18705 0.152729 0.121763 0.112682 0.0554846 0.00173357
threshold=340.00000000000006 1.0000000180025095e-35 1.0000000180025095e-35 1.0000000180025095e-35 1.0000000180025095e-35 23.500000000000004 27.500000000000004 36.500000000000007 18.500000000000004 725.50000000000011 21.500000000000004 20.500000000000004 11.500000000000002 17.500000000000004 4.5000000000000009 20.500000000000004 29.500000000000004 39.500000000000007 34.500000000000007 42.500000000000007 29.500000000000004 23.500000000000004 45.500000000000007 1.0000000180025095e-35 1.0000000180025095e-35 26.500000000000004 37.500000000000007 14.500000000000002 52.500000000000007 34.500000000000007
decision_type=2 2 2 2 2 2 2 2 2 2 2 2 2 2 2 2 2 2 2 2 2 2 2 2 2 2 2 2 2 2
left_child=1 2 4 5 8 12 -7 -8 -1 18 -4 -5 14 -14 -3 -15 25 29 -2 20 21 -13 -9 24 -11 -10 -12 -6 -19 -18
right_child=9 3 10 11 27 6 7 22 16 23 26 19 13 15 -16 -17 17 28 -20 -21 -22 -23 -24 -25 -26 -27 -28 -29 -30 -31
leaf_value=0.017028528407430001 -0.01498897681181331 0.0065757130119982457 0.024063927743028242 -0.0017859777190565561 -0.0065594480486816419 -0.010646945851159292 0.0058214037507278195 -0.003507220548734322 0.0067731839429956715 -0.018932781563169247 0.013749277791951516 -0.0115207001645318 0.012817176671113668 -0.0032358568714331739 -0.0069091742302084414 0.0068951976373651212 0.00078549698382461997 0.0076533332122869242 -0.0082111169641781029 -0.0047659309457902992 -0.015959793365817224 -0.0037079583090844064 -0.0093240154566558587 -0.016511339120749025 -0.024659827150907133 0.011802266592637075 0.018483956583396334 -0.0014053815202729062 0.010916093354504752 0.00016664088756302635
leaf_weight=86 121 123 118 149 76 133 158 105 144 145 137 88 135 114 83 112 106 130 75 88 103 112 100 107 94 104 90 96 87 79
leaf_count=86 121 123 118 149 76 133 158 105 144 145 137 88 135 114 83 112 106 130 75 88 103 112 100 107 94 104 90 96 87 79
internal_value=0 0.00289749 0.00914733 -0.00198775 0.00558905 0.000538215 -0.00362283 -0.00104925 0.00775583 -0.0170839 0.0185123 -0.00696016 0.00417821 0.00591051 0.00114248 0.00178484 0.00652898 0.00507727 -0.0123954 -0.0089319 -0.0101418 -0.00714557 -0.00634468 -0.0197399 -0.0211853 0.00888215 0.0156265 -0.00368276 0.00896145 0.000521229
internal_weight=0 2856 1253 1603 908 1063 496 363 736 542 345 540 567 361 206 226 650 402 196 391 303 200 205 346 239 248 227 172 217 185
internal_count=3398 2856 1253 1603 908 1063 496 363 736 542 345 540 567 361 206 226 650 402 196 391 303 200 205 346 239 248 227 172 217 185
is_linear=0
shrinkage=0.1


Tree=11
num_leaves=23
num_cat=0
split_feature=5 5 5 22 11 15 19 9 12 22 5 5 5 5 5 9 13 20 12 20 19 9
split_gain=4.09328 7.95281 2.48709 2.1693 1.87578 1.35991 1.026 0.714031 0.814096 0.637457 0.370184 0.293421 0.478257 0.273196 0.274982 0.164454 0.162353 0.145665 0.0727039 0.0344216 0.0185792 0.00285324
threshold=5.5000000000000009 536.50000000000011 1109.0000000000002 1.0000000180025095e-35 1.0000000180025095e-35 1.0000000180025095e-35 1.0000000180025095e-35 1.0000000180025095e-35 1.0000000180025095e-35 1.0000000180025095e-35 806.50000000000011 51.500000000000007 197.50000000000003 53.500000000000007 156.00000000000003 1.0000000180025095e-35 1.0000000180025095e-35 1.0000000180025095e-35 1.0000000180025095e-35 1.0000000180025095e-35 1.0000000180025095e-35 1.0000000180025095e-35
decision_type=2 2 2 2 2 2 2 2 2 2 2 2 2 2 2 2 2 2 2 2 2 2
left_child=3 9 10 5 6 15 7 8 17 13 -3 -11 -13 -2 -15 18 -17 -5 19 20 -1 -6
right_child=1 2 -4 4 21 -7 -8 -9 -10 11 -12 12 -14 14 -16 16 -18 -19 -20 -21 -22 -23
leaf_value=0.00079674773732624346 -0.013344930484638935 0.0026973281037060773 0.016419273638679569 -0.013587973538227507 0.0068578175995093575 0.013925566280146282 0.001804467187918166 -0.00037685198210012197 0.00090621484996094486 -0.012158430133314628 -0.0053013643028770483 -0.024055060832899457 -0.013852543822451525 -0.0025019067458524678 -0.0103544690999148 0.002958128947399415 0.0081162749946934367 -0.0087755880499076431 0.0053398231907386172 0.0033837520860888932 0.002386517693222112 0.0061758127950736468
leaf_weight=95 117 148 137 82 108 145 272 187 87 118 95 85 100 75 110 107 142 270 114 337 325 142
leaf_count=95 117 148 137 82 108 145 272 187 87 118 95 85 100 75 110 107 142 270 114 337 325 142
internal_value=0 -0.005693 0.00564478 0.00195681 -0.00119062 0.00481313 -0.00332343 -0.00555152 -0.00775577 -0.0128143 -0.000429733 -0.0160549 -0.0185402 -0.00956289 -0.007171 0.0036334 0.00589972 -0.00989666 0.0029855 0.00263096 0.00202693 0.00647044
internal_weight=0 985 380 2413 1148 1265 898 626 439 605 243 303 185 302 185 1120 249 352 871 757 420 250
internal_count=3398 985 380 2413 1148 1265 898 626 439 605 243 303 185 302 185 1120 249 352 871 757 420 250
is_linear=0
shrinkage=0.1


Tree=12
num_leaves=23
num_cat=0
split_feature=6 3 7 4 4 5 7 6 4 10 11 6 7 4 15 4 6 6 3 5 6 15
split_gain=22.459 18.3971 20.1057 4.10766 3.84422 2.334 4.5599 1.65088 1.95118 1.38794 0.933819 0.876708 0.726995 0.665042 0.464338 0.404081 0.371824 0.355228 0.282223 0.272976 0.24987 0.0801981
threshold=258.50000000000006 413.00000000000006 168.50000000000003 1301.5000000000002 809.50000000000011 840.50000000000011 2.5000000000000004 2524.0000000000005 1301.5000000000002 1.0000000180025095e-35 1.0000000180025095e-35 1.5000000000000002 827.50000000000011 12.500000000000002 1.0000000180025095e-35 1.0000000180025095e-35 571.00000000000011 732.50000000000011 1042.5000000000002 21.500000000000004 2.5000000000000004 1.0000000180025095e-35
decision_type=2 2 2 2 2 2 2 2 2 2 2 2 2 2 2 2 2 2 2 2 2 2
left_child=1 2 3 5 12 6 9 8 15 10 13 19 20 14 -1 17 -17 -2 -13 -3 -4 -12
right_child=7 11 4 -5 -6 -7 -8 -9 -10 -11 21 18 -14 -15 -16 16 -18 -19 -20 -21 -22 -23
leaf_value=0.004998787577050523 -0.018838194768359521 -0.022512458226753834 -0.018949708037595589 0.032269713908676452 0.0042496909435105227 0.022597034738401221 -0.0087218876130851723 -0.029907415031411168 -0.0015198565811352341 0.015743163950920496 0.012204644173040353 -0.0072200519069388546 -0.025915764869251585 0.01412300722394912 0.012300593520290892 -0.01047837209452704 -0.01901025326783164 -0.027618977180191746 -0.014982354263997678 -0.016173816701200997 -0.011618638495690869 0.015912415910236406
leaf_weight=724 117 132 111 82 86 125 142 108 76 331 251 113 116 111 99 78 148 76 80 140 80 76
leaf_count=724 117 132 111 82 86 125 142 108 76 331 251 113 116 111 99 78 148 76 80 140 80 76
internal_value=0 0.00257105 0.00618972 0.010366 -0.0144368 0.00939987 0.00844851 -0.0187056 -0.0162615 0.00998005 0.00846728 -0.0155923 -0.0196715 0.0068571 0.00587713 -0.0189354 -0.0160656 -0.0222959 -0.0104376 -0.0192499 -0.0158791 0.0130664
internal_weight=0 2799 2334 1941 393 1859 1734 603 495 1592 1261 465 307 934 823 419 226 193 193 272 191 327
internal_count=3402 2799 2334 1941 393 1859 1734 603 495 1592 1261 465 307 934 823 419 226 193 193 272 191 327
is_linear=0
shrinkage=0.1


Tree=13
num_leaves=27
num_cat=0
split_feature=3 8 4 4 4 22 5 5 4 22 3 3 13 3 5 5 4 3 4 15 13 13 16 22 3 12
split_gain=14.0592 4.98879 6.91506 3.34731 3.20015 3.1807 1.72667 0.964203 0.767497 0.672703 0.861925 0.537027 0.51337 0.454219 0.405066 0.327853 0.536762 0.438302 0.240146 0.170828 0.122719 0.121952 0.0739864 0.0621513 0.0400281 0.00306249
threshold=1.0000000180025095e-35 1.0000000180025095e-35 5.5000000000000009 1830.5000000000002 709.50000000000011 1.0000000180025095e-35 1109.0000000000002 92.500000000000014 6.5000000000000009 1.0000000180025095e-35 819.50000000000011 29.500000000000004 1.0000000180025095e-35 42.500000000000007 4.5000000000000009 2.5000000000000004 10.500000000000002 770.50000000000011 8.5000000000000018 1.0000000180025095e-35 1.0000000180025095e-35 1.0000000180025095e-35 1.0000000180025095e-35 1.0000000180025095e-35 390.50000000000006 1.0000000180025095e-35
decision_type=2 2 2 2 2 2 2 2 2 2 2 2 2 2 2 2 2 2 2 2 2 2 2 2 2 2
left_child=1 2 19 -4 6 7 9 8 21 10 11 -2 25 -6 -14 24 17 -17 -13 22 -21 -3 23 -1 -11 -7
right_child=4 5 3 -5 13 12 -8 -9 -10 15 -12 18 14 -15 -16 16 -18 -19 -20 20 -22 -23 -24 -25 -26 -27
leaf_value=0.01538100236988884 -0.013602743372955931 0.0064430308515709567 -0.015698566488933672 0.0063669559332457165 0.0084864485136856137 -0.0013604384171854115 0.0011585780105139558 0.013052558784189176 -0.0061257131125351406 -0.017466078879675172 -0.017468316760248178 -0.0074312675467617982 -0.0062958002393753961 -0.0018512336101186946 -0.013802961553498614 -0.019426871062741297 -0.0064426110439950099 -0.010107911068838843 -0.00066911662513415265 0.014334414316517394 0.0090569118090316168 0.0029475368203219247 0.016868055578896601 0.012917133994712683 -0.020369663817206951 -0.0021705297599448029
leaf_weight=212 105 157 137 138 79 84 93 104 86 93 124 143 286 92 96 143 77 78 83 77 103 274 138 198 97 105
leaf_count=212 105 157 137 138 79 84 93 104 86 93 124 143 286 92 96 143 77 78 83 77 103 274 138 198 97 105
internal_value=0 0.00368687 0.00888405 -0.00462569 -0.00974934 -0.000686267 -0.0118413 0.00426705 0.00249975 -0.0131233 -0.0103573 -0.00769334 -0.00607332 0.00292465 -0.00818242 -0.0157023 -0.0136327 -0.0161378 -0.00494782 0.0139873 0.0113145 0.00422084 0.0148653 0.0141911 -0.0189484 -0.00181049
internal_weight=0 2195 1003 275 1207 1192 1036 621 517 943 455 331 571 171 382 488 298 221 226 728 180 431 548 410 190 189
internal_count=3402 2195 1003 275 1207 1192 1036 621 517 943 455 331 571 171 382 488 298 221 226 728 180 431 548 410 190 189
is_linear=0
shrinkage=0.1


Tree=14
num_leaves=35
num_cat=0
split_feature=6 3 7 9 5 9 6 6 9 6 7 5 5 18 1 1 1 1 1 1 1 1 6 6 3 13 1 15 1 1 1 1 1 1
split_gain=16.9666 12.6992 14.8164 2.79531 2.69342 2.2698 1.74495 1.39498 1.02465 0.692828 0.685961 0.655104 0.592333 0.573699 0.43701 0.422958 0.835215 0.517884 0.461575 0.66473 0.394335 0.380623 0.28387 0.246305 0.243406 0.186079 0.134688 0.124946 0.123903 0.107898 0.0809532 0.0580523 0.00558921 0.000722699
threshold=258.50000000000006 413.00000000000006 168.50000000000003 1.0000000180025095e-35 1109.0000000000002 1.0000000180025095e-35 36.500000000000007 1448.0000000000002 1.0000000180025095e-35 1.5000000000000002 559.50000000000011 653.50000000000011 7.5000000000000009 1.0000000180025095e-35 24.500000000000004 11.500000000000002 5.5000000000000009 21.500000000000004 33.500000000000007 42.500000000000007 30.500000000000004 38.500000000000007 641.50000000000011 3214.0000000000005 990.00000000000011 1.0000000180025095e-35 16.500000000000004 1.0000000180025095e-35 1.5000000000000002 25.500000000000004 26.500000000000004 32.500000000000007 25.500000000000004 37.500000000000007
decision_type=2 2 2 2 2 2 2 2 2 2 2 2 2 2 2 2 2 2 2 2 2 2 2 2 2 2 2 2 2 2 2 2 2 2
left_child=1 2 4 10 5 6 11 8 21 14 -4 12 13 15 -3 16 28 26 25 -20 -11 22 -2 -9 -16 -19 -17 30 -1 -12 -7 -29 -27 -32
right_child=7 9 3 -5 -6 27 -8 23 -10 20 29 -13 -14 -15 24 17 -18 18 19 -21 -22 -23 -24 -25 -26 32 -28 31 -30 -31 33 -33 -34 -35
leaf_value=0.01068620250956691 -0.014736436816384646 -0.010902209729041268 -0.011374250285862857 0.00055879029729837362 0.0273505098122441 0.013620256839803384 -0.007033892229820083 -0.020022077033141794 -0.004298454769318805 -0.0038436168132175682 -0.024136160436115838 0.014453283095465336 -0.00060843007912499809 -0.00090204133446860246 -0.015210102988070857 0.015050016943750764 -0.0038260518128777708 0.008332962249841298 0.015629067566820722 0.0046690382586890376 -0.012889888955201788 -0.010072323559760508 -0.021631979299041371 -0.027505894247108954 -0.022806817036571697 0.0032825890741989858 0.010549142575894861 0.014036668116542484 0.0054143134708280636 -0.019154448901018684 0.017497513853050373 0.010470755586931236 0.0021836345523042889 0.017066772322730555
leaf_weight=95 132 103 102 117 76 98 93 90 101 100 89 112 108 82 81 117 85 81 117 105 93 85 109 86 88 77 154 103 84 85 80 82 116 76
leaf_count=95 132 103 102 117 76 98 93 90 101 100 89 112 108 82 81 117 85 81 117 105 93 85 109 86 88 77 154 103 84 85 80 82 116 76
internal_value=0 0.00230568 0.00531219 -0.0123945 0.00889732 0.00814534 0.00620969 -0.0161872 -0.0130993 -0.0127851 -0.0178856 0.00713366 0.00646224 0.00714835 -0.0160366 0.00778863 0.00433628 0.00897693 0.00705621 0.0104453 -0.0082027 -0.0158259 -0.0178552 -0.0236789 -0.0191658 0.00431033 0.0124923 0.0144329 0.00821224 -0.0217026 0.0158727 0.0124561 0.00262208 0.0172877
internal_weight=0 2799 2334 393 1941 1865 1426 603 427 465 276 1333 1221 1113 272 1031 264 767 496 222 193 326 241 176 169 274 271 439 179 174 254 185 193 156
internal_count=3402 2799 2334 393 1941 1865 1426 603 427 465 276 1333 1221 1113 272 1031 264 767 496 222 193 326 241 176 169 274 271 439 179 174 254 185 193 156
is_linear=0
shrinkage=0.1


Tree=15
num_leaves=34
num_cat=0
split_feature=0 6 4 7 8 7 4 1 7 7 6 6 4 4 1 1 6 7 7 8 1 7 6 1 4 1 1 7 1 1 1 1 1
split_gain=15.8301 6.59557 7.28159 6.13731 2.7701 2.74343 1.6985 2.13315 1.21113 0.902856 0.822789 0.794992 0.817594 0.718953 0.66981 0.595168 0.48872 0.541836 0.543112 0.653508 0.761136 0.38233 0.364259 0.208572 0.123932 0.0926328 0.0867959 0.0810999 0.0389039 0.0198871 0.037194 0.0433385 0.010194
threshold=1.0000000180025095e-35 452.50000000000006 1658.0000000000002 130.50000000000003 1.0000000180025095e-35 240.50000000000003 110.50000000000001 12.500000000000002 1.0000000180025095e-35 838.00000000000011 2.5000000000000004 2524.0000000000005 805.50000000000011 604.50000000000011 21.500000000000004 12.500000000000002 131.50000000000003 25.500000000000004 2.5000000000000004 1.0000000180025095e-35 27.500000000000004 3.5000000000000004 1.0000000180025095e-35 31.500000000000004 1.5000000000000002 16.500000000000004 25.500000000000004 1610.0000000000002 44.500000000000007 15.500000000000002 22.500000000000004 26.500000000000004 30.500000000000004
decision_type=2 2 2 2 2 2 2 2 2 2 2 2 2 2 2 2 2 2 2 2 2 2 2 2 2 2 2 2 2 2 2 2 2
left_child=1 2 3 6 28 -4 7 -1 13 10 -5 12 21 -8 15 -6 17 18 19 22 -21 24 -9 26 -3 -17 -16 -11 29 -2 -31 -32 -33
right_child=4 11 5 9 14 -7 8 16 -10 27 -12 -13 -14 -15 23 25 -18 -19 -20 20 -22 -23 -24 -25 -26 -27 -28 -29 -30 30 31 32 -34
leaf_value=0.0070108011003157987 0.011228254620747332 -0.022177706689143262 0.030881457691158146 -0.016845739119395946 0.0010637754591052062 0.0043589673385781786 0.017541957445757869 -0.010861511708000053 -0.0033876695020188066 -0.019175867204235687 -0.0058196439536274394 -0.023779426337924792 -0.0047041673433177323 0.0046872332853353776 -0.00015863120153163329 0.01302215830961638 -0.012330221583692205 0.0030183263082543023 -0.012334588788878201 0.0048750035128036998 -0.0070983022648012754 -0.01242268485745384 -0.0023731753107975951 0.0028588429461879001 -0.016664978251384629 0.0083767027956944875 -0.0049537647809458725 -0.023781396143436228 0.014906639939929807 0.014644263569491925 0.010463948105330953 0.013873539549064055 0.012599036463144262
leaf_weight=162 75 88 78 149 109 78 81 151 95 78 124 108 75 94 75 79 96 80 103 122 94 134 76 133 76 94 76 75 98 104 81 105 156
leaf_count=162 75 88 78 149 109 78 81 151 95 78 124 108 75 94 75 79 96 80 103 122 94 134 76 133 76 94 76 75 98 104 81 105 156
internal_value=0 -0.00586209 -0.00299104 -0.00502607 0.00845543 0.0176202 -0.00123936 -0.0033596 0.00570248 -0.015284 -0.0118375 -0.0162241 -0.0140365 0.0106371 0.00339921 0.00685146 -0.00568648 -0.00466763 -0.00579378 -0.004273 -0.000335602 -0.0163853 -0.0080196 -2.87232e-05 -0.019623 0.010498 -0.00257208 -0.0214335 0.0130787 0.0127349 0.0129882 0.0124847 0.0131118
internal_weight=0 2217 1736 1580 1185 156 1154 884 270 426 273 481 373 175 566 282 722 626 546 443 216 298 227 284 164 173 151 153 619 521 446 342 261
internal_count=3402 2217 1736 1580 1185 156 1154 884 270 426 273 481 373 175 566 282 722 626 546 443 216 298 227 284 164 173 151 153 619 521 446 342 261
is_linear=0
shrinkage=0.1


Tree=16
num_leaves=36
num_cat=0
split_feature=6 3 22 4 6 16 6 6 4 3 19 1 1 6 1 1 22 3 1 4 19 1 1 4 1 1 3 1 1 1 4 1 1 1 1
split_gain=11.1728 9.26973 3.22634 2.35931 2.41426 1.65431 1.05762 0.973455 0.830372 0.716896 1.00712 0.816898 1.21495 0.613976 0.353534 0.345681 0.249011 0.470905 0.21797 0.216631 0.203939 0.207157 0.276289 0.201638 0.193747 0.16331 0.257509 0.162449 0.146652 0.139706 0.09151 0.06434 0.166065 0.00231666 0.00204368
threshold=258.50000000000006 413.00000000000006 1.0000000180025095e-35 771.00000000000011 8.5000000000000018 1.0000000180025095e-35 5.5000000000000009 1448.0000000000002 66.000000000000014 48.500000000000007 1.0000000180025095e-35 10.500000000000002 18.500000000000004 58.500000000000007 19.500000000000004 41.500000000000007 1.0000000180025095e-35 1042.5000000000002 47.500000000000007 837.50000000000011 1.0000000180025095e-35 24.500000000000004 19.500000000000004 9.5000000000000018 33.500000000000007 37.500000000000007 7.5000000000000009 24.500000000000004 24.500000000000004 5.5000000000000009 790.50000000000011 30.500000000000004 24.500000000000004 27.500000000000004 14.500000000000002
decision_type=2 2 2 2 2 2 2 2 2 2 2 2 2 2 2 2 2 2 2 2 2 2 2 2 2 2 2 2 2 2 2 2 2 2 2
left_child=1 2 3 4 18 6 9 8 25 10 11 -4 -13 16 -12 31 17 -3 20 -9 21 22 29 -8 33 26 -2 -22 -18 -1 -10 32 -14 -23 -31
right_child=7 13 5 -5 -6 -7 23 19 30 -11 14 12 15 -15 -16 -17 28 -19 -20 -21 27 24 -24 -25 -26 -27 -28 -29 -30 34 -32 -33 -34 -35 -36
leaf_value=0.010005797162168185 -0.019089447426973691 -0.0041069793644287651 -0.0095515311289337563 0.021162188094449808 -0.0063490942041751807 0.013589338111431518 -0.011751976992256977 -0.01636934502303981 -0.0071851593339395739 -0.0083975341019462656 0.012311769022489052 0.01135124534800765 -0.0050841757532266033 -0.0027997209611634773 0.0042587519776730092 0.0043352922902017725 -0.011392693138894856 -0.014632832041314534 0.01270410051026212 -0.023463917595925254 0.0078181454432558594 0.0020907731049337381 0.012720963575585609 -0.0047661226772693424 0.0077332252769749549 -0.0098928479719365119 -0.011873497910803506 0.012990974716425069 -0.016803496970216637 0.0052737634533817496 -0.0023081838045526824 -0.005587077686269995 0.00072448165857363911 0.0028485356182305407 0.004571956176238459
leaf_weight=80 96 79 87 122 129 89 75 101 75 77 85 91 101 76 152 77 78 92 97 75 134 76 104 92 125 75 102 111 140 82 79 82 96 86 84
leaf_count=80 96 79 87 122 129 89 75 101 75 77 85 91 101 76 152 77 78 92 97 75 134 76 104 92 125 75 102 111 140 82 79 82 96 86 84
internal_value=0 0.00187248 0.00444115 0.00796353 0.00651025 0.000516753 -0.000629513 -0.0131343 -0.0105548 0.000802979 0.00172184 -0.000685944 0.00103957 -0.0110206 0.00714697 -0.00159628 -0.0126267 -0.00977001 0.00820469 -0.0193926 0.00770986 0.00676682 0.00839982 -0.00790348 0.00477535 -0.0138668 -0.0153721 0.0101618 -0.0148675 0.006573 -0.00468333 -0.0032333 -0.00225356 0.00249304 0.00491863
internal_weight=0 2799 2334 1230 1108 1104 1015 603 427 848 771 534 447 465 237 356 389 171 979 176 882 637 350 167 287 273 198 245 218 246 154 279 197 162 166
internal_count=3402 2799 2334 1230 1108 1104 1015 603 427 848 771 534 447 465 237 356 389 171 979 176 882 637 350 167 287 273 198 245 218 246 154 279 197 162 166
is_linear=0
shrinkage=0.1


Tree=17
num_leaves=26
num_cat=0
split_feature=7 3 22 7 19 5 7 7 19 11 5 7 13 7 22 3 3 18 5 13 19 5 7 11 13
split_gain=9.77962 8.74267 1.98338 1.95032 1.6382 1.05954 0.911877 0.733198 0.652958 1.14524 0.959918 0.575193 0.555021 0.549033 0.411212 0.796797 0.376316 0.336604 0.197144 0.189829 0.306551 0.17443 0.157764 0.0696222 0.0464775
threshold=130.50000000000003 230.00000000000003 1.0000000180025095e-35 2312.0000000000005 1.0000000180025095e-35 689.50000000000011 9.5000000000000018 1.0000000180025095e-35 1.0000000180025095e-35 1.0000000180025095e-35 17.500000000000004 874.00000000000011 1.0000000180025095e-35 291.50000000000006 1.0000000180025095e-35 1172.5000000000002 701.50000000000011 1.0000000180025095e-35 1.0000000180025095e-35 1.0000000180025095e-35 1.0000000180025095e-35 1.0000000180025095e-35 573.00000000000011 1.0000000180025095e-35 1.0000000180025095e-35
decision_type=2 2 2 2 2 2 2 2 2 2 2 2 2 2 2 2 2 2 2 2 2 2 2 2 2
left_child=1 2 5 4 11 7 8 17 9 24 -10 13 -3 -2 15 -14 -16 19 -6 23 -21 -9 -15 -1 -4
right_child=3 12 6 -5 18 -7 -8 21 10 -11 -12 -13 14 22 16 -17 -18 -19 -20 20 -22 -23 -24 -25 -26
leaf_value=0.0038173061496642557 -0.0094763729873326881 -0.0028498384710291492 0.00065205430111365658 -0.024242217280507496 -0.013026775530549909 0.01650062364313698 -0.007027776697737147 0.0033941751554620956 0.010504379131794505 0.0088432933298990424 -0.0027314306949026124 -0.01109790355586486 -0.0024631062847222801 0.0035866708531750455 -0.018896930053864246 -0.01568918245205788 -0.010752560039424165 0.0012146668597310534 -0.019099530250757946 0.0076428368754255672 0.012723074460839159 -0.0031459312607026719 -0.0025007923072501948 0.0071751351518796322 -0.0019059741076690906
leaf_weight=88 76 100 86 102 104 118 112 88 190 138 77 110 116 91 92 75 148 75 110 357 178 76 80 207 408
leaf_count=88 76 100 86 102 104 118 112 88 190 138 77 110 116 91 92 75 148 75 110 357 178 76 80 207 408
internal_value=0 0.00195386 0.00473583 -0.0115053 -0.00923009 0.00750813 0.00148092 0.0065155 0.00254096 0.000789262 0.00668731 -0.00508305 -0.00956175 -0.00240438 -0.011119 -0.00765659 -0.0138746 0.00763036 -0.0161483 0.00821009 0.00933308 0.000363394 0.000738735 0.00617348 -0.00146065
internal_weight=0 2729 2198 673 571 1187 1011 1069 899 632 267 357 531 247 431 191 240 905 214 830 535 164 171 295 494
internal_count=3402 2729 2198 673 571 1187 1011 1069 899 632 267 357 531 247 431 191 240 905 214 830 535 164 171 295 494
is_linear=0
shrinkage=0.1


Tree=18
num_leaves=26
num_cat=0
split_feature=7 4 7 8 18 5 5 5 5 4 4 4 4 5 4 5 7 5 13 7 7 7 12 10 13
split_gain=6.64406 4.16352 4.48159 1.97516 2.97832 1.59575 1.54739 1.18951 0.882545 0.664955 0.469004 0.461822 0.512979 0.484826 0.429833 0.959227 0.416919 0.2908 0.488752 0.204829 0.232949 0.197542 0.122587 0.107075 0.0117632
threshold=1504.0000000000002 1723.0000000000002 1.0000000180025095e-35 1.0000000180025095e-35 1.0000000180025095e-35 377.50000000000006 1.0000000180025095e-35 660.50000000000011 782.50000000000011 639.50000000000011 4164.0000000000009 294.50000000000006 4.5000000000000009 1.2500000000000002 2.5000000000000004 2.5000000000000004 39.500000000000007 1.0000000180025095e-35 1.0000000180025095e-35 596.00000000000011 28.500000000000004 2713.5000000000005 1.0000000180025095e-35 1.0000000180025095e-35 1.0000000180025095e-35
decision_type=2 2 2 2 2 2 2 2 2 2 2 2 2 2 2 2 2 2 2 2 2 2 2 2 2
left_child=1 2 3 4 6 9 23 14 -8 11 -3 12 19 -14 17 -16 -7 18 22 20 -4 -2 -5 24 -1
right_child=21 10 5 7 -6 16 8 -9 -10 -11 -12 -13 13 -15 15 -17 -18 -19 -20 -21 -22 -23 -24 -25 -26
leaf_value=0.0085505023889173096 -0.016356621369954728 0.010755090528152175 -0.012944214835115162 0.0061425256469928345 -0.0076349738369030189 0.0066605990732352327 -0.0048389087111004366 0.011477298078401643 0.0087297327880083275 -0.0014161863885494346 0.020839367505646172 -0.016935355788026445 -0.00042917922919196794 -0.010566240640696179 -0.010444783118503217 0.002688700122762672 -0.0026898220747542351 -0.0056216854976845606 -0.0017798669700874589 -0.014847684587004943 -0.0064189063373552534 -0.023292253833361875 0.0018006485670771927 0.011877191032902076 0.0097137007676695152
leaf_weight=155 77 115 102 111 147 92 127 75 77 112 77 79 113 81 143 91 99 97 457 103 118 88 157 260 198
leaf_count=155 77 115 102 111 147 92 127 75 77 112 77 79 113 81 143 91 99 97 457 103 118 88 157 260 198
internal_value=0 0.000524084 -0.000391362 0.00214306 0.0054689 -0.00629749 0.00782663 -0.000691702 0.000282589 -0.00848577 0.0147993 -0.00981428 -0.00872614 -0.00466166 -0.00155598 -0.00533732 0.00181405 -0.000479538 0.000208446 -0.0111673 -0.00944428 -0.0200556 0.00359896 0.0103372 0.00920295
internal_weight=0 3186 2994 2095 964 899 817 1131 204 708 192 596 517 194 1056 234 191 822 725 323 220 165 268 613 353
internal_count=3351 3186 2994 2095 964 899 817 1131 204 708 192 596 517 194 1056 234 191 822 725 323 220 165 268 613 353
is_linear=0
shrinkage=0.1


Tree=19
num_leaves=34
num_cat=0
split_feature=7 3 8 7 5 1 4 16 7 4 1 7 1 1 5 1 1 4 3 7 1 1 7 1 7 1 1 1 1 1 1 1 7
split_gain=5.38169 5.81949 3.65393 2.26685 1.79083 1.30076 1.27001 0.980524 2.19313 0.844885 0.686476 0.923653 1.16024 0.981254 0.593224 0.564998 0.491423 0.369643 0.352563 0.330257 0.608447 0.306489 0.285889 0.184418 0.160009 0.128172 0.113923 0.234875 0.0854726 0.1006 0.136151 0.0158861 7.61067e-06
threshold=1504.0000000000002 172.50000000000003 1.0000000180025095e-35 118.50000000000001 544.00000000000011 4.5000000000000009 665.00000000000011 1.0000000180025095e-35 20.500000000000004 549.50000000000011 30.500000000000004 1.0000000180025095e-35 12.500000000000002 17.500000000000004 1.2500000000000002 21.500000000000004 13.500000000000002 17.500000000000004 674.50000000000011 1.0000000180025095e-35 34.500000000000007 42.500000000000007 638.50000000000011 23.500000000000004 2713.5000000000005 42.500000000000007 20.500000000000004 23.500000000000004 19.500000000000004 28.500000000000004 33.500000000000007 25.500000000000004 298.50000000000006
decision_type=2 2 2 2 2 2 2 2 2 2 2 2 2 2 2 2 2 2 2 2 2 2 2 2 2 2 2 2 2 2 2 2 2
left_child=1 2 7 4 5 -4 10 8 16 -9 11 12 -7 -14 18 -16 -1 22 -3 20 -17 28 -5 -6 -2 -12 -15 -28 -18 31 -31 -30 -10
right_child=24 14 3 17 23 6 -8 9 32 -11 25 -13 13 26 15 19 21 -19 -20 -21 -22 -23 -24 -25 -26 -27 27 -29 29 30 -32 -33 -34
leaf_value=0.014581762194119968 -0.014720959373834903 -0.0078671211616090485 0.0092041181208012968 -0.0013061118744979283 0.014545739886890252 -0.0098088860280504658 0.0080188949436159392 0.0082194160950999698 -0.0052770519742387639 0.021885581305607069 -0.0051998529102193717 -0.011132594391503057 0.011748461289022922 0.0031445459985978176 -0.012540081327160999 -0.0070599742754106042 0.002756841792011099 -0.013289033049321448 -0.016140914776098161 -0.007967638427486717 0.0040856371849780663 0.011142984887599797 -0.0097012181417574315 0.007880979309263958 -0.020963028821785638 -0.009729749262100712 -0.005384100816018633 0.0014178868701077672 0.0071647393347719739 0.0019953955396839105 0.0071312592323604781 0.0090014715586752263 -0.005322222228216736
leaf_weight=98 77 92 128 76 75 88 121 114 75 75 134 78 95 88 100 96 79 110 117 124 100 136 87 93 88 117 81 136 100 93 116 89 75
leaf_count=98 77 92 128 76 75 88 121 114 75 75 134 78 95 88 100 96 79 110 117 124 100 136 87 93 88 117 81 136 100 93 116 89 75
internal_value=0 0.000471675 0.0025914 -0.000563988 0.00126024 -0.00025209 -0.00154249 0.00712013 0.00568839 0.0136425 -0.00295856 -0.00102823 0.000586808 0.00287386 -0.00814539 -0.00597902 0.00800654 -0.00880976 -0.0124989 -0.00392869 -0.00137344 0.00695537 -0.00578694 0.0108563 -0.0180501 -0.0073114 0.000109641 -0.0011211 0.00576141 0.0063578 0.00484592 0.00802966 -0.00529964
internal_weight=0 3186 2557 1507 1234 1066 938 1050 861 189 817 566 488 400 629 420 711 273 209 320 196 613 163 168 165 251 305 217 477 398 209 189 150
internal_count=3351 3186 2557 1507 1234 1066 938 1050 861 189 817 566 488 400 629 420 711 273 209 320 196 613 163 168 165 251 305 217 477 398 209 189 150
is_linear=0
shrinkage=0.1


Tree=20
num_leaves=24
num_cat=0
split_feature=6 3 7 8 18 7 6 6 7 6 6 6 7 7 7 8 3 10 3 20 7 3 6
split_gain=9.56301 5.47349 5.0976 1.76192 2.75201 1.34061 1.13327 1.09241 1.04081 0.732952 0.853189 0.496795 0.507012 0.477246 0.412961 0.373192 0.320608 0.240746 0.197301 0.253759 0.181343 0.0818593 0.051247
threshold=509.50000000000006 172.50000000000003 349.50000000000006 1.0000000180025095e-35 1.0000000180025095e-35 1.0000000180025095e-35 2.5000000000000004 1088.5000000000002 1651.5000000000002 56.500000000000007 6.5000000000000009 31.500000000000004 702.50000000000011 1.0000000180025095e-35 307.50000000000006 1.0000000180025095e-35 814.50000000000011 1.0000000180025095e-35 1.0000000180025095e-35 1.0000000180025095e-35 4.5000000000000009 1211.0000000000002 2139.5000000000005
decision_type=2 2 2 2 2 2 2 2 2 2 2 2 2 2 2 2 2 2 2 2 2 2 2
left_child=1 2 3 4 5 17 15 13 11 10 18 12 -4 -2 22 21 -8 -1 19 -5 -17 -3 -9
right_child=7 6 8 9 -6 -7 16 14 -10 -11 -12 -13 -14 -15 -16 20 -18 -19 -20 -21 -22 -23 -24
leaf_value=0.0085005750422889725 -0.013773712976258163 -0.0051769957597719851 -0.012608506875651564 0.0066167803624563306 -0.0049783420832914625 0.024124339564876376 0.001513161701830963 -0.019517597858163292 -0.017021525310078705 -0.004187900601962123 0.014147466917501531 0.0027069661562430041 -0.002054631328192768 -0.0049211942934339198 -0.012262528996027354 -0.016957087667571608 -0.0058789863187899936 0.01240298746253562 0.0074812697192581422 0.0020268963935233019 -0.01036934339350061 -0.0094905563707898544 -0.023120707150235665
leaf_weight=355 109 89 85 147 114 78 140 81 83 115 80 75 98 138 75 90 101 285 104 667 78 87 77
leaf_count=355 109 89 85 147 114 78 140 81 83 115 80 75 98 138 75 90 101 285 104 667 78 87 77
internal_value=0 0.00178802 0.00399682 0.00597407 0.0094552 0.0117469 -0.00684327 -0.0134612 -0.00728106 0.00337183 0.00424294 -0.0041475 -0.00695671 -0.00882777 -0.018373 -0.0105273 -0.00158479 0.0102384 0.0033798 0.00285578 -0.0138985 -0.00730927 -0.0212735
internal_weight=0 2871 2286 1945 832 718 585 480 341 1113 998 258 183 247 233 344 241 640 918 814 168 176 158
internal_count=3351 2871 2286 1945 832 718 585 480 341 1113 998 258 183 247 233 344 241 640 918 814 168 176 158
is_linear=0
shrinkage=0.1


Tree=21
num_leaves=26
num_cat=0
split_feature=7 9 7 16 7 22 22 7 22 7 19 7 7 7 8 19 19 13 19 8 13 20 13 12 22
split_gain=3.70529 3.83073 2.22463 0.581518 1.35464 0.914423 0.387569 0.712634 0.371431 0.712529 0.367203 0.257812 0.124193 0.104973 0.0996493 1.6545 0.732376 0.407648 0.0449995 0.329728 0.235335 0.400867 0.0175297 0.00163124 7.87832e-05
threshold=1504.0000000000002 1.0000000180025095e-35 114.00000000000001 1.0000000180025095e-35 19.500000000000004 1.0000000180025095e-35 1.0000000180025095e-35 613.50000000000011 1.0000000180025095e-35 2.5000000000000004 1.0000000180025095e-35 4.5000000000000009 3170.0000000000005 18.500000000000004 1.0000000180025095e-35 1.0000000180025095e-35 1.0000000180025095e-35 1.0000000180025095e-35 1.0000000180025095e-35 1.0000000180025095e-35 1.0000000180025095e-35 1.0000000180025095e-35 1.0000000180025095e-35 1.0000000180025095e-35 1.0000000180025095e-35
decision_type=2 2 2 2 2 2 2 2 2 2 2 2 2 2 2 2 2 2 2 2 2 2 2 2 2
left_child=1 2 8 4 22 -5 7 -4 9 18 -8 14 -2 -11 15 -10 17 -16 20 -20 23 -22 -3 -1 -24
right_child=12 3 6 5 -6 -7 10 -9 11 13 -12 -13 -14 -15 16 -17 -18 -19 19 -21 21 -23 24 -25 -26
leaf_value=0.0045759148568681489 -0.012370752127484206 0.0078503872514168634 0.00032389150568787485 0.017365315255647797 -0.0030657218937881919 0.0040405416800606483 -0.0066809024479082216 -0.012393715188411628 -0.01068062489042762 -0.0073099258365662131 -0.015375121778406784 0.0025247824687320087 -0.017865964835797759 -0.0024217335727445203 0.0036565144090981421 0.004827356433102308 -0.0087693357511346593 -0.0028289442320583564 0.0059011270839523277 -0.00015865838254085508 -0.004141944296124773 0.0026505520076764637 0.0094102350514973128 0.0052061736992941423 0.0092794896991719271
leaf_weight=88 87 133 103 117 140 92 87 77 106 81 110 139 78 96 141 196 155 310 197 165 131 258 104 77 83
leaf_count=88 87 133 103 117 140 92 87 77 106 81 110 139 78 96 141 196 155 310 197 165 131 258 104 77 83
internal_value=0 0.000400076 -0.0013876 0.00712591 0.00513861 0.0114999 -0.00847071 -0.00511642 -0.000139782 0.00114964 -0.0115355 -0.00148586 -0.0149685 -0.0046587 -0.00209982 -0.000615843 -0.00283936 -0.00080134 0.00227199 0.00313907 0.00170542 0.000363105 0.00872801 0.00487004 0.0093522
internal_weight=0 3186 2517 669 460 209 377 180 2140 1093 197 1047 165 177 908 302 606 451 916 362 554 389 320 165 187
internal_count=3351 3186 2517 669 460 209 377 180 2140 1093 197 1047 165 177 908 302 606 451 916 362 554 389 320 165 187
is_linear=0
shrinkage=0.1


Tree=22
num_leaves=27
num_cat=0
split_feature=6 9 7 7 7 6 0 6 7 7 6 7 6 8 7 7 6 18 7 7 11 8 6 20 12 11
split_gain=7.53222 3.16625 3.09201 2.78364 1.50158 0.885747 0.762613 0.491638 0.429736 0.391475 0.366047 0.405261 0.246836 0.209295 0.185585 0.3015 0.677179 0.480238 0.12333 0.13068 0.109969 0.089663 0.0540774 0.0191961 0.0151481 0.00601201
threshold=509.50000000000006 1.0000000180025095e-35 1473.5000000000002 349.50000000000006 1.0000000180025095e-35 1088.5000000000002 1.0000000180025095e-35 241.50000000000003 307.50000000000006 1.0000000180025095e-35 24.500000000000004 86.500000000000014 62.500000000000007 1.0000000180025095e-35 24.500000000000004 1.0000000180025095e-35 1.0000000180025095e-35 1.0000000180025095e-35 613.50000000000011 794.50000000000011 1.0000000180025095e-35 1.0000000180025095e-35 2139.5000000000005 1.0000000180025095e-35 1.0000000180025095e-35 1.0000000180025095e-35
decision_type=2 2 2 2 2 2 2 2 2 2 2 2 2 2 2 2 2 2 2 2 2 2 2 2 2 2
left_child=1 3 4 6 25 9 7 10 22 -2 11 14 -12 -8 15 16 17 21 -5 -20 24 -1 -7 -23 -15 -3
right_child=5 2 -4 18 -6 8 13 -9 -10 -11 12 -13 -14 20 -16 -17 -18 -19 19 -21 -22 23 -24 -25 -26 -27
leaf_value=0.0021684891571686206 -0.012223296432401618 0.0079985055603698143 -0.010841319995742756 -0.0065653436749678641 0.019861501071032017 -0.017493935208276194 0.0058585030582844824 -0.0072012439258824605 -0.01010551362523501 -0.0042056302020784869 0.0084485508404365233 -0.0075412954477057986 0.0011489665992810763 0.0015174957633392698 0.0047094715427186936 -0.0044489564253298256 0.0065882199311390862 -0.0086609769459197097 -0.014097397944366083 -0.0086868871332893855 0.0059067156212398355 -0.0021062947499619574 -0.021195204333602679 -0.00028060240582166671 0.0027447498904137769 0.0071960087036298109
leaf_weight=135 109 215 75 91 137 81 265 98 75 138 79 78 112 339 76 152 141 75 80 101 79 101 77 134 143 165
leaf_count=135 109 215 75 91 137 81 265 98 75 138 79 78 112 339 76 152 141 75 80 101 79 101 77 134 143 165
internal_value=0 0.00161756 0.00813336 -7.49975e-05 0.010886 -0.011916 0.00121161 -0.000418602 -0.0163389 -0.00774379 0.000195155 -0.000655569 0.00416817 0.00354245 4.24289e-06 -0.000480306 0.000549105 -0.00136441 -0.00956843 -0.0110783 0.00244842 0.00011462 -0.0192977 -0.00106526 0.0018816 0.00765005
internal_weight=0 2871 592 2279 517 480 2007 1181 233 247 1083 892 191 826 814 738 586 445 272 181 561 370 158 235 482 380
internal_count=3351 2871 592 2279 517 480 2007 1181 233 247 1083 892 191 826 814 738 586 445 272 181 561 370 158 235 482 380
is_linear=0
shrinkage=0.1


Tree=23
num_leaves=34
num_cat=0
split_feature=0 4 1 1 1 8 1 4 1 4 1 3 1 3 1 3 3 3 1 1 1 4 1 19 1 1 19 1 1 1 1 1 4
split_gain=3.75446 1.95942 1.44518 0.920598 0.897818 0.484435 0.710411 0.468251 0.740206 0.553916 0.465438 0.72884 0.546237 0.52335 0.448993 0.501217 0.406206 0.642231 0.387737 0.385772 0.309156 0.2635 0.181603 0.167941 0.146376 0.254334 0.125672 0.0631182 0.0369327 0.0521705 0.0239218 0.0126519 0.00785953
threshold=1.0000000180025095e-35 1723.0000000000002 12.500000000000002 39.500000000000007 16.500000000000004 1.0000000180025095e-35 4.5000000000000009 1.0000000180025095e-35 23.500000000000004 286.50000000000006 26.500000000000004 380.50000000000006 29.500000000000004 22.500000000000004 38.500000000000007 845.50000000000011 156.50000000000003 1.0000000180025095e-35 24.500000000000004 39.500000000000007 47.500000000000007 489.50000000000006 47.500000000000007 1.0000000180025095e-35 15.500000000000002 24.500000000000004 1.0000000180025095e-35 20.500000000000004 39.500000000000007 24.500000000000004 29.500000000000004 30.500000000000004 3389.5000000000005
decision_type=2 2 2 2 2 2 2 2 2 2 2 2 2 2 2 2 2 2 2 2 2 2 2 2 2 2 2 2 2 2 2 2 2
left_child=1 2 -1 32 -4 26 -7 14 9 23 -10 12 -12 20 15 16 17 18 -6 24 21 -14 -16 -9 -8 27 28 -26 29 -2 -28 -31 -3
right_child=5 3 4 -5 7 6 19 8 10 -11 11 -13 13 -15 22 -17 -18 -19 -20 -21 -22 -23 -24 -25 25 -27 30 -29 -30 31 -32 -33 -34
leaf_value=0.005768690225834025 0.0064530608718094216 0.0093809721213228246 -0.013382907341082027 -0.0032362986301804758 -0.0063644755779498257 0.01105879630848863 -0.0015428570197842644 0.0020017971832426789 -0.010337931385319332 -0.0045753224326639903 0.0063529962726778799 -0.0096248831553269257 -0.010593587631573857 0.0038061057377306502 0.0013067101674540602 -0.00099387633881387115 -0.01307722989192691 -0.0017756329545416134 -0.015828140324134515 -0.0056662565960408189 -8.3395308654731558e-05 -0.0030542075657548021 -0.0050714476292463831 0.0081302639014636056 0.007407219599803231 -8.6346523746736969e-05 0.0073791277674084988 0.0035665875599411342 0.0068462015296786409 0.0043419586000856018 0.0095315822134733521 0.0026584635056951301 0.010775004296387072
leaf_weight=147 99 78 108 76 93 78 90 87 106 87 79 133 105 90 101 105 143 146 81 78 88 83 80 92 92 143 134 80 100 101 84 80 84
leaf_count=147 99 78 108 76 93 78 90 87 106 87 79 133 105 90 101 105 143 146 81 78 88 83 80 92 92 143 134 80 100 101 84 80 84
internal_value=0 -0.00272282 -0.00376627 0.00584394 -0.00454194 0.00431437 0.00220357 -0.00397995 -0.00250586 0.00197025 -0.00424658 -0.00312948 -0.00118815 -0.00281589 -0.00584961 -0.00723172 -0.00864635 -0.00666631 -0.01077 0.000773537 -0.00497523 -0.00726503 -0.00151237 0.00515162 0.00201379 0.00302998 0.00629456 0.00562088 0.00519655 0.00460739 0.00820851 0.00359787 0.0101038
internal_weight=0 2192 1954 238 1807 1159 561 1699 950 266 684 578 445 366 749 568 463 320 174 483 276 188 181 179 405 315 598 172 380 280 218 181 162
internal_count=3351 2192 1954 238 1807 1159 561 1699 950 266 684 578 445 366 749 568 463 320 174 483 276 188 181 179 405 315 598 172 380 280 218 181 162
is_linear=0
shrinkage=0.1


Tree=24
num_leaves=24
num_cat=0
split_feature=6 3 7 6 6 9 7 19 7 18 19 3 9 18 6 3 3 3 3 3 0 6 0
split_gain=5.43652 3.448 2.97704 1.5662 1.43628 2.91799 2.75694 1.03132 0.646466 0.45152 0.424135 0.872994 0.659721 0.565789 0.374549 0.355756 0.874065 0.321839 1.01095 0.314752 0.321906 0.173399 0.04227
threshold=13.500000000000002 351.50000000000006 168.50000000000003 1.5000000000000002 2763.5000000000005 1.0000000180025095e-35 882.00000000000011 1.0000000180025095e-35 74.500000000000014 1.0000000180025095e-35 1.0000000180025095e-35 1.0000000180025095e-35 1.0000000180025095e-35 1.0000000180025095e-35 821.00000000000011 617.00000000000011 1076.5000000000002 324.50000000000006 7.5000000000000009 1.5000000000000002 1.0000000180025095e-35 153.50000000000003 1.0000000180025095e-35
decision_type=2 2 2 2 2 2 2 2 2 2 2 2 2 2 2 2 2 2 2 2 2 2 2
left_child=1 2 3 10 5 9 8 -4 -7 14 11 12 13 22 17 -3 -17 18 21 20 -12 -2 -1
right_child=4 15 7 -5 -6 6 -8 -9 -10 -11 19 -13 -14 -15 -16 16 -18 -19 -20 -21 -22 -23 -24
leaf_value=0.00071901924097312296 -0.0082613625259486574 -0.012551949244303471 -0.00026160386128531277 0.018881180641744915 -0.017590031308632247 0.0059929459257994921 -0.0078917637908275853 -0.01346497573766087 0.018909486835268163 -0.0023059821999872796 0.013413529954604729 0.013997700271451644 0.0064592774022425026 -0.006770119332571602 -0.015662270246912621 0.00093179360809036234 -0.010330646083439067 -0.013227325030485402 -0.00041277783147414585 0.0023764095313707021 0.006880358480954917 -0.013776669286700838 0.0027464717750531591
leaf_weight=128 107 78 128 84 100 77 116 110 78 99 108 80 398 76 87 133 143 112 140 95 250 122 523
leaf_count=128 107 78 128 84 100 77 116 110 78 99 108 80 398 76 87 133 143 112 140 95 250 122 523
internal_value=0 0.00250129 0.00412647 0.00555973 -0.00619743 -0.00498286 0.00376735 -0.006364 0.0124929 -0.00853805 0.00488482 0.00390416 0.0031864 0.00139465 -0.00962427 -0.00658872 -0.00490346 -0.00853216 -0.00710707 0.0074934 0.00885126 -0.0111996 0.00234783
internal_weight=0 2334 1980 1742 1038 938 271 238 155 667 1658 1205 1125 727 568 354 276 481 369 453 358 229 651
internal_count=3372 2334 1980 1742 1038 938 271 238 155 667 1658 1205 1125 727 568 354 276 481 369 453 358 229 651
is_linear=0
shrinkage=0.1


Tree=25
num_leaves=33
num_cat=0
split_feature=5 9 14 1 4 4 1 4 4 4 4 1 5 5 4 5 5 5 10 1 1 10 11 1 1 1 1 1 1 1 1 1
split_gain=1.35736 1.0155 1.70651 0.874221 0.58106 1.49895 1.07403 0.50597 0.327096 0.269715 0.434343 0.259458 0.344661 0.610904 0.260175 0.665212 0.196792 0.373264 0.325267 0.253844 0.194238 0.177119 0.150606 0.127234 0.119806 0.079552 0.0698371 0.0499918 0.198828 0.0826814 0.0222008 0.00611189
threshold=1182.0000000000002 1.0000000180025095e-35 1.0000000180025095e-35 24.500000000000004 11.500000000000002 2236.0000000000005 35.500000000000007 362.50000000000006 755.00000000000011 433.50000000000006 14.500000000000002 35.500000000000007 365.00000000000006 19.500000000000004 3.5000000000000004 8.5000000000000018 5.5000000000000009 88.500000000000014 1.0000000180025095e-35 16.500000000000004 2.5000000000000004 1.0000000180025095e-35 1.0000000180025095e-35 33.500000000000007 44.500000000000007 29.500000000000004 20.500000000000004 16.500000000000004 19.500000000000004 11.500000000000002 26.500000000000004 31.500000000000004
decision_type=2 2 2 2 2 2 2 2 2 2 2 2 2 2 2 2 2 2 2 2 2 2 2 2 2 2 2 2 2 2 2 2
left_child=1 3 4 9 22 23 -7 11 -9 10 16 14 13 21 15 25 18 -18 20 -20 -1 24 30 -6 -13 -5 -19 29 -29 -22 -3 -24
right_child=-2 2 -4 7 5 6 -8 8 -10 -11 -12 12 -14 -15 -16 -17 17 26 19 -21 27 -23 31 -25 -26 -27 -28 28 -30 -31 -32 -33
leaf_value=-0.0040290871782249276 0.010066846718756049 0.007119468678775615 -0.009923635178761589 -0.0029432031467756322 -0.0082233797373052579 0.015977457817398583 -0.0004138811923379238 0.0065536464394997176 -0.0027241684802549173 0.0052409820081239953 -0.0053811362198064004 -0.0013145456612981977 0.0029607562172690098 -0.011172939632265984 -0.0012491444143916232 -0.013058026912099209 -0.0076149302640681413 -0.0012409001941791206 0.0096099914470802184 0.0015147657189999769 0.00039478597478734463 0.0014284485677182081 0.005081916213083168 -0.002767803573447651 -0.0056168502620251625 -0.006281942304219983 0.0030464491048211449 -0.0035630059440478778 0.0021533198735428603 0.0042447775914084803 0.0092451103777766355 0.0039136152435109142
leaf_weight=87 125 76 98 170 85 82 78 76 76 102 138 132 89 91 99 125 77 75 76 79 119 106 109 86 127 123 77 93 176 105 139 76
leaf_count=87 125 76 98 170 85 82 78 76 76 102 138 132 89 91 99 125 77 75 76 79 119 106 109 86 127 123 77 93 176 105 139 76
internal_value=0 -0.000552444 0.00246785 -0.00158794 0.00412909 0.00102976 0.00798668 -0.00348153 0.00191474 0.000321382 -0.000133971 -0.00425388 -0.00273151 -0.0038425 -0.00585869 -0.00695042 0.000617179 -0.00194254 0.0014147 0.00548404 0.000327199 -0.00201492 0.00669378 -0.00547964 -0.00342417 -0.00434479 0.000930981 0.00109596 0.000177044 0.00219947 0.00849372 0.00460197
internal_weight=0 3247 829 2418 731 331 160 1214 152 1204 1102 1062 545 456 517 418 964 229 735 155 580 365 400 171 259 293 152 493 269 224 215 185
internal_count=3372 3247 829 2418 731 331 160 1214 152 1204 1102 1062 545 456 517 418 964 229 735 155 580 365 400 171 259 293 152 493 269 224 215 185
is_linear=0
shrinkage=0.1


Tree=26
num_leaves=30
num_cat=0
split_feature=6 7 16 6 7 7 22 9 13 20 6 6 6 6 0 6 12 6 7 20 13 0 7 20 0 0 7 13 9
split_gain=4.20062 1.92123 1.80277 0.999321 1.01617 0.997009 0.765595 0.615041 0.563247 0.523703 0.358518 0.454643 0.48267 0.349631 0.266564 0.261607 0.215914 0.201542 0.193173 0.218244 0.15925 0.0850848 0.0535263 0.0463193 0.0608308 0.0385232 0.0176766 0.00364812 0.000306836
threshold=13.500000000000002 175.50000000000003 1.0000000180025095e-35 1493.5000000000002 622.50000000000011 36.500000000000007 1.0000000180025095e-35 1.0000000180025095e-35 1.0000000180025095e-35 1.0000000180025095e-35 59.500000000000007 252.50000000000003 685.50000000000011 1.0000000180025095e-35 1.0000000180025095e-35 1.5000000000000002 1.0000000180025095e-35 198.00000000000003 1.0000000180025095e-35 1.0000000180025095e-35 1.0000000180025095e-35 1.0000000180025095e-35 802.50000000000011 1.0000000180025095e-35 1.0000000180025095e-35 1.0000000180025095e-35 1.5000000000000002 1.0000000180025095e-35 1.0000000180025095e-35
decision_type=2 2 2 2 2 2 2 2 2 2 2 2 2 2 2 2 2 2 2 2 2 2 2 2 2 2 2 2 2
left_child=1 6 3 4 5 9 8 13 14 10 -2 -12 -13 18 -1 22 -16 -7 19 21 -21 -8 -3 24 26 -25 -10 -9 -26
right_child=2 15 -4 -5 -6 17 7 27 23 -11 11 12 -14 -15 16 -17 -18 -19 -20 20 -22 -23 -24 25 28 -27 -28 -29 -30
leaf_value=-0.0026549399007858767 -0.010758170285522489 -0.008752158935212381 0.0053889343792772274 -0.015579394591510642 -0.013747796793603244 0.0056966560150908067 0.00039862206682170562 0.0060475820121544954 0.0077452265684127362 -0.012568254966183669 0.0028167743928997012 -0.009863248303413414 0.00017879626415787304 0.0062545819200875638 0.0014243184679928803 -0.00054641911681624496 0.0078544637063573449 -0.0010348590114588371 -0.0047882410755283964 0.0010232735470448149 -0.0035267286969712392 0.0038038657786403211 -0.0055083533709256883 0.0062017724592443417 0.0050649615096250451 0.0087857076241375179 0.0059218873094085142 0.0069435008893088679 0.0048347738726416895
leaf_weight=98 77 117 134 119 132 87 158 88 177 110 90 117 81 82 158 78 78 91 97 125 200 137 90 93 134 152 76 94 102
leaf_count=98 77 117 134 119 132 87 158 88 177 110 90 117 81 82 158 78 78 91 97 125 200 137 90 93 134 152 76 94 102
internal_value=0 0.00221085 -0.00543545 -0.00703995 -0.00574544 -0.00412781 0.00328086 0.00126398 0.00513345 -0.00651978 -0.00469695 -0.00307642 -0.00575514 6.89509e-05 0.00172906 -0.00548202 0.00354954 0.00225526 -0.000638471 1.07667e-05 -0.00177673 0.00198004 -0.00734181 0.00668258 0.00612029 0.00780487 0.0071975 0.00651031 0.00496547
internal_weight=0 2334 1038 904 785 653 2049 981 1068 475 365 288 198 799 334 285 236 178 717 620 325 295 207 734 489 245 253 182 236
internal_count=3372 2334 1038 904 785 653 2049 981 1068 475 365 288 198 799 334 285 236 178 717 620 325 295 207 734 489 245 253 182 236
is_linear=0
shrinkage=0.1


Tree=27
num_leaves=23
num_cat=0
split_feature=6 3 16 4 6 4 8 19 19 9 3 3 3 4 4 3 6 6 6 4 16 0
split_gain=3.4025 2.52479 1.46024 0.973231 0.80945 1.0571 0.499863 0.615916 0.368353 1.07275 0.342442 0.291186 0.939573 0.280138 0.672608 0.422041 0.221341 0.379719 0.225196 0.143859 0.00384512 0.00217618
threshold=13.500000000000002 351.50000000000006 1.0000000180025095e-35 164.50000000000003 1493.5000000000002 1955.0000000000002 1.0000000180025095e-35 1.0000000180025095e-35 1.0000000180025095e-35 1.0000000180025095e-35 2.5000000000000004 1076.5000000000002 751.50000000000011 1.0000000180025095e-35 14.500000000000002 36.500000000000007 91.500000000000014 304.50000000000006 677.50000000000011 354.50000000000006 1.0000000180025095e-35 1.0000000180025095e-35
decision_type=2 2 2 2 2 2 2 2 2 2 2 2 2 2 2 2 2 2 2 2 2 2
left_child=1 3 4 6 5 13 8 21 9 -1 -5 12 -3 16 -15 19 -2 -18 -19 -16 -11 -8
right_child=2 11 -4 10 -6 -7 7 -9 -10 20 -12 -13 -14 14 15 -17 17 18 -20 -21 -22 -23
leaf_value=-0.0076622022446160027 -0.013086077980706549 -0.0083830812614887167 0.0048500412219613862 0.012245954273984941 -0.014021455174639553 0.0057992360922386873 0.0025006459449008257 -0.0041469669678749826 0.0071745114668106368 0.0050319660293577893 0.0049958556362129395 -0.0092725147416450777 0.0055583183077583739 0.0019356471604183281 -0.012605284619179034 -0.0012099471316347513 -0.0015670209621994795 -0.013907553586667346 -0.0061837489607359736 -0.0071922099805674256 0.0043670710960246146 0.0021300019188146241
leaf_weight=83 82 136 134 147 119 79 228 189 294 276 117 143 75 112 93 82 82 75 76 104 127 519
leaf_count=83 82 136 134 147 119 79 228 189 294 276 117 143 75 112 93 82 82 75 76 104 127 519
internal_value=0 0.00198976 -0.00489191 0.00338045 -0.00633596 -0.00517089 0.00251085 0.000952822 0.00438049 0.00269028 0.00903284 -0.00578869 -0.00342761 -0.00639843 -0.0046105 -0.00723834 -0.00861773 -0.00704518 -0.0100201 -0.00974762 0.00482243 0.00224313
internal_weight=0 2334 1038 1980 904 785 1716 936 780 486 264 354 211 706 391 279 315 233 151 197 403 747
internal_count=3372 2334 1038 1980 904 785 1716 936 780 486 264 354 211 706 391 279 315 233 151 197 403 747
is_linear=0
shrinkage=0.1


Tree=28
num_leaves=25
num_cat=0
split_feature=6 3 5 22 16 4 0 22 6 19 6 4 4 19 22 19 4 3 3 19 12 22 19 12
split_gain=2.75602 2.04661 2.32523 1.34899 2.21306 0.933435 1.63892 1.10473 0.684733 1.11775 0.451074 0.357956 0.470818 0.347952 0.302469 0.346367 0.271826 0.241939 0.743605 0.115431 0.0505044 0.0390089 0.00741332 0.00148364
threshold=13.500000000000002 340.00000000000006 643.50000000000011 1.0000000180025095e-35 1.0000000180025095e-35 164.50000000000003 1.0000000180025095e-35 1.0000000180025095e-35 272.50000000000006 1.0000000180025095e-35 821.00000000000011 1.0000000180025095e-35 96.500000000000014 1.0000000180025095e-35 1.0000000180025095e-35 1.0000000180025095e-35 1.5000000000000002 1076.5000000000002 751.50000000000011 1.0000000180025095e-35 1.0000000180025095e-35 1.0000000180025095e-35 1.0000000180025095e-35 1.0000000180025095e-35
decision_type=2 2 2 2 2 2 2 2 2 2 2 2 2 2 2 2 2 2 2 2 2 2 2 2
left_child=1 2 5 4 8 6 19 -7 9 -2 11 -5 -13 -4 20 23 -10 18 -3 21 22 -1 -8 -16
right_child=3 17 13 10 -6 7 14 -9 16 -11 -12 12 -14 -15 15 -17 -18 -19 -20 -21 -22 -23 -24 -25
leaf_value=-0.0043729988899736246 0.0077318069719163529 -0.0073216831470641341 0.019349814683275169 -0.010304665382153112 0.014110095432085176 0.014709584948038194 0.0043549213070104521 0.0011109900782503965 -0.011573226086426552 -0.006756461999677315 -0.012815493795519016 0.0025056901244653227 -0.0070949976523431175 0.010216918314702096 -9.3437724862724552e-05 0.0061584843532346894 -0.0046374239627682548 -0.0083452633219748915 0.0050024864830340949 -0.0067308592432675758 0.0068692141504700828 -0.0018514817121981046 0.00348978410099716 0.00039523707950435156
leaf_weight=129 106 141 75 134 83 118 416 121 93 107 145 78 148 94 362 115 144 143 75 145 78 117 130 75
leaf_count=129 106 141 75 134 83 118 416 121 93 107 145 78 148 94 362 115 144 143 75 145 78 117 130 75
internal_value=0 0.00179078 0.00305328 -0.00440272 -0.000893679 0.00200366 0.00111579 0.00782494 -0.00366104 0.000453662 -0.00810631 -0.00620956 -0.00378149 0.01427 0.00298058 0.00127544 -0.00735907 -0.00515472 -0.00304246 -0.00449288 0.00448897 -0.00317374 0.00414894 -9.56904e-06
internal_weight=0 2334 1975 1038 533 1806 1567 239 450 213 505 360 226 169 1176 552 237 359 216 391 624 246 546 437
internal_count=3372 2334 1975 1038 533 1806 1567 239 450 213 505 360 226 169 1176 552 237 359 216 391 624 246 546 437
is_linear=0
shrinkage=0.1


Tree=29
num_leaves=25
num_cat=0
split_feature=22 19 13 5 5 5 18 13 19 13 13 5 9 5 9 5 5 12 9 5 15 9 12 15
split_gain=1.49557 0.432856 0.864425 0.548827 0.377486 0.305931 0.273542 0.255484 0.243945 0.426789 0.302849 0.225825 0.149268 0.22345 0.0791647 0.0569058 0.0516814 0.0441224 0.0782914 0.0198071 0.0171919 0.00549285 0.00443031 0.000160369
threshold=1.0000000180025095e-35 1.0000000180025095e-35 1.0000000180025095e-35 544.00000000000011 832.50000000000011 566.50000000000011 1.0000000180025095e-35 1.0000000180025095e-35 1.0000000180025095e-35 1.0000000180025095e-35 1.0000000180025095e-35 13.500000000000002 1.0000000180025095e-35 21.500000000000004 1.0000000180025095e-35 16.500000000000004 2.5000000000000004 1.0000000180025095e-35 1.0000000180025095e-35 1.0000000180025095e-35 1.0000000180025095e-35 1.0000000180025095e-35 1.0000000180025095e-35 1.0000000180025095e-35
decision_type=2 2 2 2 2 2 2 2 2 2 2 2 2 2 2 2 2 2 2 2 2 2 2 2
left_child=1 6 -3 11 5 8 7 17 9 21 -10 -4 13 -11 15 -9 -12 18 -1 -8 -16 22 -2 -14
right_child=4 2 3 -5 -6 -7 19 14 10 12 16 -13 23 -15 20 -17 -18 -19 -20 -21 -22 -23 -24 -25
leaf_value=-0.0018330100274074588 0.00072755632506637602 -0.0066439130417246086 0.0019153054914000146 0.0098292960612253073 0.003546355597951164 -0.0086716856784556737 0.00036465723902056853 0.0047096674460784006 -0.0048718061422631641 -0.0067366762074205569 0.00020236555096419368 -0.0037261266931111585 -0.0024817984273950017 -0.0013238211224395084 0.0069644315456429268 0.0017530178144680314 0.0028048222227601404 0.0034106490828643785 0.0020320061382031289 -0.0018495262651071634 0.0052816985902142469 -0.00066641052261822711 -0.00028381462974283689 -0.0023014003468502338
leaf_weight=75 77 155 272 75 105 80 85 278 115 371 235 96 131 96 157 85 113 94 174 77 99 149 99 79
leaf_count=75 77 155 272 75 105 80 85 278 115 371 235 96 131 96 157 85 113 94 174 77 99 149 99 79
internal_value=0 0.00195733 -0.000216312 0.00203262 -0.00225565 -0.00264996 0.00311377 0.00375394 -0.00232112 -0.00319829 -0.000422801 0.000443627 -0.00462824 -0.00562397 0.00496704 0.00401734 0.00104742 0.00156471 0.000867845 -0.000687763 0.00631369 -0.000219603 0.00015866 -0.00241393
internal_weight=0 1722 598 443 1650 1545 1124 962 1465 1002 463 368 677 467 619 363 348 343 249 162 256 325 176 210
internal_count=3372 1722 598 443 1650 1545 1124 962 1465 1002 463 368 677 467 619 363 348 343 249 162 256 325 176 210
is_linear=0
shrinkage=0.1


Tree=30
num_leaves=35
num_cat=0
split_feature=6 3 5 4 6 6 4 1 4 0 5 1 6 1 4 4 3 1 1 8 6 5 6 1 1 1 1 1 9 1 4 1 1 1
split_gain=2.95595 2.02562 1.55079 0.797362 0.914941 0.682514 0.931261 0.651999 0.596216 0.585301 1.17063 0.660513 0.555089 0.500817 0.450657 0.416743 0.907323 1.41221 0.449789 0.405814 0.608623 0.39669 0.468442 0.300433 0.1723 0.562433 0.249218 0.270418 0.213179 0.134736 0.101607 0.0966354 0.0946598 4.35423e-05
threshold=131.50000000000003 725.50000000000011 1356.5000000000002 1723.0000000000002 12.500000000000002 1088.5000000000002 1066.5000000000002 1.5000000000000002 1398.0000000000002 1.0000000180025095e-35 365.00000000000006 31.500000000000004 277.50000000000006 45.500000000000007 49.500000000000007 3.5000000000000004 5.5000000000000009 12.500000000000002 24.500000000000004 1.0000000180025095e-35 658.50000000000011 1.2500000000000002 1.5000000000000002 34.500000000000007 10.500000000000002 16.500000000000004 29.500000000000004 23.500000000000004 1.0000000180025095e-35 35.500000000000007 25.500000000000004 20.500000000000004 53.500000000000007 40.500000000000007
decision_type=2 2 2 2 2 2 2 2 2 2 2 2 2 2 2 2 2 2 2 2 2 2 2 2 2 2 2 2 2 2 2 2 2 2
left_child=1 2 3 4 7 8 30 -1 12 10 15 -12 -2 24 -6 16 17 -9 -17 -14 -21 -3 -23 -20 -11 -26 27 31 -29 -28 -7 -27 -15 -31
right_child=5 21 -4 -5 14 6 -8 9 -10 13 11 -13 19 32 -16 18 -18 -19 23 20 -22 22 -24 -25 25 26 29 28 -30 33 -32 -33 -34 -35
leaf_value=0.01144950777014065 -0.010582381788887645 -0.010297380472713204 0.017237728688161345 0.011079002586379894 -0.0081485794833641226 -0.0074045103593566308 -0.018090909222189283 9.5263187732273302e-05 0.0054310459542344942 0.00078705560757359998 0.0025731857298340829 0.014394805400237319 -0.008088170879820852 -0.0036212493546348814 0.001554291761010742 0.0057548028135974687 0.0043735293414931846 -0.016670785001774942 -0.0067798717430048857 0.0044885064285475852 -0.0059615873791976116 -0.007110047251618283 0.003163047663398812 0.0017557213430615063 0.011468095822887811 0.0034198908257737463 0.0091117101621055793 -0.0021294833960273287 0.0042183003068793495 0.0047795848968752051 -0.0022495036159417576 0.007309061472616285 0.0013057911470614543 0.0046750813295031507
leaf_weight=88 104 110 77 111 115 75 80 102 75 92 125 76 84 79 82 113 81 99 81 131 97 103 78 84 128 147 125 135 87 84 78 113 77 76
leaf_count=88 104 110 77 111 115 75 80 102 75 92 125 76 84 79 82 113 81 99 81 131 97 103 78 84 128 147 125 135 87 84 78 113 77 76
internal_value=0 0.00231379 0.00327788 0.00281053 0.00239125 -0.00489088 -0.00934795 0.00303418 -0.00277582 0.00264524 0.000496481 0.00704305 -0.00425542 0.00407586 -0.00410982 -0.00185327 -0.00456183 -0.00816264 0.000894258 -0.00214643 4.26331e-05 -0.00556127 -0.00268297 -0.00243448 0.00490805 0.00533166 0.00430758 0.00292149 0.000358162 0.00665177 -0.00477647 0.00511018 -0.00118931 0.00472995
internal_weight=0 2668 2377 2300 2189 724 233 1992 491 1904 761 201 416 1143 197 560 282 201 278 312 228 291 181 165 987 895 767 482 222 285 153 260 156 160
internal_count=3392 2668 2377 2300 2189 724 233 1992 491 1904 761 201 416 1143 197 560 282 201 278 312 228 291 181 165 987 895 767 482 222 285 153 260 156 160
is_linear=0
shrinkage=0.1


Tree=31
num_leaves=25
num_cat=0
split_feature=7 3 6 7 19 7 6 8 6 7 6 19 7 10 7 19 7 6 3 3 11 8 8 8
split_gain=2.65856 2.38218 2.50488 0.714952 0.951957 0.661017 0.681446 0.587726 0.557177 0.54147 0.550789 0.249819 0.50038 0.320416 0.1925 0.17066 0.147509 0.117443 0.307155 0.111209 0.0180618 0.0635685 0.0175491 0.000351007
threshold=168.50000000000003 475.00000000000006 1551.5000000000002 3297.0000000000005 1.0000000180025095e-35 910.50000000000011 341.00000000000006 1.0000000180025095e-35 2.5000000000000004 62.500000000000007 658.50000000000011 1.0000000180025095e-35 1.0000000180025095e-35 1.0000000180025095e-35 638.50000000000011 1.0000000180025095e-35 476.00000000000006 58.500000000000007 1.0000000180025095e-35 7.5000000000000009 1.0000000180025095e-35 1.0000000180025095e-35 1.0000000180025095e-35 1.0000000180025095e-35
decision_type=2 2 2 2 2 2 2 2 2 2 2 2 2 2 2 2 2 2 2 2 2 2 2 2
left_child=1 2 9 4 5 6 16 15 -9 10 11 13 19 17 -6 -3 -2 18 20 22 23 -22 -13 -1
right_child=3 7 -4 -5 14 -7 -8 8 -10 -11 -12 12 -14 -15 -16 -17 -18 -19 -20 -21 21 -23 -24 -25
leaf_value=0.0032157210622052318 0.0027955603937494192 -0.0055857124439896728 -0.013488040289844612 -0.014081325813808394 -0.012101917672869701 -0.0063467834687104506 -0.0054439824043347636 0.0042559783274003114 -0.0065226556177092236 0.011195391286705113 -0.003064822252915923 0.0058697849100136784 -7.4333169165302447e-05 -0.0020131090393889538 -0.0060074212843681495 -0.011015166449503984 0.0087256647045595142 0.00025419705476238826 0.01015060760974968 0.0099981233885442482 0.0030196262995726632 0.0059414372689240323 0.0072758634610034512 0.0033654216399424731
leaf_weight=215 81 121 85 76 110 139 78 104 89 100 115 271 121 105 98 111 87 90 76 104 180 127 132 577
leaf_count=215 81 121 85 76 110 139 78 104 89 100 115 271 121 105 98 111 87 90 76 104 180 127 132 577
internal_value=0 0.00208607 0.00335805 -0.00494975 -0.00377942 -0.000834442 0.00228025 -0.00479165 -0.00071448 0.0040051 0.00366481 0.00405216 0.00570372 0.00329509 -0.00923047 -0.00818343 0.00586651 0.00373569 0.00400236 0.0070827 0.00357718 0.00422832 0.00633034 0.00332478
internal_weight=0 2723 2298 669 593 385 246 425 193 2213 2113 1998 628 1370 208 232 168 1265 1175 507 1099 307 403 792
internal_count=3392 2723 2298 669 593 385 246 425 193 2213 2113 1998 628 1370 208 232 168 1265 1175 507 1099 307 403 792
is_linear=0
shrinkage=0.1


Tree=32
num_leaves=27
num_cat=0
split_feature=7 22 10 7 7 19 7 7 13 16 7 20 7 19 7 11 9 22 19 7 19 10 19 19 13 20
split_gain=2.17286 1.00574 0.815457 0.758042 0.359969 0.375153 0.355431 0.753244 0.58848 0.355329 0.292721 0.273134 0.222032 0.212193 0.180369 0.151418 0.147349 0.0867941 0.0816447 0.0725883 0.0455898 0.0343252 0.432684 0.167858 0.0184291 0.00156896
threshold=910.50000000000011 1.0000000180025095e-35 1.0000000180025095e-35 11.500000000000002 319.50000000000006 1.0000000180025095e-35 175.50000000000003 28.500000000000004 1.0000000180025095e-35 1.0000000180025095e-35 526.00000000000011 1.0000000180025095e-35 1.5000000000000002 1.0000000180025095e-35 1.0000000180025095e-35 1.0000000180025095e-35 1.0000000180025095e-35 1.0000000180025095e-35 1.0000000180025095e-35 596.00000000000011 1.0000000180025095e-35 1.0000000180025095e-35 1.0000000180025095e-35 1.0000000180025095e-35 1.0000000180025095e-35 1.0000000180025095e-35
decision_type=2 2 2 2 2 2 2 2 2 2 2 2 2 2 2 2 2 2 2 2 2 2 2 2 2 2
left_child=1 2 6 11 5 -5 7 8 13 17 -8 14 16 25 15 21 18 -2 -10 -6 -4 23 -23 -3 -13 -1
right_child=9 3 20 4 19 -7 10 -9 12 -11 -12 24 -14 -15 -16 -17 -18 -19 -20 -21 -22 22 -24 -25 -26 -27
leaf_value=0.0019648083057511772 -0.01272885088038926 0.0048229693869889546 -0.0028744198713820837 -0.010077731211496715 -0.0028919843029526129 -0.0017045317871755353 -0.0036159089903187607 0.013218046863905951 0.0068603710014434917 -0.0025144478856498568 0.0045394802643252156 -0.00036495177746085445 0.0014853233767420082 -0.0036354110503464907 -0.0023597541379581318 0.0053529347115438553 0.0038032865838300576 -0.0083731665555915116 0.010054139401157559 0.0013324663605485151 -0.00040888009013736418 -0.0049183511287170098 0.0037120836124397414 -0.00029648367694553901 -0.0017761033137247573 0.0024442148435328578
leaf_weight=129 91 143 113 139 78 87 95 101 287 79 82 144 92 80 86 146 124 92 111 85 223 86 179 116 259 145
leaf_count=129 91 143 113 139 78 87 95 101 287 79 82 144 92 80 86 146 124 92 111 85 223 86 179 116 259 145
internal_value=0 0.00136082 0.003134 -0.000451299 -0.00427099 -0.00685442 0.00431299 0.00500024 0.0041428 -0.00811946 0.000162294 0.000830719 0.00601497 0.000895589 0.00195154 0.00250493 0.0068133 -0.0105391 0.0077511 -0.00068905 -0.00123806 0.00171141 0.000911263 0.00253009 -0.00127187 0.00221851
internal_weight=0 3130 1582 1548 389 226 1246 1069 968 262 177 1159 614 354 756 670 522 183 398 163 336 524 265 259 403 274
internal_count=3392 3130 1582 1548 389 226 1246 1069 968 262 177 1159 614 354 756 670 522 183 398 163 336 524 265 259 403 274
is_linear=0
shrinkage=0.1


Tree=33
num_leaves=27
num_cat=0
split_feature=5 0 3 5 5 5 5 5 16 19 12 3 3 5 8 5 3 3 8 19 19 5 3 15 15 16
split_gain=1.34473 1.67383 0.732732 0.302643 0.789508 0.65927 0.299669 0.277015 0.232135 0.305426 0.211881 0.173566 0.285156 0.163943 0.230817 0.30269 0.179043 0.178281 0.136575 0.113253 0.0839493 0.0810287 0.0462469 0.0209618 0.00517054 0.00953892
threshold=1260.5000000000002 1.0000000180025095e-35 829.50000000000011 365.00000000000006 536.50000000000011 699.50000000000011 1.2500000000000002 37.500000000000007 1.0000000180025095e-35 1.0000000180025095e-35 1.0000000180025095e-35 60.500000000000007 311.50000000000006 57.500000000000007 1.0000000180025095e-35 5.5000000000000009 10.500000000000002 1.0000000180025095e-35 1.0000000180025095e-35 1.0000000180025095e-35 1.0000000180025095e-35 32.500000000000007 1.0000000180025095e-35 1.0000000180025095e-35 1.0000000180025095e-35 1.0000000180025095e-35
decision_type=2 2 2 2 2 2 2 2 2 2 2 2 2 2 2 2 2 2 2 2 2 2 2 2 2 2
left_child=1 2 3 8 -5 -6 -4 -8 9 13 18 21 -13 14 17 16 -16 23 20 -7 24 22 -11 -1 25 -3
right_child=-2 10 6 4 5 19 7 -9 -10 11 -12 12 -14 -15 15 -17 -18 -19 -20 -21 -22 -23 -24 -25 -26 -27
leaf_value=-0.0021116983871871282 0.010873919078965802 0.0027781286348361666 -0.010239396394969303 0.010753183119881403 -0.0077976770893165076 0.0058072436502698528 0.00095079801886409777 -0.0071603728433669205 0.0023966629507737522 -0.0028879621104267428 -0.00043739394430561738 0.0071875480844358925 -0.00070654788414161319 -0.0066944001347232747 -0.00091376689011543946 0.0047412162846718793 -0.0062200605312538329 -0.00869745522541953 0.0050732203231348468 0.00050906009602873226 0.0042285915640146755 0.0016297080472206398 -9.3964584222883975e-05 -0.0042519298332349383 0.0014054440378102975 0.0014662748832500244
leaf_weight=102 122 115 113 78 87 76 75 96 146 201 142 76 115 108 244 75 86 81 420 86 235 75 84 83 164 107
leaf_count=102 122 115 113 78 87 76 75 96 146 201 142 76 115 108 244 75 86 81 420 86 235 75 84 83 164 107
internal_value=0 0.000181118 -0.00152227 -0.000778612 0.00197395 -0.000776178 -0.00624344 -0.00360284 -0.00138843 -0.00180393 0.00318616 -2.07729e-06 0.00243456 -0.00307842 -0.00249641 -0.000993316 -0.00229662 -0.00478495 0.00368044 0.00299463 0.00273847 -0.00129485 -0.00206447 -0.00307191 0.00183127 0.00214584
internal_weight=0 3270 2087 1803 327 249 284 171 1476 1330 1183 551 191 779 671 405 330 266 1041 162 621 360 285 185 386 222
internal_count=3392 3270 2087 1803 327 249 284 171 1476 1330 1183 551 191 779 671 405 330 266 1041 162 621 360 285 185 386 222
is_linear=0
shrinkage=0.1


Tree=34
num_leaves=33
num_cat=0
split_feature=22 1 18 1 1 1 16 8 1 12 1 11 1 8 8 1 1 1 1 1 15 1 1 1 1 1 1 1 1 1 1 1
split_gain=0.956795 1.38418 0.474922 0.541914 0.440175 0.404673 0.396764 0.301846 0.410148 0.346251 0.318732 0.282318 0.275664 0.248336 0.243728 0.380619 0.206979 0.210615 0.1668 0.13252 0.11834 0.190252 0.0942151 0.13733 0.106265 0.0908629 0.0868851 0.0668557 0.0649505 0.0307141 0.0170237 0.00392001
threshold=1.0000000180025095e-35 19.500000000000004 1.0000000180025095e-35 52.500000000000007 4.5000000000000009 34.500000000000007 1.0000000180025095e-35 1.0000000180025095e-35 11.500000000000002 1.0000000180025095e-35 37.500000000000007 1.0000000180025095e-35 17.500000000000004 1.0000000180025095e-35 1.0000000180025095e-35 41.500000000000007 30.500000000000004 25.500000000000004 18.500000000000004 25.500000000000004 1.0000000180025095e-35 27.500000000000004 24.500000000000004 21.500000000000004 29.500000000000004 50.500000000000007 48.500000000000007 14.500000000000002 21.500000000000004 39.500000000000007 29.500000000000004 27.500000000000004
decision_type=2 2 2 2 2 2 2 2 2 2 2 2 2 2 2 2 2 2 2 2 2 2 2 2 2 2 2 2 2 2 2 2
left_child=2 4 3 6 -2 13 7 11 -9 10 16 20 27 19 25 -16 17 18 -10 -3 21 -1 23 -15 -24 29 -17 -6 -20 -7 -21 -4
right_child=1 5 31 -5 12 14 -8 8 9 -11 -12 -13 -14 22 15 26 -18 -19 28 30 -22 -23 24 -25 -26 -27 -28 -29 -30 -31 -32 -33
leaf_value=0.00085141504555908711 0.010546608235019487 0.00082836066154073169 -0.0034621160854794776 -0.0036580159790327357 -0.0015500755146178569 -0.0049952216463617551 0.0083355644430278802 -0.0018923620442444584 0.0074046404779008887 -0.00058673013485868427 0.010446957084674857 0.0046103028053067945 0.0063732917221606027 -0.0073748785427286308 0.007194248484046319 0.0012312512405630147 0.00022131518956358486 0.010056838012457193 0.0005263038341525374 -0.0043498351526421323 0.002639285473099304 -0.0043928476375531466 -0.0091882870783503347 -0.0022436500258004289 -0.0046286773002874627 0.00032118243245377249 -0.0035208852897543139 0.0021250031635425028 0.0042803917857190538 -0.0025952783111391421 -0.0026199876683068125 -0.0024736975145408578
leaf_weight=143 82 101 85 123 110 93 139 105 112 101 116 139 108 89 83 75 88 83 87 119 82 134 126 126 86 80 79 90 98 125 109 76
leaf_count=143 82 101 85 123 110 93 139 105 112 101 116 139 108 89 83 75 88 83 87 119 82 134 126 126 86 80 79 90 98 125 109 76
internal_value=0 -0.00118529 0.00217385 0.0027108 0.00403559 -0.00276247 0.00325976 0.00271198 0.00392743 0.00481951 0.0057545 0.000783864 0.00230213 -0.00425185 -0.000657859 0.00173551 0.00459141 0.00560343 0.00435888 -0.00218707 -0.000697682 -0.00168552 -0.00584275 -0.00436774 -0.00733863 -0.00256131 -0.00120653 0.00010371 0.00251496 -0.00361911 -0.00352285 -0.00299553
internal_weight=0 1681 1711 1550 390 1291 1427 1288 790 685 584 498 308 756 535 237 468 380 297 329 359 277 427 215 212 298 154 200 185 218 228 161
internal_count=3392 1681 1711 1550 390 1291 1427 1288 790 685 584 498 308 756 535 237 468 380 297 329 359 277 427 215 212 298 154 200 185 218 228 161
is_linear=0
shrinkage=0.1


Tree=35
num_leaves=34
num_cat=0
split_feature=6 5 4 0 22 5 1 1 6 4 4 4 22 5 5 1 1 22 6 22 1 19 5 1 1 19 1 19 6 1 22 1 1
split_gain=1.6835 1.35157 1.16435 1.02244 0.892073 0.603866 1.48886 0.680263 0.549072 0.670267 0.512941 0.463095 1.06159 0.453726 0.451029 0.398346 0.300526 0.262332 0.222139 0.201663 0.180449 0.257553 0.176614 0.153658 0.332968 0.148207 0.185117 0.11713 0.0911935 0.0775647 0.0573971 0.0398177 0.0214541
threshold=131.50000000000003 1260.5000000000002 1437.0000000000002 1.0000000180025095e-35 1.0000000180025095e-35 365.00000000000006 34.500000000000007 5.5000000000000009 1088.5000000000002 35.500000000000007 837.50000000000011 456.50000000000006 1.0000000180025095e-35 1.0000000180025095e-35 9.5000000000000018 42.500000000000007 25.500000000000004 1.0000000180025095e-35 380.50000000000006 1.0000000180025095e-35 16.500000000000004 1.0000000180025095e-35 129.50000000000003 29.500000000000004 25.500000000000004 1.0000000180025095e-35 19.500000000000004 1.0000000180025095e-35 697.00000000000011 30.500000000000004 1.0000000180025095e-35 53.500000000000007 23.500000000000004
decision_type=2 2 2 2 2 2 2 2 2 2 2 2 2 2 2 2 2 2 2 2 2 2 2 2 2 2 2 2 2 2 2 2 2
left_child=1 2 3 5 8 7 17 -1 9 -2 18 13 -13 16 -15 19 30 -7 -6 23 -21 29 -16 24 25 26 -5 -18 -20 32 -9 -17 -22
right_child=4 -3 -4 15 10 6 -8 11 -10 -11 -12 12 -14 14 22 31 27 -19 28 20 21 -23 -24 -25 -26 -27 -28 -29 -30 -31 -32 -33 -34
leaf_value=0.0060033785020490249 -0.0021777170174056225 0.013268776190616512 0.010018577005894336 0.0047894638519780869 -0.0097132763268991309 -0.0057785511691015104 0.01420167900045643 -0.0059482302285675673 -0.0059573513661025958 0.0083631032848723065 -0.013783904313164183 0.0084635377449184656 -0.0064869444264945859 0.0033611432090028107 -0.0022055802038108271 -0.0023679005731390389 -0.0074419685892381376 0.0016177948415733525 -0.00060404915168036548 0.0054619307451183145 -0.00061282660248555777 0.0061189795131873243 -0.0078146824112784227 0.0082586126492172566 -0.0013637926527719211 0.0018305504181020443 0.010691559538595314 -0.012646796421289764 -0.005063577926770953 0.0020700183185437412 -0.0023768267795884865 0.00052286906392028955 -0.002747670719649761
leaf_weight=86 140 96 141 151 76 93 81 90 117 106 92 96 94 110 144 125 88 99 75 120 104 76 92 112 88 78 82 85 118 84 90 77 86
leaf_count=86 140 96 141 151 76 93 81 90 117 106 92 96 94 110 144 125 88 99 75 120 104 76 92 112 88 78 82 85 118 84 90 77 86
internal_value=0 0.00161875 0.00118391 0.000671494 -0.00381842 -0.0013252 0.00283184 -0.00248917 -0.000317911 0.00236426 -0.00733832 -0.00331072 0.00106698 -0.00450065 -0.00192725 0.00277789 -0.00702302 -0.00196481 -0.00513388 0.00361057 0.00211558 0.000968258 -0.00439218 0.00498562 0.00406688 0.00560354 0.0068666 -0.00999925 -0.0033306 -0.000460409 -0.00416253 -0.00126597 -0.00157912
internal_weight=0 2668 2572 2431 724 1248 273 975 363 246 361 889 190 699 346 1183 353 192 269 981 470 350 236 511 399 311 233 173 193 274 180 202 190
internal_count=3392 2668 2572 2431 724 1248 273 975 363 246 361 889 190 699 346 1183 353 192 269 981 470 350 236 511 399 311 233 173 193 274 180 202 190
is_linear=0
shrinkage=0.1


Tree=36
num_leaves=27
num_cat=0
